<?xml version="1.0"?>
<MethodSetup Method="BDT::BDT">
  <GeneralInfo>
    <Info name="TMVA Release" value="4.2.1 [262657]"/>
    <Info name="ROOT Release" value="6.12/07 [396295]"/>
    <Info name="Creator" value="jkrupa"/>
    <Info name="Date" value="Fri May  3 10:31:30 2019"/>
    <Info name="Host" value="Linux cmsbuild87.cern.ch 2.6.32-696.30.1.el6.x86_64 #1 SMP Tue May 22 06:09:36 CEST 2018 x86_64 x86_64 x86_64 GNU/Linux"/>
    <Info name="Dir" value="/uscms_data/d3/jkrupa/pf_studies/CMSSW_10_5_0_pre2/src/CaloTrigNN/CaloNtupler/test"/>
    <Info name="Training events" value="236992"/>
    <Info name="TrainingTime" value="2.16155575e+02"/>
    <Info name="AnalysisType" value="Classification"/>
  </GeneralInfo>
  <Options>
    <Option name="V" modified="Yes">False</Option>
    <Option name="VerbosityLevel" modified="No">Default</Option>
    <Option name="VarTransform" modified="No">None</Option>
    <Option name="H" modified="Yes">False</Option>
    <Option name="CreateMVAPdfs" modified="No">False</Option>
    <Option name="IgnoreNegWeightsInTraining" modified="No">False</Option>
    <Option name="NTrees" modified="Yes">300</Option>
    <Option name="MaxDepth" modified="Yes">4</Option>
    <Option name="MinNodeSize" modified="Yes">2.5%</Option>
    <Option name="nCuts" modified="Yes">100</Option>
    <Option name="BoostType" modified="Yes">Grad</Option>
    <Option name="AdaBoostR2Loss" modified="No">quadratic</Option>
    <Option name="UseBaggedBoost" modified="No">False</Option>
    <Option name="Shrinkage" modified="No">1.000000e+00</Option>
    <Option name="AdaBoostBeta" modified="No">5.000000e-01</Option>
    <Option name="UseRandomisedTrees" modified="No">False</Option>
    <Option name="UseNvars" modified="No">3</Option>
    <Option name="UsePoissonNvars" modified="No">True</Option>
    <Option name="BaggedSampleFraction" modified="No">6.000000e-01</Option>
    <Option name="UseYesNoLeaf" modified="No">True</Option>
    <Option name="NegWeightTreatment" modified="No">pray</Option>
    <Option name="Css" modified="No">1.000000e+00</Option>
    <Option name="Cts_sb" modified="No">1.000000e+00</Option>
    <Option name="Ctb_ss" modified="No">1.000000e+00</Option>
    <Option name="Cbb" modified="No">1.000000e+00</Option>
    <Option name="NodePurityLimit" modified="No">5.000000e-01</Option>
    <Option name="SeparationType" modified="Yes">giniindex</Option>
    <Option name="RegressionLossFunctionBDTG" modified="No">huber</Option>
    <Option name="HuberQuantile" modified="No">7.000000e-01</Option>
    <Option name="DoBoostMonitor" modified="No">False</Option>
    <Option name="UseFisherCuts" modified="No">False</Option>
    <Option name="MinLinCorrForFisher" modified="No">8.000000e-01</Option>
    <Option name="UseExclusiveVars" modified="No">False</Option>
    <Option name="DoPreselection" modified="No">False</Option>
    <Option name="SigToBkgFraction" modified="No">1.000000e+00</Option>
    <Option name="PruneMethod" modified="Yes">nopruning</Option>
    <Option name="PruneStrength" modified="No">0.000000e+00</Option>
    <Option name="PruningValFraction" modified="No">5.000000e-01</Option>
    <Option name="SkipNormalization" modified="No">False</Option>
    <Option name="nEventsMin" modified="No">0</Option>
    <Option name="UseBaggedGrad" modified="No">False</Option>
    <Option name="GradBaggingFraction" modified="No">6.000000e-01</Option>
    <Option name="UseNTrainEvents" modified="No">0</Option>
    <Option name="NNodesMax" modified="No">0</Option>
  </Options>
  <Variables NVar="9">
    <Variable VarIndex="0" Expression="eta" Label="eta" Title="eta" Unit="" Internal="eta" Type="F" Min="-2.99989319e+00" Max="2.99999714e+00"/>
    <Variable VarIndex="1" Expression="phi" Label="phi" Title="phi" Unit="" Internal="phi" Type="F" Min="-3.14159179e+00" Max="3.14158416e+00"/>
    <Variable VarIndex="2" Expression="depthFrac0" Label="depthFrac0" Title="depthFrac0" Unit="" Internal="depthFrac0" Type="F" Min="0.00000000e+00" Max="1.00000000e+00"/>
    <Variable VarIndex="3" Expression="depthFrac1" Label="depthFrac1" Title="depthFrac1" Unit="" Internal="depthFrac1" Type="F" Min="0.00000000e+00" Max="1.00000000e+00"/>
    <Variable VarIndex="4" Expression="depthFrac2" Label="depthFrac2" Title="depthFrac2" Unit="" Internal="depthFrac2" Type="F" Min="0.00000000e+00" Max="1.00000000e+00"/>
    <Variable VarIndex="5" Expression="depthFrac3" Label="depthFrac3" Title="depthFrac3" Unit="" Internal="depthFrac3" Type="F" Min="0.00000000e+00" Max="9.15533125e-01"/>
    <Variable VarIndex="6" Expression="depthFrac4" Label="depthFrac4" Title="depthFrac4" Unit="" Internal="depthFrac4" Type="F" Min="0.00000000e+00" Max="9.51184809e-01"/>
    <Variable VarIndex="7" Expression="depthFrac5" Label="depthFrac5" Title="depthFrac5" Unit="" Internal="depthFrac5" Type="F" Min="0.00000000e+00" Max="8.58262241e-01"/>
    <Variable VarIndex="8" Expression="depthFrac6" Label="depthFrac6" Title="depthFrac6" Unit="" Internal="depthFrac6" Type="F" Min="0.00000000e+00" Max="9.45384383e-01"/>
  </Variables>
  <Spectators NSpec="0"/>
  <Classes NClass="2">
    <Class Name="Signal" Index="0"/>
    <Class Name="Background" Index="1"/>
  </Classes>
  <Transformations NTransformations="0"/>
  <MVAPdfs/>
  <Weights NTrees="300" AnalysisType="1">
    <BinaryTree type="DecisionTree" boostWeight="1.0000000000000000e+00" itree="0">
      <Node pos="s" depth="0" NCoef="0" IVar="3" Cut="9.7029703855514526e-01" cType="1" res="0.0000000000000000e+00" rms="5.0000000000000000e-01" purity="5.0000000000000000e-01" nType="0">
        <Node pos="l" depth="1" NCoef="0" IVar="2" Cut="4.9504950642585754e-02" cType="1" res="3.7240993231534958e-02" rms="4.9861118197441101e-01" purity="5.3724098205566406e-01" nType="0">
          <Node pos="l" depth="2" NCoef="0" IVar="8" Cut="6.5521687269210815e-02" cType="1" res="2.5900626182556152e-01" rms="4.2768651247024536e-01" purity="7.5900626182556152e-01" nType="0">
            <Node pos="l" depth="3" NCoef="0" IVar="8" Cut="6.4855202799662948e-04" cType="1" res="2.9017755389213562e-01" rms="4.0718173980712891e-01" purity="7.9017758369445801e-01" nType="0">
              <Node pos="l" depth="4" NCoef="0" IVar="-1" Cut="0.0000000000000000e+00" cType="1" res="5.6065154075622559e-01" rms="4.1402593255043030e-01" purity="7.8032577037811279e-01" nType="-99"/>
              <Node pos="r" depth="4" NCoef="0" IVar="-1" Cut="0.0000000000000000e+00" cType="1" res="6.8304944038391113e-01" rms="3.6518606543540955e-01" purity="8.4152472019195557e-01" nType="-99"/>
            </Node>
            <Node pos="r" depth="3" NCoef="0" IVar="-1" Cut="0.0000000000000000e+00" cType="1" res="7.8313253819942474e-02" rms="4.9846440553665161e-01" purity="5.3915661573410034e-01" nType="-99"/>
          </Node>
          <Node pos="r" depth="2" NCoef="0" IVar="8" Cut="8.2078389823436737e-02" cType="1" res="-2.9158661141991615e-02" rms="4.9914905428886414e-01" purity="4.7084134817123413e-01" nType="0">
            <Node pos="l" depth="3" NCoef="0" IVar="2" Cut="2.8477734327316284e-01" cType="1" res="5.9707048349082470e-03" rms="4.9996435642242432e-01" purity="5.0597071647644043e-01" nType="0">
              <Node pos="l" depth="4" NCoef="0" IVar="-1" Cut="0.0000000000000000e+00" cType="1" res="1.1274087429046631e-01" rms="4.9681222438812256e-01" purity="5.5637043714523315e-01" nType="-99"/>
              <Node pos="r" depth="4" NCoef="0" IVar="-1" Cut="0.0000000000000000e+00" cType="1" res="-2.0360384881496429e-01" rms="4.8952668905258179e-01" purity="3.9819806814193726e-01" nType="-99"/>
            </Node>
            <Node pos="r" depth="3" NCoef="0" IVar="8" Cut="1.3384592533111572e-01" cType="1" res="-1.9285428524017334e-01" rms="4.6131032705307007e-01" purity="3.0714571475982666e-01" nType="0">
              <Node pos="l" depth="4" NCoef="0" IVar="-1" Cut="0.0000000000000000e+00" cType="1" res="-3.0473667383193970e-01" rms="4.7621831297874451e-01" purity="3.4763166308403015e-01" nType="-99"/>
              <Node pos="r" depth="4" NCoef="0" IVar="-1" Cut="0.0000000000000000e+00" cType="1" res="-4.9171867966651917e-01" rms="4.3537706136703491e-01" purity="2.5414067506790161e-01" nType="-99"/>
            </Node>
          </Node>
        </Node>
        <Node pos="r" depth="1" NCoef="0" IVar="0" Cut="-2.8988389968872070e+00" cType="1" res="-4.9649250507354736e-01" rms="5.9120185673236847e-02" purity="3.5074988845735788e-03" nType="0">
          <Node pos="l" depth="2" NCoef="0" IVar="-1" Cut="0.0000000000000000e+00" cType="1" res="-9.9856716394424438e-01" rms="2.6756394654512405e-02" purity="7.1641791146248579e-04" nType="-99"/>
          <Node pos="r" depth="2" NCoef="0" IVar="-1" Cut="0.0000000000000000e+00" cType="1" res="-9.8725646734237671e-01" rms="7.9568639397621155e-02" purity="6.3717681914567947e-03" nType="-99"/>
        </Node>
      </Node>
    </BinaryTree>
    <BinaryTree type="DecisionTree" boostWeight="1.0000000000000000e+00" itree="1">
      <Node pos="s" depth="0" NCoef="0" IVar="2" Cut="9.9009901285171509e-01" cType="1" res="-4.1911113075911999e-03" rms="4.5802485942840576e-01" purity="5.0000000000000000e-01" nType="0">
        <Node pos="l" depth="1" NCoef="0" IVar="7" Cut="1.0197175294160843e-01" cType="1" res="2.0028413273394108e-03" rms="4.5845881104469299e-01" purity="5.0926685333251953e-01" nType="0">
          <Node pos="l" depth="2" NCoef="0" IVar="7" Cut="1.0096163023263216e-03" cType="1" res="2.0193673670291901e-02" rms="4.5247337222099304e-01" purity="5.3479540348052979e-01" nType="0">
            <Node pos="l" depth="3" NCoef="0" IVar="3" Cut="9.5049506425857544e-01" cType="1" res="-1.4338963665068150e-02" rms="4.4017025828361511e-01" purity="4.9801060557365417e-01" nType="0">
              <Node pos="l" depth="4" NCoef="0" IVar="-1" Cut="0.0000000000000000e+00" cType="1" res="4.0613082237541676e-03" rms="4.7074922919273376e-01" purity="5.7545483112335205e-01" nType="-99"/>
              <Node pos="r" depth="4" NCoef="0" IVar="-1" Cut="0.0000000000000000e+00" cType="1" res="-5.5251878499984741e-01" rms="6.1664950102567673e-02" purity="4.0471157990396023e-03" nType="-99"/>
            </Node>
            <Node pos="r" depth="3" NCoef="0" IVar="8" Cut="4.6801205724477768e-02" cType="1" res="8.7804317474365234e-02" rms="4.6832486987113953e-01" purity="6.0681539773941040e-01" nType="0">
              <Node pos="l" depth="4" NCoef="0" IVar="-1" Cut="0.0000000000000000e+00" cType="1" res="2.9386731982231140e-01" rms="4.4880950450897217e-01" purity="7.0987313985824585e-01" nType="-99"/>
              <Node pos="r" depth="4" NCoef="0" IVar="-1" Cut="0.0000000000000000e+00" cType="1" res="3.3587642014026642e-02" rms="4.8525172472000122e-01" purity="4.6225833892822266e-01" nType="-99"/>
            </Node>
          </Node>
          <Node pos="r" depth="2" NCoef="0" IVar="2" Cut="8.7107658386230469e-02" cType="1" res="-7.1462757885456085e-02" rms="4.7483751177787781e-01" purity="4.0616723895072937e-01" nType="0">
            <Node pos="l" depth="3" NCoef="0" IVar="3" Cut="9.8462313413619995e-02" cType="1" res="-1.3123850338160992e-02" rms="4.7801861166954041e-01" purity="5.1211446523666382e-01" nType="0">
              <Node pos="l" depth="4" NCoef="0" IVar="-1" Cut="0.0000000000000000e+00" cType="1" res="1.8137329816818237e-01" rms="4.5063114166259766e-01" purity="6.3999342918395996e-01" nType="-99"/>
              <Node pos="r" depth="4" NCoef="0" IVar="-1" Cut="0.0000000000000000e+00" cType="1" res="-1.2902672588825226e-01" rms="4.8453757166862488e-01" purity="4.4954794645309448e-01" nType="-99"/>
            </Node>
            <Node pos="r" depth="3" NCoef="0" IVar="8" Cut="8.1823430955410004e-02" cType="1" res="-1.1096850037574768e-01" rms="4.6856442093849182e-01" purity="3.3442226052284241e-01" nType="0">
              <Node pos="l" depth="4" NCoef="0" IVar="-1" Cut="0.0000000000000000e+00" cType="1" res="-3.0932825803756714e-01" rms="4.8884284496307373e-01" purity="3.9480450749397278e-01" nType="-99"/>
              <Node pos="r" depth="4" NCoef="0" IVar="-1" Cut="0.0000000000000000e+00" cType="1" res="-1.3690406084060669e-01" rms="4.3622291088104248e-01" purity="2.5859069824218750e-01" nType="-99"/>
            </Node>
          </Node>
        </Node>
        <Node pos="r" depth="1" NCoef="0" IVar="-1" Cut="0.0000000000000000e+00" cType="1" res="-4.4817391037940979e-01" rms="3.8791865110397339e-01" purity="1.8453349173069000e-01" nType="-99"/>
      </Node>
    </BinaryTree>
    <BinaryTree type="DecisionTree" boostWeight="1.0000000000000000e+00" itree="2">
      <Node pos="s" depth="0" NCoef="0" IVar="0" Cut="-2.8216786384582520e+00" cType="1" res="-2.4848962202668190e-03" rms="4.5012640953063965e-01" purity="5.0000000000000000e-01" nType="0">
        <Node pos="l" depth="1" NCoef="0" IVar="4" Cut="4.9504950642585754e-02" cType="1" res="-5.9278622269630432e-02" rms="3.9697617292404175e-01" purity="3.2920330762863159e-01" nType="0">
          <Node pos="l" depth="2" NCoef="0" IVar="0" Cut="-2.9107937812805176e+00" cType="1" res="-2.3091146722435951e-02" rms="3.1557664275169373e-01" purity="2.6890668272972107e-01" nType="0">
            <Node pos="l" depth="3" NCoef="0" IVar="-1" Cut="0.0000000000000000e+00" cType="1" res="-3.8755854964256287e-01" rms="1.5464979410171509e-01" purity="6.3016079366207123e-02" nType="-99"/>
            <Node pos="r" depth="3" NCoef="0" IVar="-1" Cut="0.0000000000000000e+00" cType="1" res="8.1383198499679565e-02" rms="4.5652782917022705e-01" purity="5.8050513267517090e-01" nType="-99"/>
          </Node>
          <Node pos="r" depth="2" NCoef="0" IVar="2" Cut="1.1195749044418335e-01" cType="1" res="-9.9262088537216187e-02" rms="4.6757909655570984e-01" purity="3.9582490921020508e-01" nType="0">
            <Node pos="l" depth="3" NCoef="0" IVar="-1" Cut="0.0000000000000000e+00" cType="1" res="-1.3989783823490143e-01" rms="4.6264135837554932e-01" purity="4.6158280968666077e-01" nType="-99"/>
            <Node pos="r" depth="3" NCoef="0" IVar="-1" Cut="0.0000000000000000e+00" cType="1" res="-2.7095770835876465e-01" rms="4.6904987096786499e-01" purity="3.5177674889564514e-01" nType="-99"/>
          </Node>
        </Node>
        <Node pos="r" depth="1" NCoef="0" IVar="0" Cut="2.7694358825683594e+00" cType="1" res="7.8210560604929924e-03" rms="4.5835834741592407e-01" purity="5.3099328279495239e-01" nType="0">
          <Node pos="l" depth="2" NCoef="0" IVar="2" Cut="8.2178217172622681e-01" cType="1" res="2.7610018849372864e-02" rms="4.6827572584152222e-01" purity="5.8390098810195923e-01" nType="0">
            <Node pos="l" depth="3" NCoef="0" IVar="8" Cut="9.3602417036890984e-03" cType="1" res="2.2759411484003067e-02" rms="4.6568924188613892e-01" purity="5.8958077430725098e-01" nType="0">
              <Node pos="l" depth="4" NCoef="0" IVar="-1" Cut="0.0000000000000000e+00" cType="1" res="1.4189129695296288e-02" rms="4.6656566858291626e-01" purity="6.1332899332046509e-01" nType="-99"/>
              <Node pos="r" depth="4" NCoef="0" IVar="-1" Cut="0.0000000000000000e+00" cType="1" res="1.0347140580415726e-01" rms="4.6358382701873779e-01" purity="5.5776810646057129e-01" nType="-99"/>
            </Node>
            <Node pos="r" depth="3" NCoef="0" IVar="-1" Cut="0.0000000000000000e+00" cType="1" res="2.9783734679222107e-01" rms="5.0876355171203613e-01" purity="4.6584042906761169e-01" nType="-99"/>
          </Node>
          <Node pos="r" depth="2" NCoef="0" IVar="2" Cut="1.1881188303232193e-01" cType="1" res="-3.8590367883443832e-02" rms="4.3065875768661499e-01" purity="4.0690770745277405e-01" nType="0">
            <Node pos="l" depth="3" NCoef="0" IVar="0" Cut="2.8173284530639648e+00" cType="1" res="-3.2043363898992538e-03" rms="3.8248389959335327e-01" purity="4.3234682083129883e-01" nType="0">
              <Node pos="l" depth="4" NCoef="0" IVar="-1" Cut="0.0000000000000000e+00" cType="1" res="9.4004958868026733e-02" rms="4.4709277153015137e-01" purity="6.3594365119934082e-01" nType="-99"/>
              <Node pos="r" depth="4" NCoef="0" IVar="-1" Cut="0.0000000000000000e+00" cType="1" res="-7.5526490807533264e-02" rms="3.4924256801605225e-01" purity="3.4415268898010254e-01" nType="-99"/>
            </Node>
            <Node pos="r" depth="3" NCoef="0" IVar="3" Cut="5.3218799829483032e-01" cType="1" res="-7.2547033429145813e-02" rms="4.6979039907455444e-01" purity="3.8249614834785461e-01" nType="0">
              <Node pos="l" depth="4" NCoef="0" IVar="-1" Cut="0.0000000000000000e+00" cType="1" res="-2.0761789381504059e-01" rms="4.5953455567359924e-01" purity="3.5018661618232727e-01" nType="-99"/>
              <Node pos="r" depth="4" NCoef="0" IVar="-1" Cut="0.0000000000000000e+00" cType="1" res="-8.9707318693399429e-03" rms="4.9665114283561707e-01" purity="4.9095827341079712e-01" nType="-99"/>
            </Node>
          </Node>
        </Node>
      </Node>
    </BinaryTree>
    <BinaryTree type="DecisionTree" boostWeight="1.0000000000000000e+00" itree="3">
      <Node pos="s" depth="0" NCoef="0" IVar="6" Cut="1.0359438508749008e-01" cType="1" res="-1.1303747305646539e-03" rms="4.4710078835487366e-01" purity="5.0000000000000000e-01" nType="0">
        <Node pos="l" depth="1" NCoef="0" IVar="5" Cut="2.1755242347717285e-01" cType="1" res="1.1196406558156013e-02" rms="4.3978744745254517e-01" purity="5.0527757406234741e-01" nType="0">
          <Node pos="l" depth="2" NCoef="0" IVar="6" Cut="1.0256576351821423e-03" cType="1" res="1.5341444872319698e-02" rms="4.3789035081863403e-01" purity="5.0667905807495117e-01" nType="0">
            <Node pos="l" depth="3" NCoef="0" IVar="5" Cut="5.5979717522859573e-02" cType="1" res="2.2790920920670033e-03" rms="4.2671561241149902e-01" purity="4.8083531856536865e-01" nType="0">
              <Node pos="l" depth="4" NCoef="0" IVar="-1" Cut="0.0000000000000000e+00" cType="1" res="2.0696828141808510e-02" rms="4.2245888710021973e-01" purity="4.8518255352973938e-01" nType="-99"/>
              <Node pos="r" depth="4" NCoef="0" IVar="-1" Cut="0.0000000000000000e+00" cType="1" res="-2.0019045472145081e-01" rms="4.8734867572784424e-01" purity="4.0228757262229919e-01" nType="-99"/>
            </Node>
            <Node pos="r" depth="3" NCoef="0" IVar="3" Cut="3.2946017384529114e-01" cType="1" res="4.5325580984354019e-02" rms="4.6112412214279175e-01" purity="5.6600248813629150e-01" nType="0">
              <Node pos="l" depth="4" NCoef="0" IVar="-1" Cut="0.0000000000000000e+00" cType="1" res="1.4463114552199841e-02" rms="4.6793162822723389e-01" purity="4.6109777688980103e-01" nType="-99"/>
              <Node pos="r" depth="4" NCoef="0" IVar="-1" Cut="0.0000000000000000e+00" cType="1" res="1.8015877902507782e-01" rms="4.5230200886726379e-01" purity="6.5789669752120972e-01" nType="-99"/>
            </Node>
          </Node>
          <Node pos="r" depth="2" NCoef="0" IVar="-1" Cut="0.0000000000000000e+00" cType="1" res="-1.9599993526935577e-01" rms="4.7175583243370056e-01" purity="4.7250139713287354e-01" nType="-99"/>
        </Node>
        <Node pos="r" depth="1" NCoef="0" IVar="8" Cut="5.9267613105475903e-03" cType="1" res="-3.5702750086784363e-02" rms="4.6526226401329041e-01" purity="4.8519825935363770e-01" nType="0">
          <Node pos="l" depth="2" NCoef="0" IVar="-1" Cut="0.0000000000000000e+00" cType="1" res="-2.4156825244426727e-01" rms="4.7823405265808105e-01" purity="4.7828608751296997e-01" nType="-99"/>
          <Node pos="r" depth="2" NCoef="0" IVar="8" Cut="2.9402807354927063e-02" cType="1" res="-2.1433621644973755e-02" rms="4.6130961179733276e-01" purity="4.8657387495040894e-01" nType="0">
            <Node pos="l" depth="3" NCoef="0" IVar="-1" Cut="0.0000000000000000e+00" cType="1" res="1.0191854089498520e-01" rms="4.3114277720451355e-01" purity="7.1213203668594360e-01" nType="-99"/>
            <Node pos="r" depth="3" NCoef="0" IVar="5" Cut="2.2604283690452576e-01" cType="1" res="-3.5742532461881638e-02" rms="4.6690025925636292e-01" purity="4.3402004241943359e-01" nType="0">
              <Node pos="l" depth="4" NCoef="0" IVar="-1" Cut="0.0000000000000000e+00" cType="1" res="-1.0156583040952682e-01" rms="4.6745666861534119e-01" purity="4.0624827146530151e-01" nType="-99"/>
              <Node pos="r" depth="4" NCoef="0" IVar="-1" Cut="0.0000000000000000e+00" cType="1" res="2.5418097153306007e-02" rms="4.6098443865776062e-01" purity="5.9245705604553223e-01" nType="-99"/>
            </Node>
          </Node>
        </Node>
      </Node>
    </BinaryTree>
    <BinaryTree type="DecisionTree" boostWeight="1.0000000000000000e+00" itree="4">
      <Node pos="s" depth="0" NCoef="0" IVar="2" Cut="1.3861386477947235e-01" cType="1" res="3.6074878880754113e-04" rms="4.4465315341949463e-01" purity="5.0000000000000000e-01" nType="0">
        <Node pos="l" depth="1" NCoef="0" IVar="3" Cut="9.8019802570343018e-01" cType="1" res="1.3848015107214451e-02" rms="4.1575369238853455e-01" purity="5.4791527986526489e-01" nType="0">
          <Node pos="l" depth="2" NCoef="0" IVar="7" Cut="5.9483520686626434e-02" cType="1" res="1.9836366176605225e-02" rms="4.4437229633331299e-01" purity="6.2788695096969604e-01" nType="0">
            <Node pos="l" depth="3" NCoef="0" IVar="2" Cut="2.7447585016489029e-03" cType="1" res="3.2679982483386993e-02" rms="4.2768493294715881e-01" purity="7.3173069953918457e-01" nType="0">
              <Node pos="l" depth="4" NCoef="0" IVar="-1" Cut="0.0000000000000000e+00" cType="1" res="4.6143222600221634e-02" rms="4.1380229592323303e-01" purity="7.8175210952758789e-01" nType="-99"/>
              <Node pos="r" depth="4" NCoef="0" IVar="-1" Cut="0.0000000000000000e+00" cType="1" res="1.2374887615442276e-01" rms="4.4298171997070312e-01" purity="6.7175000905990601e-01" nType="-99"/>
            </Node>
            <Node pos="r" depth="3" NCoef="0" IVar="3" Cut="7.1533434092998505e-02" cType="1" res="2.5094035081565380e-03" rms="4.6537742018699646e-01" purity="4.8779419064521790e-01" nType="0">
              <Node pos="l" depth="4" NCoef="0" IVar="-1" Cut="0.0000000000000000e+00" cType="1" res="1.3947623968124390e-01" rms="4.2747020721435547e-01" purity="6.5432906150817871e-01" nType="-99"/>
              <Node pos="r" depth="4" NCoef="0" IVar="-1" Cut="0.0000000000000000e+00" cType="1" res="-1.2017898261547089e-02" rms="4.7021338343620300e-01" purity="4.6333286166191101e-01" nType="-99"/>
            </Node>
          </Node>
          <Node pos="r" depth="2" NCoef="0" IVar="0" Cut="2.9062879085540771e+00" cType="1" res="-2.6931064203381538e-02" rms="5.7603064924478531e-02" purity="3.3294993918389082e-03" nType="0">
            <Node pos="l" depth="3" NCoef="0" IVar="-1" Cut="0.0000000000000000e+00" cType="1" res="-3.8339832425117493e-01" rms="7.1184553205966949e-02" purity="5.3317537531256676e-03" nType="-99"/>
            <Node pos="r" depth="3" NCoef="0" IVar="-1" Cut="0.0000000000000000e+00" cType="1" res="-5.0431895256042480e-01" rms="3.5160273313522339e-02" purity="1.2377769453451037e-03" nType="-99"/>
          </Node>
        </Node>
        <Node pos="r" depth="1" NCoef="0" IVar="2" Cut="2.8359985351562500e-01" cType="1" res="-1.5752701088786125e-02" rms="4.7638899087905884e-01" purity="4.4275486469268799e-01" nType="0">
          <Node pos="l" depth="2" NCoef="0" IVar="2" Cut="1.9746930897235870e-01" cType="1" res="-3.4270789474248886e-02" rms="4.7805067896842957e-01" purity="4.7720286250114441e-01" nType="0">
            <Node pos="l" depth="3" NCoef="0" IVar="4" Cut="2.7220255136489868e-01" cType="1" res="-1.7175164073705673e-02" rms="4.7485646605491638e-01" purity="4.7982898354530334e-01" nType="0">
              <Node pos="l" depth="4" NCoef="0" IVar="-1" Cut="0.0000000000000000e+00" cType="1" res="-2.2124499082565308e-02" rms="4.7204574942588806e-01" purity="4.7901415824890137e-01" nType="-99"/>
              <Node pos="r" depth="4" NCoef="0" IVar="-1" Cut="0.0000000000000000e+00" cType="1" res="-1.1111184954643250e-01" rms="4.8584410548210144e-01" purity="4.8350191116333008e-01" nType="-99"/>
            </Node>
            <Node pos="r" depth="3" NCoef="0" IVar="8" Cut="4.6349074691534042e-03" cType="1" res="-5.3906608372926712e-02" rms="4.8094415664672852e-01" purity="4.7418650984764099e-01" nType="0">
              <Node pos="l" depth="4" NCoef="0" IVar="-1" Cut="0.0000000000000000e+00" cType="1" res="-1.5558384358882904e-01" rms="4.9287134408950806e-01" purity="4.6894428133964539e-01" nType="-99"/>
              <Node pos="r" depth="4" NCoef="0" IVar="-1" Cut="0.0000000000000000e+00" cType="1" res="-6.0542006045579910e-02" rms="4.6218550205230713e-01" purity="4.8154613375663757e-01" nType="-99"/>
            </Node>
          </Node>
          <Node pos="r" depth="2" NCoef="0" IVar="3" Cut="2.4115002155303955e-01" cType="1" res="9.3437340110540390e-03" rms="4.7297197580337524e-01" purity="3.9606961607933044e-01" nType="0">
            <Node pos="l" depth="3" NCoef="0" IVar="2" Cut="9.2197650671005249e-01" cType="1" res="-3.9262872189283371e-02" rms="4.3603903055191040e-01" purity="3.1020480394363403e-01" nType="0">
              <Node pos="l" depth="4" NCoef="0" IVar="-1" Cut="0.0000000000000000e+00" cType="1" res="-1.2431050837039948e-01" rms="4.8038136959075928e-01" purity="3.7570378184318542e-01" nType="-99"/>
              <Node pos="r" depth="4" NCoef="0" IVar="-1" Cut="0.0000000000000000e+00" cType="1" res="-5.5279113352298737e-02" rms="3.7738388776779175e-01" purity="2.3459567129611969e-01" nType="-99"/>
            </Node>
            <Node pos="r" depth="3" NCoef="0" IVar="5" Cut="3.7835075054317713e-03" cType="1" res="3.8627300411462784e-02" rms="4.9157670140266418e-01" purity="4.4779980182647705e-01" nType="0">
              <Node pos="l" depth="4" NCoef="0" IVar="-1" Cut="0.0000000000000000e+00" cType="1" res="4.6768575906753540e-02" rms="4.9388208985328674e-01" purity="4.2372113466262817e-01" nType="-99"/>
              <Node pos="r" depth="4" NCoef="0" IVar="-1" Cut="0.0000000000000000e+00" cType="1" res="2.0657673478126526e-01" rms="4.7952404618263245e-01" purity="5.2936667203903198e-01" nType="-99"/>
            </Node>
          </Node>
        </Node>
      </Node>
    </BinaryTree>
    <BinaryTree type="DecisionTree" boostWeight="1.0000000000000000e+00" itree="5">
      <Node pos="s" depth="0" NCoef="0" IVar="0" Cut="-2.7622737884521484e+00" cType="1" res="-4.3464379268698394e-04" rms="4.4304493069648743e-01" purity="5.0000000000000000e-01" nType="0">
        <Node pos="l" depth="1" NCoef="0" IVar="0" Cut="-2.8210923671722412e+00" cType="1" res="-1.5896216034889221e-02" rms="4.2102697491645813e-01" purity="4.0568801760673523e-01" nType="0">
          <Node pos="l" depth="2" NCoef="0" IVar="2" Cut="3.1683167815208435e-01" cType="1" res="-9.9626707378774881e-04" rms="3.9026123285293579e-01" purity="3.3011326193809509e-01" nType="0">
            <Node pos="l" depth="3" NCoef="0" IVar="6" Cut="1.2334556877613068e-01" cType="1" res="5.8201421052217484e-03" rms="3.8784694671630859e-01" purity="3.4453231096267700e-01" nType="0">
              <Node pos="l" depth="4" NCoef="0" IVar="-1" Cut="0.0000000000000000e+00" cType="1" res="5.7599861174821854e-02" rms="3.6980733275413513e-01" purity="3.4149378538131714e-01" nType="-99"/>
              <Node pos="r" depth="4" NCoef="0" IVar="-1" Cut="0.0000000000000000e+00" cType="1" res="-8.2756273448467255e-02" rms="4.4744169712066650e-01" purity="3.5601192712783813e-01" nType="-99"/>
            </Node>
            <Node pos="r" depth="3" NCoef="0" IVar="-1" Cut="0.0000000000000000e+00" cType="1" res="-9.5276422798633575e-02" rms="4.0028086304664612e-01" purity="2.5883880257606506e-01" nType="-99"/>
          </Node>
          <Node pos="r" depth="2" NCoef="0" IVar="2" Cut="1.0891088843345642e-01" cType="1" res="-3.8839682936668396e-02" rms="4.6349713206291199e-01" purity="5.2206069231033325e-01" nType="0">
            <Node pos="l" depth="3" NCoef="0" IVar="-1" Cut="0.0000000000000000e+00" cType="1" res="-3.9676930755376816e-03" rms="4.3801477551460266e-01" purity="6.4347380399703979e-01" nType="-99"/>
            <Node pos="r" depth="3" NCoef="0" IVar="0" Cut="-2.7943041324615479e+00" cType="1" res="-6.4646534621715546e-02" rms="4.7863295674324036e-01" purity="4.3808645009994507e-01" nType="0">
              <Node pos="l" depth="4" NCoef="0" IVar="-1" Cut="0.0000000000000000e+00" cType="1" res="-1.9703209400177002e-01" rms="4.7560358047485352e-01" purity="4.0574264526367188e-01" nType="-99"/>
              <Node pos="r" depth="4" NCoef="0" IVar="-1" Cut="0.0000000000000000e+00" cType="1" res="-9.3606300652027130e-02" rms="4.8024645447731018e-01" purity="4.6709817647933960e-01" nType="-99"/>
            </Node>
          </Node>
        </Node>
        <Node pos="r" depth="1" NCoef="0" IVar="7" Cut="1.0197175294160843e-01" cType="1" res="4.8587522469460964e-03" rms="4.5021367073059082e-01" purity="5.3228849172592163e-01" nType="0">
          <Node pos="l" depth="2" NCoef="0" IVar="6" Cut="1.6951808333396912e-01" cType="1" res="9.9961494561284781e-04" rms="4.4615888595581055e-01" purity="5.5675148963928223e-01" nType="0">
            <Node pos="l" depth="3" NCoef="0" IVar="7" Cut="7.7740453183650970e-02" cType="1" res="4.3901330791413784e-03" rms="4.4468259811401367e-01" purity="5.5780994892120361e-01" nType="0">
              <Node pos="l" depth="4" NCoef="0" IVar="-1" Cut="0.0000000000000000e+00" cType="1" res="1.8042191863059998e-02" rms="4.4227710366249084e-01" purity="5.6048154830932617e-01" nType="-99"/>
              <Node pos="r" depth="4" NCoef="0" IVar="-1" Cut="0.0000000000000000e+00" cType="1" res="-8.7416462600231171e-02" rms="4.7864380478858948e-01" purity="5.1625764369964600e-01" nType="-99"/>
            </Node>
            <Node pos="r" depth="3" NCoef="0" IVar="-1" Cut="0.0000000000000000e+00" cType="1" res="-9.9262125790119171e-02" rms="4.6195590496063232e-01" purity="5.4368031024932861e-01" nType="-99"/>
          </Node>
          <Node pos="r" depth="2" NCoef="0" IVar="7" Cut="1.3192623853683472e-01" cType="1" res="2.1699830889701843e-02" rms="4.6712413430213928e-01" purity="4.2553320527076721e-01" nType="0">
            <Node pos="l" depth="3" NCoef="0" IVar="-1" Cut="0.0000000000000000e+00" cType="1" res="1.5693995356559753e-01" rms="4.7382277250289917e-01" purity="4.6261456608772278e-01" nType="-99"/>
            <Node pos="r" depth="3" NCoef="0" IVar="4" Cut="7.8045912086963654e-02" cType="1" res="1.4189672656357288e-03" rms="4.6260300278663635e-01" purity="4.0848818421363831e-01" nType="0">
              <Node pos="l" depth="4" NCoef="0" IVar="-1" Cut="0.0000000000000000e+00" cType="1" res="9.0990163385868073e-02" rms="4.4696930050849915e-01" purity="4.5151740312576294e-01" nType="-99"/>
              <Node pos="r" depth="4" NCoef="0" IVar="-1" Cut="0.0000000000000000e+00" cType="1" res="-3.1985942274332047e-02" rms="4.6834847331047058e-01" purity="3.9008483290672302e-01" nType="-99"/>
            </Node>
          </Node>
        </Node>
      </Node>
    </BinaryTree>
    <BinaryTree type="DecisionTree" boostWeight="1.0000000000000000e+00" itree="6">
      <Node pos="s" depth="0" NCoef="0" IVar="2" Cut="4.9504950642585754e-02" cType="1" res="-1.3650963956024498e-04" rms="4.4212937355041504e-01" purity="5.0000000000000000e-01" nType="0">
        <Node pos="l" depth="1" NCoef="0" IVar="4" Cut="5.9405941516160965e-02" cType="1" res="-1.0863729752600193e-02" rms="3.6117234826087952e-01" purity="5.7346957921981812e-01" nType="0">
          <Node pos="l" depth="2" NCoef="0" IVar="3" Cut="1.3861386477947235e-01" cType="1" res="-3.0460294801741838e-03" rms="3.4305238723754883e-01" purity="5.4485011100769043e-01" nType="0">
            <Node pos="l" depth="3" NCoef="0" IVar="0" Cut="2.7603337764739990e+00" cType="1" res="2.0710711833089590e-03" rms="4.0878617763519287e-01" purity="7.8930366039276123e-01" nType="0">
              <Node pos="l" depth="4" NCoef="0" IVar="-1" Cut="0.0000000000000000e+00" cType="1" res="-9.4877704977989197e-03" rms="4.1115137934684753e-01" purity="7.8581446409225464e-01" nType="-99"/>
              <Node pos="r" depth="4" NCoef="0" IVar="-1" Cut="0.0000000000000000e+00" cType="1" res="8.2072243094444275e-02" rms="3.9580759406089783e-01" purity="8.0664503574371338e-01" nType="-99"/>
            </Node>
            <Node pos="r" depth="3" NCoef="0" IVar="0" Cut="-2.8986012935638428e+00" cType="1" res="-1.4126412570476532e-02" rms="1.0242359340190887e-01" purity="1.5519369393587112e-02" nType="0">
              <Node pos="l" depth="4" NCoef="0" IVar="-1" Cut="0.0000000000000000e+00" cType="1" res="-4.7117602825164795e-01" rms="3.0540341511368752e-02" purity="9.5408468041568995e-04" nType="-99"/>
              <Node pos="r" depth="4" NCoef="0" IVar="-1" Cut="0.0000000000000000e+00" cType="1" res="-3.3460447192192078e-01" rms="1.4056293666362762e-01" purity="2.9677718877792358e-02" nType="-99"/>
            </Node>
          </Node>
          <Node pos="r" depth="2" NCoef="0" IVar="4" Cut="2.3635752499103546e-01" cType="1" res="-4.2073093354701996e-02" rms="4.2446351051330566e-01" purity="6.8772244453430176e-01" nType="0">
            <Node pos="l" depth="3" NCoef="0" IVar="-1" Cut="0.0000000000000000e+00" cType="1" res="-2.0996296405792236e-01" rms="4.5162257552146912e-01" purity="6.0078477859497070e-01" nType="-99"/>
            <Node pos="r" depth="3" NCoef="0" IVar="-1" Cut="0.0000000000000000e+00" cType="1" res="-1.3354178518056870e-02" rms="3.9057835936546326e-01" purity="7.7826547622680664e-01" nType="-99"/>
          </Node>
        </Node>
        <Node pos="r" depth="1" NCoef="0" IVar="2" Cut="6.8328365683555603e-02" cType="1" res="4.1209179908037186e-03" rms="4.7034552693367004e-01" purity="4.7084134817123413e-01" nType="0">
          <Node pos="l" depth="2" NCoef="0" IVar="-1" Cut="0.0000000000000000e+00" cType="1" res="1.4619632065296173e-01" rms="4.5170259475708008e-01" purity="5.8741009235382080e-01" nType="-99"/>
          <Node pos="r" depth="2" NCoef="0" IVar="4" Cut="3.4100806713104248e-01" cType="1" res="-6.2478666222887114e-06" rms="4.7137102484703064e-01" purity="4.6255248785018921e-01" nType="0">
            <Node pos="l" depth="3" NCoef="0" IVar="5" Cut="1.4890605211257935e-01" cType="1" res="2.7070594951510429e-03" rms="4.7020262479782104e-01" purity="4.6061718463897705e-01" nType="0">
              <Node pos="l" depth="4" NCoef="0" IVar="-1" Cut="0.0000000000000000e+00" cType="1" res="1.7550762742757797e-02" rms="4.6977207064628601e-01" purity="4.6180620789527893e-01" nType="-99"/>
              <Node pos="r" depth="4" NCoef="0" IVar="-1" Cut="0.0000000000000000e+00" cType="1" res="-4.1697960346937180e-02" rms="4.7144243121147156e-01" purity="4.5560905337333679e-01" nType="-99"/>
            </Node>
            <Node pos="r" depth="3" NCoef="0" IVar="5" Cut="1.4141123741865158e-02" cType="1" res="-3.2296549528837204e-02" rms="4.8389324545860291e-01" purity="4.8558396100997925e-01" nType="0">
              <Node pos="l" depth="4" NCoef="0" IVar="-1" Cut="0.0000000000000000e+00" cType="1" res="-3.3291082829236984e-02" rms="4.8621627688407898e-01" purity="4.7029620409011841e-01" nType="-99"/>
              <Node pos="r" depth="4" NCoef="0" IVar="-1" Cut="0.0000000000000000e+00" cType="1" res="-1.0812789946794510e-01" rms="4.8108905553817749e-01" purity="5.0040096044540405e-01" nType="-99"/>
            </Node>
          </Node>
        </Node>
      </Node>
    </BinaryTree>
    <BinaryTree type="DecisionTree" boostWeight="1.0000000000000000e+00" itree="7">
      <Node pos="s" depth="0" NCoef="0" IVar="0" Cut="2.8217825889587402e+00" cType="1" res="-4.5730233978247270e-05" rms="4.4144099950790405e-01" purity="5.0000000000000000e-01" nType="0">
        <Node pos="l" depth="1" NCoef="0" IVar="4" Cut="9.9009901285171509e-02" cType="1" res="2.2699278779327869e-03" rms="4.4964998960494995e-01" purity="5.3037875890731812e-01" nType="0">
          <Node pos="l" depth="2" NCoef="0" IVar="6" Cut="2.2602410614490509e-01" cType="1" res="-5.0697498954832554e-03" rms="4.3160209059715271e-01" purity="5.1853495836257935e-01" nType="0">
            <Node pos="l" depth="3" NCoef="0" IVar="5" Cut="7.2517476975917816e-02" cType="1" res="-8.0282753333449364e-03" rms="4.3091604113578796e-01" purity="5.1402324438095093e-01" nType="0">
              <Node pos="l" depth="4" NCoef="0" IVar="-1" Cut="0.0000000000000000e+00" cType="1" res="-8.2224318757653236e-03" rms="4.2398735880851746e-01" purity="5.3559786081314087e-01" nType="-99"/>
              <Node pos="r" depth="4" NCoef="0" IVar="-1" Cut="0.0000000000000000e+00" cType="1" res="-8.5410200059413910e-02" rms="4.6586796641349792e-01" purity="3.9646261930465698e-01" nType="-99"/>
            </Node>
            <Node pos="r" depth="3" NCoef="0" IVar="-1" Cut="0.0000000000000000e+00" cType="1" res="9.6540369093418121e-02" rms="4.3929386138916016e-01" purity="5.8513826131820679e-01" nType="-99"/>
          </Node>
          <Node pos="r" depth="2" NCoef="0" IVar="7" Cut="1.8264205753803253e-01" cType="1" res="8.9032566174864769e-03" rms="4.6525967121124268e-01" purity="5.4108273983001709e-01" nType="0">
            <Node pos="l" depth="3" NCoef="0" IVar="5" Cut="3.4578304737806320e-02" cType="1" res="1.2231384404003620e-02" rms="4.6525779366493225e-01" purity="5.5322867631912231e-01" nType="0">
              <Node pos="l" depth="4" NCoef="0" IVar="-1" Cut="0.0000000000000000e+00" cType="1" res="-9.5059182494878769e-03" rms="4.8302507400512695e-01" purity="5.0132280588150024e-01" nType="-99"/>
              <Node pos="r" depth="4" NCoef="0" IVar="-1" Cut="0.0000000000000000e+00" cType="1" res="4.2658496648073196e-02" rms="4.5901611447334290e-01" purity="5.7062190771102905e-01" nType="-99"/>
            </Node>
            <Node pos="r" depth="3" NCoef="0" IVar="-1" Cut="0.0000000000000000e+00" cType="1" res="-9.2038303613662720e-02" rms="4.6263363957405090e-01" purity="3.6597937345504761e-01" nType="-99"/>
          </Node>
        </Node>
        <Node pos="r" depth="1" NCoef="0" IVar="2" Cut="1.0891088843345642e-01" cType="1" res="-1.2283812277019024e-02" rms="3.9501008391380310e-01" purity="3.3945050835609436e-01" nType="0">
          <Node pos="l" depth="2" NCoef="0" IVar="3" Cut="1.8811881542205811e-01" cType="1" res="2.1243193186819553e-03" rms="3.2911673188209534e-01" purity="3.3211699128150940e-01" nType="0">
            <Node pos="l" depth="3" NCoef="0" IVar="-1" Cut="0.0000000000000000e+00" cType="1" res="5.2464939653873444e-02" rms="4.1922792792320251e-01" purity="6.4304262399673462e-01" nType="-99"/>
            <Node pos="r" depth="3" NCoef="0" IVar="1" Cut="-3.2263673841953278e-02" cType="1" res="-7.2695994749665260e-03" rms="2.6747614145278931e-01" purity="1.6371607780456543e-01" nType="0">
              <Node pos="l" depth="4" NCoef="0" IVar="-1" Cut="0.0000000000000000e+00" cType="1" res="-6.3876718282699585e-02" rms="2.6613727211952209e-01" purity="1.5802675485610962e-01" nType="-99"/>
              <Node pos="r" depth="4" NCoef="0" IVar="-1" Cut="0.0000000000000000e+00" cType="1" res="-3.2796487212181091e-02" rms="2.6876151561737061e-01" purity="1.6928617656230927e-01" nType="-99"/>
            </Node>
          </Node>
          <Node pos="r" depth="2" NCoef="0" IVar="3" Cut="4.6745392680168152e-01" cType="1" res="-2.6361070573329926e-02" rms="4.4972366094589233e-01" purity="3.4661564230918884e-01" nType="0">
            <Node pos="l" depth="3" NCoef="0" IVar="0" Cut="2.8587584495544434e+00" cType="1" res="-3.7723120301961899e-02" rms="4.2663735151290894e-01" purity="2.7801316976547241e-01" nType="0">
              <Node pos="l" depth="4" NCoef="0" IVar="-1" Cut="0.0000000000000000e+00" cType="1" res="-3.5452198237180710e-02" rms="4.6183794736862183e-01" purity="3.3806958794593811e-01" nType="-99"/>
              <Node pos="r" depth="4" NCoef="0" IVar="-1" Cut="0.0000000000000000e+00" cType="1" res="-1.6143038868904114e-01" rms="3.9006721973419189e-01" purity="2.2247394919395447e-01" nType="-99"/>
            </Node>
            <Node pos="r" depth="3" NCoef="0" IVar="-1" Cut="0.0000000000000000e+00" cType="1" res="-7.2000776417553425e-03" rms="4.9214509129524231e-01" purity="4.8475271463394165e-01" nType="-99"/>
          </Node>
        </Node>
      </Node>
    </BinaryTree>
    <BinaryTree type="DecisionTree" boostWeight="1.0000000000000000e+00" itree="8">
      <Node pos="s" depth="0" NCoef="0" IVar="8" Cut="8.4242172539234161e-02" cType="1" res="-1.2059076107107103e-04" rms="4.4102972745895386e-01" purity="5.0000000000000000e-01" nType="0">
        <Node pos="l" depth="1" NCoef="0" IVar="8" Cut="6.0884669423103333e-02" cType="1" res="-2.2981504444032907e-03" rms="4.3871825933456421e-01" purity="5.2780210971832275e-01" nType="0">
          <Node pos="l" depth="2" NCoef="0" IVar="8" Cut="6.0281663900241256e-04" cType="1" res="1.1148209887323901e-04" rms="4.3521520495414734e-01" purity="5.3296458721160889e-01" nType="0">
            <Node pos="l" depth="3" NCoef="0" IVar="7" Cut="2.4431684985756874e-02" cType="1" res="-4.7916518524289131e-03" rms="4.3305763602256775e-01" purity="4.8589879274368286e-01" nType="0">
              <Node pos="l" depth="4" NCoef="0" IVar="-1" Cut="0.0000000000000000e+00" cType="1" res="1.7551892669871449e-03" rms="4.2885425686836243e-01" purity="4.8739710450172424e-01" nType="-99"/>
              <Node pos="r" depth="4" NCoef="0" IVar="-1" Cut="0.0000000000000000e+00" cType="1" res="-1.7706947028636932e-01" rms="4.7904011607170105e-01" purity="4.6631026268005371e-01" nType="-99"/>
            </Node>
            <Node pos="r" depth="3" NCoef="0" IVar="8" Cut="1.2985819950699806e-02" cType="1" res="1.4014656655490398e-02" rms="4.4097942113876343e-01" purity="6.6642278432846069e-01" nType="0">
              <Node pos="l" depth="4" NCoef="0" IVar="-1" Cut="0.0000000000000000e+00" cType="1" res="2.9651185870170593e-01" rms="3.6312288045883179e-01" purity="8.3096945285797119e-01" nType="-99"/>
              <Node pos="r" depth="4" NCoef="0" IVar="-1" Cut="0.0000000000000000e+00" cType="1" res="-2.1632621064782143e-03" rms="4.5052996277809143e-01" purity="6.3986122608184814e-01" nType="-99"/>
            </Node>
          </Node>
          <Node pos="r" depth="2" NCoef="0" IVar="6" Cut="1.0674989968538284e-01" cType="1" res="-3.4080747514963150e-02" rms="4.8142156004905701e-01" purity="4.5971065759658813e-01" nType="0">
            <Node pos="l" depth="3" NCoef="0" IVar="-1" Cut="0.0000000000000000e+00" cType="1" res="-9.6396811306476593e-02" rms="4.8360142111778259e-01" purity="4.7670024633407593e-01" nType="-99"/>
            <Node pos="r" depth="3" NCoef="0" IVar="-1" Cut="0.0000000000000000e+00" cType="1" res="-5.8692026883363724e-02" rms="4.7953745722770691e-01" purity="4.4614803791046143e-01" nType="-99"/>
          </Node>
        </Node>
        <Node pos="r" depth="1" NCoef="0" IVar="8" Cut="1.0982190072536469e-01" cType="1" res="1.2902563437819481e-02" rms="4.5439076423645020e-01" purity="3.3372607827186584e-01" nType="0">
          <Node pos="l" depth="2" NCoef="0" IVar="-1" Cut="0.0000000000000000e+00" cType="1" res="1.0877098143100739e-01" rms="4.7033369541168213e-01" purity="3.9301660656929016e-01" nType="-99"/>
          <Node pos="r" depth="2" NCoef="0" IVar="4" Cut="1.4849109947681427e-01" cType="1" res="-3.1698888633400202e-03" rms="4.4545674324035645e-01" purity="3.0454465746879578e-01" nType="0">
            <Node pos="l" depth="3" NCoef="0" IVar="5" Cut="9.1689273715019226e-02" cType="1" res="8.5894744843244553e-03" rms="4.4185066223144531e-01" purity="3.0860513448715210e-01" nType="0">
              <Node pos="l" depth="4" NCoef="0" IVar="-1" Cut="0.0000000000000000e+00" cType="1" res="5.6190460920333862e-02" rms="4.3773353099822998e-01" purity="3.2306683063507080e-01" nType="-99"/>
              <Node pos="r" depth="4" NCoef="0" IVar="-1" Cut="0.0000000000000000e+00" cType="1" res="-1.7223901813849807e-03" rms="4.4462540745735168e-01" purity="2.9797735810279846e-01" nType="-99"/>
            </Node>
            <Node pos="r" depth="3" NCoef="0" IVar="-1" Cut="0.0000000000000000e+00" cType="1" res="-5.8120932430028915e-02" rms="4.5089617371559143e-01" purity="2.9753056168556213e-01" nType="-99"/>
          </Node>
        </Node>
      </Node>
    </BinaryTree>
    <BinaryTree type="DecisionTree" boostWeight="1.0000000000000000e+00" itree="9">
      <Node pos="s" depth="0" NCoef="0" IVar="1" Cut="1.3997136354446411e+00" cType="1" res="2.9860646463930607e-04" rms="4.4007009267807007e-01" purity="5.0000000000000000e-01" nType="0">
        <Node pos="l" depth="1" NCoef="0" IVar="1" Cut="5.0043612718582153e-01" cType="1" res="-2.7592191472649574e-03" rms="4.3997678160667419e-01" purity="4.9585023522377014e-01" nType="0">
          <Node pos="l" depth="2" NCoef="0" IVar="6" Cut="2.1660643815994263e-01" cType="1" res="-7.1413099067285657e-04" rms="4.3862572312355042e-01" purity="4.9776574969291687e-01" nType="0">
            <Node pos="l" depth="3" NCoef="0" IVar="2" Cut="9.9009899422526360e-03" cType="1" res="5.1111646462231874e-04" rms="4.3759110569953918e-01" purity="4.9579113721847534e-01" nType="0">
              <Node pos="l" depth="4" NCoef="0" IVar="-1" Cut="0.0000000000000000e+00" cType="1" res="-2.5959720835089684e-02" rms="3.4233501553535461e-01" purity="5.3344494104385376e-01" nType="-99"/>
              <Node pos="r" depth="4" NCoef="0" IVar="-1" Cut="0.0000000000000000e+00" cType="1" res="6.0689994134008884e-03" rms="4.6374955773353577e-01" purity="4.8383229970932007e-01" nType="-99"/>
            </Node>
            <Node pos="r" depth="3" NCoef="0" IVar="-1" Cut="0.0000000000000000e+00" cType="1" res="-4.3390408158302307e-02" rms="4.5224270224571228e-01" purity="5.2484810352325439e-01" nType="-99"/>
          </Node>
          <Node pos="r" depth="2" NCoef="0" IVar="7" Cut="1.0197175294160843e-01" cType="1" res="-1.0471862740814686e-02" rms="4.4495046138763428e-01" purity="4.8862624168395996e-01" nType="0">
            <Node pos="l" depth="3" NCoef="0" IVar="6" Cut="7.8558966517448425e-02" cType="1" res="-1.5783706679940224e-02" rms="4.4139948487281799e-01" purity="5.0837701559066772e-01" nType="0">
              <Node pos="l" depth="4" NCoef="0" IVar="-1" Cut="0.0000000000000000e+00" cType="1" res="-3.3758055418729782e-02" rms="4.3424272537231445e-01" purity="5.0148487091064453e-01" nType="-99"/>
              <Node pos="r" depth="4" NCoef="0" IVar="-1" Cut="0.0000000000000000e+00" cType="1" res="-6.4957991242408752e-02" rms="4.6390408277511597e-01" purity="5.3095519542694092e-01" nType="-99"/>
            </Node>
            <Node pos="r" depth="3" NCoef="0" IVar="-1" Cut="0.0000000000000000e+00" cType="1" res="2.8776893392205238e-02" rms="4.5880797505378723e-01" purity="4.0621402859687805e-01" nType="-99"/>
          </Node>
        </Node>
        <Node pos="r" depth="1" NCoef="0" IVar="2" Cut="1.3861386477947235e-01" cType="1" res="8.3188079297542572e-03" rms="4.4021388888359070e-01" purity="5.1088416576385498e-01" nType="0">
          <Node pos="l" depth="2" NCoef="0" IVar="3" Cut="2.9702970385551453e-01" cType="1" res="2.4446437601000071e-03" rms="4.1133257746696472e-01" purity="5.5343544483184814e-01" nType="0">
            <Node pos="l" depth="3" NCoef="0" IVar="1" Cut="2.1930811405181885e+00" cType="1" res="9.0610748156905174e-03" rms="4.3477496504783630e-01" purity="6.3331186771392822e-01" nType="0">
              <Node pos="l" depth="4" NCoef="0" IVar="-1" Cut="0.0000000000000000e+00" cType="1" res="5.5096667259931564e-02" rms="4.3099734187126160e-01" purity="6.4266562461853027e-01" nType="-99"/>
              <Node pos="r" depth="4" NCoef="0" IVar="-1" Cut="0.0000000000000000e+00" cType="1" res="-8.7364466162398458e-04" rms="4.3760386109352112e-01" purity="6.2569224834442139e-01" nType="-99"/>
            </Node>
            <Node pos="r" depth="3" NCoef="0" IVar="3" Cut="5.2676439285278320e-01" cType="1" res="-9.3004554510116577e-03" rms="3.6574482917785645e-01" purity="4.1164353489875793e-01" nType="0">
              <Node pos="l" depth="4" NCoef="0" IVar="-1" Cut="0.0000000000000000e+00" cType="1" res="-5.0523757934570312e-02" rms="4.5223408937454224e-01" purity="6.0719686746597290e-01" nType="-99"/>
              <Node pos="r" depth="4" NCoef="0" IVar="-1" Cut="0.0000000000000000e+00" cType="1" res="1.4037918299436569e-02" rms="2.4789194762706757e-01" purity="2.1241527795791626e-01" nType="-99"/>
            </Node>
          </Node>
          <Node pos="r" depth="2" NCoef="0" IVar="1" Cut="1.8308534622192383e+00" cType="1" res="1.5674607828259468e-02" rms="4.7380161285400391e-01" purity="4.5760026574134827e-01" nType="0">
            <Node pos="l" depth="3" NCoef="0" IVar="-1" Cut="0.0000000000000000e+00" cType="1" res="6.3369527459144592e-02" rms="4.7718906402587891e-01" purity="4.7261920571327209e-01" nType="-99"/>
            <Node pos="r" depth="3" NCoef="0" IVar="2" Cut="3.0065700411796570e-01" cType="1" res="1.1728362180292606e-02" rms="4.7263953089714050e-01" purity="4.5277094841003418e-01" nType="0">
              <Node pos="l" depth="4" NCoef="0" IVar="-1" Cut="0.0000000000000000e+00" cType="1" res="1.3215150684118271e-02" rms="4.7421169281005859e-01" purity="4.8114618659019470e-01" nType="-99"/>
              <Node pos="r" depth="4" NCoef="0" IVar="-1" Cut="0.0000000000000000e+00" cType="1" res="4.8031490296125412e-02" rms="4.7004258632659912e-01" purity="4.0873199701309204e-01" nType="-99"/>
            </Node>
          </Node>
        </Node>
      </Node>
    </BinaryTree>
    <BinaryTree type="DecisionTree" boostWeight="1.0000000000000000e+00" itree="10">
      <Node pos="s" depth="0" NCoef="0" IVar="8" Cut="1.6848434507846832e-01" cType="1" res="2.1987914806231856e-05" rms="4.3991139531135559e-01" purity="5.0000000000000000e-01" nType="0">
        <Node pos="l" depth="1" NCoef="0" IVar="5" Cut="2.9913458228111267e-01" cType="1" res="9.3340425519272685e-04" rms="4.4023621082305908e-01" purity="5.0853073596954346e-01" nType="0">
          <Node pos="l" depth="2" NCoef="0" IVar="7" Cut="1.0197175294160843e-01" cType="1" res="1.9264186266809702e-04" rms="4.4035798311233521e-01" purity="5.0444012880325317e-01" nType="0">
            <Node pos="l" depth="3" NCoef="0" IVar="6" Cut="2.1660643815994263e-01" cType="1" res="-1.4897977234795690e-03" rms="4.3516993522644043e-01" purity="5.2351409196853638e-01" nType="0">
              <Node pos="l" depth="4" NCoef="0" IVar="-1" Cut="0.0000000000000000e+00" cType="1" res="-3.6939338315278292e-04" rms="4.3389630317687988e-01" purity="5.2462291717529297e-01" nType="-99"/>
              <Node pos="r" depth="4" NCoef="0" IVar="-1" Cut="0.0000000000000000e+00" cType="1" res="-9.2767052352428436e-02" rms="4.6753767132759094e-01" purity="4.9278771877288818e-01" nType="-99"/>
            </Node>
            <Node pos="r" depth="3" NCoef="0" IVar="8" Cut="4.1703462600708008e-02" cType="1" res="8.3155836910009384e-03" rms="4.6450611948966980e-01" purity="4.1234940290451050e-01" nType="0">
              <Node pos="l" depth="4" NCoef="0" IVar="-1" Cut="0.0000000000000000e+00" cType="1" res="8.3555281162261963e-02" rms="4.6586474776268005e-01" purity="5.0430601835250854e-01" nType="-99"/>
              <Node pos="r" depth="4" NCoef="0" IVar="-1" Cut="0.0000000000000000e+00" cType="1" res="-5.9903464280068874e-03" rms="4.6351438760757446e-01" purity="3.7463751435279846e-01" nType="-99"/>
            </Node>
          </Node>
          <Node pos="r" depth="2" NCoef="0" IVar="-1" Cut="0.0000000000000000e+00" cType="1" res="6.2972269952297211e-02" rms="4.3572968244552612e-01" purity="6.3763564825057983e-01" nType="-99"/>
        </Node>
        <Node pos="r" depth="1" NCoef="0" IVar="-1" Cut="0.0000000000000000e+00" cType="1" res="-6.1036545783281326e-02" rms="4.3088588118553162e-01" purity="2.8226077556610107e-01" nType="-99"/>
      </Node>
    </BinaryTree>
    <BinaryTree type="DecisionTree" boostWeight="1.0000000000000000e+00" itree="11">
      <Node pos="s" depth="0" NCoef="0" IVar="4" Cut="2.2772277891635895e-01" cType="1" res="-1.8205015294370241e-05" rms="4.3973895907402039e-01" purity="5.0000000000000000e-01" nType="0">
        <Node pos="l" depth="1" NCoef="0" IVar="6" Cut="1.0359438508749008e-01" cType="1" res="1.6475230222567916e-03" rms="4.3442973494529724e-01" purity="4.8497298359870911e-01" nType="0">
          <Node pos="l" depth="2" NCoef="0" IVar="5" Cut="1.0877621173858643e-01" cType="1" res="-9.2745840083807707e-04" rms="4.2535418272018433e-01" purity="4.9339729547500610e-01" nType="0">
            <Node pos="l" depth="3" NCoef="0" IVar="6" Cut="5.9486147016286850e-02" cType="1" res="1.6104507958516479e-03" rms="4.1899147629737854e-01" purity="4.9798071384429932e-01" nType="0">
              <Node pos="l" depth="4" NCoef="0" IVar="-1" Cut="0.0000000000000000e+00" cType="1" res="1.0148716159164906e-02" rms="4.1481211781501770e-01" purity="4.9754551053047180e-01" nType="-99"/>
              <Node pos="r" depth="4" NCoef="0" IVar="-1" Cut="0.0000000000000000e+00" cType="1" res="-4.3343096971511841e-02" rms="4.5972755551338196e-01" purity="5.0250351428985596e-01" nType="-99"/>
            </Node>
            <Node pos="r" depth="3" NCoef="0" IVar="3" Cut="3.3404749631881714e-01" cType="1" res="-1.7865628004074097e-02" rms="4.6524348855018616e-01" purity="4.6280717849731445e-01" nType="0">
              <Node pos="l" depth="4" NCoef="0" IVar="-1" Cut="0.0000000000000000e+00" cType="1" res="8.5736792534589767e-03" rms="4.6459084749221802e-01" purity="3.9719271659851074e-01" nType="-99"/>
              <Node pos="r" depth="4" NCoef="0" IVar="-1" Cut="0.0000000000000000e+00" cType="1" res="-1.1488222330808640e-01" rms="4.6449068188667297e-01" purity="5.5475813150405884e-01" nType="-99"/>
            </Node>
          </Node>
          <Node pos="r" depth="2" NCoef="0" IVar="8" Cut="5.9267613105475903e-03" cType="1" res="8.8642686605453491e-03" rms="4.5883277058601379e-01" purity="4.6136274933815002e-01" nType="0">
            <Node pos="l" depth="3" NCoef="0" IVar="-1" Cut="0.0000000000000000e+00" cType="1" res="1.1656856536865234e-01" rms="4.6798571944236755e-01" purity="4.6041753888130188e-01" nType="-99"/>
            <Node pos="r" depth="3" NCoef="0" IVar="8" Cut="2.9402807354927063e-02" cType="1" res="1.8409080803394318e-03" rms="4.5689770579338074e-01" purity="4.6152210235595703e-01" nType="0">
              <Node pos="l" depth="4" NCoef="0" IVar="-1" Cut="0.0000000000000000e+00" cType="1" res="-6.6387154161930084e-02" rms="4.3384116888046265e-01" purity="6.9141191244125366e-01" nType="-99"/>
              <Node pos="r" depth="4" NCoef="0" IVar="-1" Cut="0.0000000000000000e+00" cType="1" res="1.6708020120859146e-02" rms="4.6106147766113281e-01" purity="4.1699090600013733e-01" nType="-99"/>
            </Node>
          </Node>
        </Node>
        <Node pos="r" depth="1" NCoef="0" IVar="7" Cut="6.8864494562149048e-02" cType="1" res="-6.4313123002648354e-03" rms="4.5955103635787964e-01" purity="5.5785447359085083e-01" nType="0">
          <Node pos="l" depth="2" NCoef="0" IVar="2" Cut="9.1084636747837067e-02" cType="1" res="6.1693564930465072e-05" rms="4.5908120274543762e-01" purity="5.7500690221786499e-01" nType="0">
            <Node pos="l" depth="3" NCoef="0" IVar="-1" Cut="0.0000000000000000e+00" cType="1" res="6.4742252230644226e-02" rms="4.0687376260757446e-01" purity="7.6001995801925659e-01" nType="-99"/>
            <Node pos="r" depth="3" NCoef="0" IVar="6" Cut="6.5795689821243286e-02" cType="1" res="-8.4207979962229729e-03" rms="4.7735720872879028e-01" purity="5.0390803813934326e-01" nType="0">
              <Node pos="l" depth="4" NCoef="0" IVar="-1" Cut="0.0000000000000000e+00" cType="1" res="-7.7982112998142838e-04" rms="4.8009765148162842e-01" purity="4.9783200025558472e-01" nType="-99"/>
              <Node pos="r" depth="4" NCoef="0" IVar="-1" Cut="0.0000000000000000e+00" cType="1" res="-7.9485289752483368e-02" rms="4.6766096353530884e-01" purity="5.2314078807830811e-01" nType="-99"/>
            </Node>
          </Node>
          <Node pos="r" depth="2" NCoef="0" IVar="5" Cut="1.0838267952203751e-01" cType="1" res="-2.4853827431797981e-02" rms="4.6038320660591125e-01" purity="5.0918799638748169e-01" nType="0">
            <Node pos="l" depth="3" NCoef="0" IVar="-1" Cut="0.0000000000000000e+00" cType="1" res="-1.1323145031929016e-01" rms="4.6651014685630798e-01" purity="4.2647549510002136e-01" nType="-99"/>
            <Node pos="r" depth="3" NCoef="0" IVar="-1" Cut="0.0000000000000000e+00" cType="1" res="-1.0923016816377640e-02" rms="4.5387896895408630e-01" purity="5.8283847570419312e-01" nType="-99"/>
          </Node>
        </Node>
      </Node>
    </BinaryTree>
    <BinaryTree type="DecisionTree" boostWeight="1.0000000000000000e+00" itree="12">
      <Node pos="s" depth="0" NCoef="0" IVar="7" Cut="8.4976460784673691e-03" cType="1" res="3.3677300962153822e-05" rms="4.3935737013816833e-01" purity="5.0000000000000000e-01" nType="0">
        <Node pos="l" depth="1" NCoef="0" IVar="6" Cut="1.8835343420505524e-02" cType="1" res="-4.2722988873720169e-03" rms="4.2849707603454590e-01" purity="4.8539897799491882e-01" nType="0">
          <Node pos="l" depth="2" NCoef="0" IVar="2" Cut="3.7623763084411621e-01" cType="1" res="-3.9669947000220418e-04" rms="4.2299339175224304e-01" purity="4.8483738303184509e-01" nType="0">
            <Node pos="l" depth="3" NCoef="0" IVar="2" Cut="4.0975678712129593e-02" cType="1" res="2.9977457597851753e-03" rms="4.1052576899528503e-01" purity="5.2282738685607910e-01" nType="0">
              <Node pos="l" depth="4" NCoef="0" IVar="-1" Cut="0.0000000000000000e+00" cType="1" res="-1.9507715478539467e-02" rms="3.4216088056564331e-01" purity="5.3511452674865723e-01" nType="-99"/>
              <Node pos="r" depth="4" NCoef="0" IVar="-1" Cut="0.0000000000000000e+00" cType="1" res="2.8014197945594788e-02" rms="4.8925778269767761e-01" purity="5.0586766004562378e-01" nType="-99"/>
            </Node>
            <Node pos="r" depth="3" NCoef="0" IVar="3" Cut="4.9406901001930237e-02" cType="1" res="-1.1391945183277130e-02" rms="4.6089789271354675e-01" purity="3.6178055405616760e-01" nType="0">
              <Node pos="l" depth="4" NCoef="0" IVar="-1" Cut="0.0000000000000000e+00" cType="1" res="1.3823281042277813e-02" rms="3.5790905356407166e-01" purity="2.0890223979949951e-01" nType="-99"/>
              <Node pos="r" depth="4" NCoef="0" IVar="-1" Cut="0.0000000000000000e+00" cType="1" res="-3.5515498369932175e-02" rms="4.9260097742080688e-01" purity="4.1679358482360840e-01" nType="-99"/>
            </Node>
          </Node>
          <Node pos="r" depth="2" NCoef="0" IVar="3" Cut="3.5838246345520020e-01" cType="1" res="-3.9328679442405701e-02" rms="4.7395646572113037e-01" purity="4.9047875404357910e-01" nType="0">
            <Node pos="l" depth="3" NCoef="0" IVar="-1" Cut="0.0000000000000000e+00" cType="1" res="-5.2274100482463837e-02" rms="4.7407671809196472e-01" purity="4.4816586375236511e-01" nType="-99"/>
            <Node pos="r" depth="3" NCoef="0" IVar="-1" Cut="0.0000000000000000e+00" cType="1" res="-1.3047240674495697e-01" rms="4.7314766049385071e-01" purity="5.3852486610412598e-01" nType="-99"/>
          </Node>
        </Node>
        <Node pos="r" depth="1" NCoef="0" IVar="2" Cut="3.3770911395549774e-02" cType="1" res="5.2923574112355709e-03" rms="4.5221132040023804e-01" purity="5.1783156394958496e-01" nType="0">
          <Node pos="l" depth="2" NCoef="0" IVar="-1" Cut="0.0000000000000000e+00" cType="1" res="1.0419765859842300e-01" rms="3.9073279500007629e-01" purity="7.4146723747253418e-01" nType="-99"/>
          <Node pos="r" depth="2" NCoef="0" IVar="4" Cut="4.8275534063577652e-02" cType="1" res="3.0400604009628296e-03" rms="4.5653626322746277e-01" purity="5.0056540966033936e-01" nType="0">
            <Node pos="l" depth="3" NCoef="0" IVar="-1" Cut="0.0000000000000000e+00" cType="1" res="-7.4542909860610962e-02" rms="4.5495000481605530e-01" purity="4.0096020698547363e-01" nType="-99"/>
            <Node pos="r" depth="3" NCoef="0" IVar="3" Cut="9.8010703921318054e-02" cType="1" res="5.7136393152177334e-03" rms="4.5655572414398193e-01" purity="5.0847899913787842e-01" nType="0">
              <Node pos="l" depth="4" NCoef="0" IVar="-1" Cut="0.0000000000000000e+00" cType="1" res="-7.4117511510848999e-02" rms="4.4276589155197144e-01" purity="4.3798211216926575e-01" nType="-99"/>
              <Node pos="r" depth="4" NCoef="0" IVar="-1" Cut="0.0000000000000000e+00" cType="1" res="2.2152354940772057e-02" rms="4.5774126052856445e-01" purity="5.1536685228347778e-01" nType="-99"/>
            </Node>
          </Node>
        </Node>
      </Node>
    </BinaryTree>
    <BinaryTree type="DecisionTree" boostWeight="1.0000000000000000e+00" itree="13">
      <Node pos="s" depth="0" NCoef="0" IVar="3" Cut="4.9504950642585754e-02" cType="1" res="4.1274168324889615e-05" rms="4.3899440765380859e-01" purity="5.0000000000000000e-01" nType="0">
        <Node pos="l" depth="1" NCoef="0" IVar="0" Cut="2.7603337764739990e+00" cType="1" res="5.4449490271508694e-03" rms="4.0158003568649292e-01" purity="6.8099188804626465e-01" nType="0">
          <Node pos="l" depth="2" NCoef="0" IVar="2" Cut="9.9009899422526360e-03" cType="1" res="1.0247834958136082e-02" rms="4.0921166539192200e-01" purity="7.0333129167556763e-01" nType="0">
            <Node pos="l" depth="3" NCoef="0" IVar="0" Cut="-2.7130799293518066e+00" cType="1" res="4.6328078024089336e-03" rms="4.1328302025794983e-01" purity="7.8172707557678223e-01" nType="0">
              <Node pos="l" depth="4" NCoef="0" IVar="-1" Cut="0.0000000000000000e+00" cType="1" res="6.9394141435623169e-02" rms="4.0183946490287781e-01" purity="7.9957497119903564e-01" nType="-99"/>
              <Node pos="r" depth="4" NCoef="0" IVar="-1" Cut="0.0000000000000000e+00" cType="1" res="-5.5323899723589420e-03" rms="4.1692370176315308e-01" purity="7.7562236785888672e-01" nType="-99"/>
            </Node>
            <Node pos="r" depth="3" NCoef="0" IVar="-1" Cut="0.0000000000000000e+00" cType="1" res="9.0792000293731689e-02" rms="3.9363616704940796e-01" purity="4.2268541455268860e-01" nType="-99"/>
          </Node>
          <Node pos="r" depth="2" NCoef="0" IVar="-1" Cut="0.0000000000000000e+00" cType="1" res="-4.8178687691688538e-02" rms="3.6849105358123779e-01" purity="5.9069520235061646e-01" nType="-99"/>
        </Node>
        <Node pos="r" depth="1" NCoef="0" IVar="2" Cut="9.4099100679159164e-03" cType="1" res="-1.3005577493458986e-03" rms="4.4779074192047119e-01" purity="4.5505639910697937e-01" nType="0">
          <Node pos="l" depth="2" NCoef="0" IVar="0" Cut="-2.9116520881652832e+00" cType="1" res="-1.3261636719107628e-02" rms="1.4171028137207031e-01" purity="3.7610121071338654e-02" nType="0">
            <Node pos="l" depth="3" NCoef="0" IVar="-1" Cut="0.0000000000000000e+00" cType="1" res="-4.0472590923309326e-01" rms="3.9939679205417633e-02" purity="3.2200356945395470e-03" nType="-99"/>
            <Node pos="r" depth="3" NCoef="0" IVar="-1" Cut="0.0000000000000000e+00" cType="1" res="-3.5593625903129578e-01" rms="1.9121320545673370e-01" purity="6.8540170788764954e-02" nType="-99"/>
          </Node>
          <Node pos="r" depth="2" NCoef="0" IVar="0" Cut="2.7623777389526367e+00" cType="1" res="-7.0131573011167347e-05" rms="4.6804004907608032e-01" purity="4.9799874424934387e-01" nType="0">
            <Node pos="l" depth="3" NCoef="0" IVar="2" Cut="5.4978346824645996e-01" cType="1" res="-2.7001814451068640e-03" rms="4.6845349669456482e-01" purity="5.1435583829879761e-01" nType="0">
              <Node pos="l" depth="4" NCoef="0" IVar="-1" Cut="0.0000000000000000e+00" cType="1" res="-2.6574458461254835e-03" rms="4.6651208400726318e-01" purity="5.2026748657226562e-01" nType="-99"/>
              <Node pos="r" depth="4" NCoef="0" IVar="-1" Cut="0.0000000000000000e+00" cType="1" res="-5.2828084677457809e-02" rms="4.9556559324264526e-01" purity="4.2740640044212341e-01" nType="-99"/>
            </Node>
            <Node pos="r" depth="3" NCoef="0" IVar="3" Cut="5.4330539703369141e-01" cType="1" res="7.3573421686887741e-03" rms="4.6679043769836426e-01" purity="4.5180496573448181e-01" nType="0">
              <Node pos="l" depth="4" NCoef="0" IVar="-1" Cut="0.0000000000000000e+00" cType="1" res="3.1961496919393539e-02" rms="4.6274700760841370e-01" purity="4.3716156482696533e-01" nType="-99"/>
              <Node pos="r" depth="4" NCoef="0" IVar="-1" Cut="0.0000000000000000e+00" cType="1" res="-4.2361084371805191e-02" rms="4.8440936207771301e-01" purity="5.2064335346221924e-01" nType="-99"/>
            </Node>
          </Node>
        </Node>
      </Node>
    </BinaryTree>
    <BinaryTree type="DecisionTree" boostWeight="1.0000000000000000e+00" itree="14">
      <Node pos="s" depth="0" NCoef="0" IVar="7" Cut="4.2488228529691696e-02" cType="1" res="-3.7799498386448249e-05" rms="4.3864679336547852e-01" purity="5.0000000000000000e-01" nType="0">
        <Node pos="l" depth="1" NCoef="0" IVar="7" Cut="4.2066915193572640e-04" cType="1" res="2.8117608744651079e-03" rms="4.2736861109733582e-01" purity="5.1273673772811890e-01" nType="0">
          <Node pos="l" depth="2" NCoef="0" IVar="2" Cut="9.8019802570343018e-01" cType="1" res="3.0504295136779547e-04" rms="4.2821499705314636e-01" purity="4.8156479001045227e-01" nType="0">
            <Node pos="l" depth="3" NCoef="0" IVar="0" Cut="-2.8793778419494629e+00" cType="1" res="1.4427538262680173e-03" rms="4.3264746665954590e-01" purity="4.9800068140029907e-01" nType="0">
              <Node pos="l" depth="4" NCoef="0" IVar="-1" Cut="0.0000000000000000e+00" cType="1" res="1.3183128833770752e-01" rms="2.7846843004226685e-01" purity="2.0733664929866791e-01" nType="-99"/>
              <Node pos="r" depth="4" NCoef="0" IVar="-1" Cut="0.0000000000000000e+00" cType="1" res="-2.1940025035291910e-03" rms="4.4754993915557861e-01" purity="5.3290748596191406e-01" nType="-99"/>
            </Node>
            <Node pos="r" depth="3" NCoef="0" IVar="-1" Cut="0.0000000000000000e+00" cType="1" res="-6.7301064729690552e-02" rms="3.3932584524154663e-01" purity="1.8954724073410034e-01" nType="-99"/>
          </Node>
          <Node pos="r" depth="2" NCoef="0" IVar="3" Cut="2.8927472233772278e-01" cType="1" res="1.7506113275885582e-02" rms="4.2207369208335876e-01" purity="6.9546633958816528e-01" nType="0">
            <Node pos="l" depth="3" NCoef="0" IVar="-1" Cut="0.0000000000000000e+00" cType="1" res="-5.4414300248026848e-03" rms="4.4002899527549744e-01" purity="6.1339867115020752e-01" nType="-99"/>
            <Node pos="r" depth="3" NCoef="0" IVar="2" Cut="1.6608701646327972e-01" cType="1" res="2.7759367600083351e-02" rms="4.1199800372123718e-01" purity="7.3839867115020752e-01" nType="0">
              <Node pos="l" depth="4" NCoef="0" IVar="-1" Cut="0.0000000000000000e+00" cType="1" res="5.1976155489683151e-02" rms="3.9550921320915222e-01" purity="7.6242637634277344e-01" nType="-99"/>
              <Node pos="r" depth="4" NCoef="0" IVar="-1" Cut="0.0000000000000000e+00" cType="1" res="1.0415117442607880e-01" rms="4.3402606248855591e-01" purity="7.0410221815109253e-01" nType="-99"/>
            </Node>
          </Node>
        </Node>
        <Node pos="r" depth="1" NCoef="0" IVar="3" Cut="3.3382266759872437e-01" cType="1" res="-5.0326227210462093e-03" rms="4.5770293474197388e-01" purity="4.7767451405525208e-01" nType="0">
          <Node pos="l" depth="2" NCoef="0" IVar="4" Cut="5.7749789208173752e-02" cType="1" res="-1.9619781232904643e-04" rms="4.5671913027763367e-01" purity="4.5149907469749451e-01" nType="0">
            <Node pos="l" depth="3" NCoef="0" IVar="-1" Cut="0.0000000000000000e+00" cType="1" res="6.0589972883462906e-02" rms="4.3308895826339722e-01" purity="4.7639745473861694e-01" nType="-99"/>
            <Node pos="r" depth="3" NCoef="0" IVar="3" Cut="2.6110833883285522e-01" cType="1" res="-3.3668195828795433e-03" rms="4.5984178781509399e-01" purity="4.4801297783851624e-01" nType="0">
              <Node pos="l" depth="4" NCoef="0" IVar="-1" Cut="0.0000000000000000e+00" cType="1" res="-2.0008418709039688e-02" rms="4.5514973998069763e-01" purity="4.3030682206153870e-01" nType="-99"/>
              <Node pos="r" depth="4" NCoef="0" IVar="-1" Cut="0.0000000000000000e+00" cType="1" res="2.5524018332362175e-02" rms="4.7365823388099670e-01" purity="5.0233805179595947e-01" nType="-99"/>
            </Node>
          </Node>
          <Node pos="r" depth="2" NCoef="0" IVar="4" Cut="1.0645508766174316e-01" cType="1" res="-2.2523945197463036e-02" rms="4.6081990003585815e-01" purity="5.7234019041061401e-01" nType="0">
            <Node pos="l" depth="3" NCoef="0" IVar="-1" Cut="0.0000000000000000e+00" cType="1" res="-9.1182708740234375e-02" rms="4.7354701161384583e-01" purity="4.5388308167457581e-01" nType="-99"/>
            <Node pos="r" depth="3" NCoef="0" IVar="5" Cut="7.7729083597660065e-02" cType="1" res="-1.3876534067094326e-02" rms="4.5434412360191345e-01" purity="6.2907445430755615e-01" nType="0">
              <Node pos="l" depth="4" NCoef="0" IVar="-1" Cut="0.0000000000000000e+00" cType="1" res="-5.2750259637832642e-02" rms="4.5919919013977051e-01" purity="5.9579551219940186e-01" nType="-99"/>
              <Node pos="r" depth="4" NCoef="0" IVar="-1" Cut="0.0000000000000000e+00" cType="1" res="-1.5005426481366158e-02" rms="4.4933474063873291e-01" purity="6.6208529472351074e-01" nType="-99"/>
            </Node>
          </Node>
        </Node>
      </Node>
    </BinaryTree>
    <BinaryTree type="DecisionTree" boostWeight="1.0000000000000000e+00" itree="15">
      <Node pos="s" depth="0" NCoef="0" IVar="0" Cut="-2.7028689384460449e+00" cType="1" res="2.3995084120542742e-05" rms="4.3843400478363037e-01" purity="5.0000000000000000e-01" nType="0">
        <Node pos="l" depth="1" NCoef="0" IVar="2" Cut="1.5841583907604218e-01" cType="1" res="-5.2241533994674683e-03" rms="4.2463570833206177e-01" purity="4.4651898741722107e-01" nType="0">
          <Node pos="l" depth="2" NCoef="0" IVar="6" Cut="1.7823927104473114e-01" cType="1" res="7.9789379378780723e-04" rms="3.9909893274307251e-01" purity="4.7753342986106873e-01" nType="0">
            <Node pos="l" depth="3" NCoef="0" IVar="2" Cut="3.1366755720227957e-03" cType="1" res="3.1144344247877598e-03" rms="3.8848605751991272e-01" purity="4.7397473454475403e-01" nType="0">
              <Node pos="l" depth="4" NCoef="0" IVar="-1" Cut="0.0000000000000000e+00" cType="1" res="-2.2952625527977943e-02" rms="2.8426295518875122e-01" purity="3.8804784417152405e-01" nType="-99"/>
              <Node pos="r" depth="4" NCoef="0" IVar="-1" Cut="0.0000000000000000e+00" cType="1" res="1.9720464944839478e-02" rms="4.4741895794868469e-01" purity="5.3441244363784790e-01" nType="-99"/>
            </Node>
            <Node pos="r" depth="3" NCoef="0" IVar="-1" Cut="0.0000000000000000e+00" cType="1" res="-2.8181768953800201e-02" rms="4.4986292719841003e-01" purity="4.9595510959625244e-01" nType="-99"/>
          </Node>
          <Node pos="r" depth="2" NCoef="0" IVar="0" Cut="-2.8657641410827637e+00" cType="1" res="-1.4575167559087276e-02" rms="4.6134111285209656e-01" purity="3.9835983514785767e-01" nType="0">
            <Node pos="l" depth="3" NCoef="0" IVar="-1" Cut="0.0000000000000000e+00" cType="1" res="-9.9278010427951813e-02" rms="4.0485495328903198e-01" purity="2.8770336508750916e-01" nType="-99"/>
            <Node pos="r" depth="3" NCoef="0" IVar="2" Cut="3.1674078106880188e-01" cType="1" res="-8.2833357155323029e-03" rms="4.7620090842247009e-01" purity="4.3026793003082275e-01" nType="0">
              <Node pos="l" depth="4" NCoef="0" IVar="-1" Cut="0.0000000000000000e+00" cType="1" res="-4.4132556766271591e-02" rms="4.7183912992477417e-01" purity="4.3832349777221680e-01" nType="-99"/>
              <Node pos="r" depth="4" NCoef="0" IVar="-1" Cut="0.0000000000000000e+00" cType="1" res="3.2054584473371506e-02" rms="4.8426854610443115e-01" purity="4.1364577412605286e-01" nType="-99"/>
            </Node>
          </Node>
        </Node>
        <Node pos="r" depth="1" NCoef="0" IVar="0" Cut="2.6612131595611572e+00" cType="1" res="2.5899398606270552e-03" rms="4.4500210881233215e-01" purity="5.2614814043045044e-01" nType="0">
          <Node pos="l" depth="2" NCoef="0" IVar="4" Cut="2.9702970385551453e-01" cType="1" res="7.9151680693030357e-03" rms="4.6047306060791016e-01" purity="6.0490500926971436e-01" nType="0">
            <Node pos="l" depth="3" NCoef="0" IVar="7" Cut="1.3596233725547791e-01" cType="1" res="1.0707414709031582e-02" rms="4.6008071303367615e-01" purity="6.0607331991195679e-01" nType="0">
              <Node pos="l" depth="4" NCoef="0" IVar="-1" Cut="0.0000000000000000e+00" cType="1" res="1.8817547708749771e-02" rms="4.5915091037750244e-01" purity="6.2258118391036987e-01" nType="-99"/>
              <Node pos="r" depth="4" NCoef="0" IVar="-1" Cut="0.0000000000000000e+00" cType="1" res="8.0629050731658936e-02" rms="4.6681007742881775e-01" purity="4.7388330101966858e-01" nType="-99"/>
            </Node>
            <Node pos="r" depth="3" NCoef="0" IVar="-1" Cut="0.0000000000000000e+00" cType="1" res="-3.2019834965467453e-02" rms="4.6288549900054932e-01" purity="5.9606450796127319e-01" nType="-99"/>
          </Node>
          <Node pos="r" depth="2" NCoef="0" IVar="6" Cut="1.3093161582946777e-01" cType="1" res="-1.6002741176635027e-03" rms="4.3239358067512512e-01" purity="4.6417745947837830e-01" nType="0">
            <Node pos="l" depth="3" NCoef="0" IVar="0" Cut="2.8591170310974121e+00" cType="1" res="1.5583746135234833e-03" rms="4.2686685919761658e-01" purity="4.6414646506309509e-01" nType="0">
              <Node pos="l" depth="4" NCoef="0" IVar="-1" Cut="0.0000000000000000e+00" cType="1" res="-6.4658592455089092e-03" rms="4.6092239022254944e-01" purity="5.4590100049972534e-01" nType="-99"/>
              <Node pos="r" depth="4" NCoef="0" IVar="-1" Cut="0.0000000000000000e+00" cType="1" res="4.8830915242433548e-02" rms="3.3301597833633423e-01" purity="2.7168917655944824e-01" nType="-99"/>
            </Node>
            <Node pos="r" depth="3" NCoef="0" IVar="7" Cut="1.0139467567205429e-01" cType="1" res="-1.3825229369103909e-02" rms="4.5294129848480225e-01" purity="4.6429744362831116e-01" nType="0">
              <Node pos="l" depth="4" NCoef="0" IVar="-1" Cut="0.0000000000000000e+00" cType="1" res="-7.4910116381943226e-04" rms="4.5619079470634460e-01" purity="5.1876306533813477e-01" nType="-99"/>
              <Node pos="r" depth="4" NCoef="0" IVar="-1" Cut="0.0000000000000000e+00" cType="1" res="-6.7734904587268829e-02" rms="4.4931069016456604e-01" purity="4.1051831841468811e-01" nType="-99"/>
            </Node>
          </Node>
        </Node>
      </Node>
    </BinaryTree>
    <BinaryTree type="DecisionTree" boostWeight="1.0000000000000000e+00" itree="16">
      <Node pos="s" depth="0" NCoef="0" IVar="7" Cut="1.6995291411876678e-01" cType="1" res="-4.6126187953632325e-05" rms="4.3822619318962097e-01" purity="5.0000000000000000e-01" nType="0">
        <Node pos="l" depth="1" NCoef="0" IVar="8" Cut="4.6801205724477768e-02" cType="1" res="8.3626859122887254e-04" rms="4.3736928701400757e-01" purity="5.0972485542297363e-01" nType="0">
          <Node pos="l" depth="2" NCoef="0" IVar="8" Cut="3.6142870783805847e-02" cType="1" res="-6.3889002194628119e-04" rms="4.2913588881492615e-01" purity="5.3369492292404175e-01" nType="0">
            <Node pos="l" depth="3" NCoef="0" IVar="7" Cut="1.0264199227094650e-01" cType="1" res="8.4331404650583863e-04" rms="4.2746236920356750e-01" purity="5.2900874614715576e-01" nType="0">
              <Node pos="l" depth="4" NCoef="0" IVar="-1" Cut="0.0000000000000000e+00" cType="1" res="-3.0043919105082750e-04" rms="4.2601081728935242e-01" purity="5.2847748994827271e-01" nType="-99"/>
              <Node pos="r" depth="4" NCoef="0" IVar="-1" Cut="0.0000000000000000e+00" cType="1" res="5.6153256446123123e-02" rms="4.5978340506553650e-01" purity="5.4153019189834595e-01" nType="-99"/>
            </Node>
            <Node pos="r" depth="3" NCoef="0" IVar="-1" Cut="0.0000000000000000e+00" cType="1" res="-7.6519727706909180e-02" rms="4.6034818887710571e-01" purity="6.2747001647949219e-01" nType="-99"/>
          </Node>
          <Node pos="r" depth="2" NCoef="0" IVar="7" Cut="4.2066525667905807e-02" cType="1" res="6.5065831877291203e-03" rms="4.6762651205062866e-01" purity="4.1758704185485840e-01" nType="0">
            <Node pos="l" depth="3" NCoef="0" IVar="-1" Cut="0.0000000000000000e+00" cType="1" res="-2.9887679964303970e-02" rms="4.6705785393714905e-01" purity="4.8692122101783752e-01" nType="-99"/>
            <Node pos="r" depth="3" NCoef="0" IVar="7" Cut="1.0917472094297409e-01" cType="1" res="9.8779406398534775e-03" rms="4.6764248609542847e-01" purity="4.0558820962905884e-01" nType="0">
              <Node pos="l" depth="4" NCoef="0" IVar="-1" Cut="0.0000000000000000e+00" cType="1" res="3.8370281457901001e-02" rms="4.7425335645675659e-01" purity="4.4041109085083008e-01" nType="-99"/>
              <Node pos="r" depth="4" NCoef="0" IVar="-1" Cut="0.0000000000000000e+00" cType="1" res="3.9837800431996584e-04" rms="4.5779380202293396e-01" purity="3.5551187396049500e-01" nType="-99"/>
            </Node>
          </Node>
        </Node>
        <Node pos="r" depth="1" NCoef="0" IVar="5" Cut="7.7004887163639069e-02" cType="1" res="-1.0417659766972065e-02" rms="4.4804507493972778e-01" purity="3.8569584488868713e-01" nType="0">
          <Node pos="l" depth="2" NCoef="0" IVar="-1" Cut="0.0000000000000000e+00" cType="1" res="3.7943489849567413e-02" rms="4.4344443082809448e-01" purity="3.9373424649238586e-01" nType="-99"/>
          <Node pos="r" depth="2" NCoef="0" IVar="2" Cut="8.2141846418380737e-02" cType="1" res="-2.3620886728167534e-02" rms="4.4984954595565796e-01" purity="3.8152083754539490e-01" nType="0">
            <Node pos="l" depth="3" NCoef="0" IVar="-1" Cut="0.0000000000000000e+00" cType="1" res="-9.1914258897304535e-02" rms="4.5459792017936707e-01" purity="4.8317632079124451e-01" nType="-99"/>
            <Node pos="r" depth="3" NCoef="0" IVar="-1" Cut="0.0000000000000000e+00" cType="1" res="-2.7210043743252754e-02" rms="4.4491881132125854e-01" purity="2.8539612889289856e-01" nType="-99"/>
          </Node>
        </Node>
      </Node>
    </BinaryTree>
    <BinaryTree type="DecisionTree" boostWeight="1.0000000000000000e+00" itree="17">
      <Node pos="s" depth="0" NCoef="0" IVar="3" Cut="1.3861386477947235e-01" cType="1" res="4.5001156649959739e-06" rms="4.3807619810104370e-01" purity="5.0000000000000000e-01" nType="0">
        <Node pos="l" depth="1" NCoef="0" IVar="6" Cut="1.6010041534900665e-01" cType="1" res="4.4745332561433315e-03" rms="4.1888046264648438e-01" purity="6.0838341712951660e-01" nType="0">
          <Node pos="l" depth="2" NCoef="0" IVar="1" Cut="-1.2130762338638306e+00" cType="1" res="5.7619315339252353e-04" rms="4.1635665297508240e-01" purity="6.2147891521453857e-01" nType="0">
            <Node pos="l" depth="3" NCoef="0" IVar="1" Cut="-2.1678109169006348e+00" cType="1" res="9.6530849114060402e-03" rms="4.1148003935813904e-01" purity="6.2698733806610107e-01" nType="0">
              <Node pos="l" depth="4" NCoef="0" IVar="-1" Cut="0.0000000000000000e+00" cType="1" res="-1.9479626789689064e-02" rms="4.1723591089248657e-01" purity="6.1348646879196167e-01" nType="-99"/>
              <Node pos="r" depth="4" NCoef="0" IVar="-1" Cut="0.0000000000000000e+00" cType="1" res="7.5371608138084412e-02" rms="4.0484213829040527e-01" purity="6.4074629545211792e-01" nType="-99"/>
            </Node>
            <Node pos="r" depth="3" NCoef="0" IVar="0" Cut="2.5232899188995361e+00" cType="1" res="-3.3618204761296511e-03" rms="4.1839343309402466e-01" purity="6.1908912658691406e-01" nType="0">
              <Node pos="l" depth="4" NCoef="0" IVar="-1" Cut="0.0000000000000000e+00" cType="1" res="-2.3614143952727318e-02" rms="4.1928219795227051e-01" purity="6.1615628004074097e-01" nType="-99"/>
              <Node pos="r" depth="4" NCoef="0" IVar="-1" Cut="0.0000000000000000e+00" cType="1" res="5.1375566981732845e-03" rms="4.1737213730812073e-01" purity="6.2225097417831421e-01" nType="-99"/>
            </Node>
          </Node>
          <Node pos="r" depth="2" NCoef="0" IVar="2" Cut="5.9930332005023956e-02" cType="1" res="2.1177725866436958e-02" rms="4.2912560701370239e-01" purity="5.5227321386337280e-01" nType="0">
            <Node pos="l" depth="3" NCoef="0" IVar="-1" Cut="0.0000000000000000e+00" cType="1" res="1.2710711359977722e-01" rms="3.9686211943626404e-01" purity="7.4179291725158691e-01" nType="-99"/>
            <Node pos="r" depth="3" NCoef="0" IVar="-1" Cut="0.0000000000000000e+00" cType="1" res="4.7398507595062256e-03" rms="4.5511865615844727e-01" purity="3.8321834802627563e-01" nType="-99"/>
          </Node>
        </Node>
        <Node pos="r" depth="1" NCoef="0" IVar="5" Cut="2.4842058122158051e-01" cType="1" res="-1.9082811195403337e-03" rms="4.4602429866790771e-01" purity="4.5362141728401184e-01" nType="0">
          <Node pos="l" depth="2" NCoef="0" IVar="6" Cut="1.4796754717826843e-01" cType="1" res="-6.6704914206638932e-04" rms="4.4494551420211792e-01" purity="4.5133835077285767e-01" nType="0">
            <Node pos="l" depth="3" NCoef="0" IVar="5" Cut="2.4595640134066343e-03" cType="1" res="9.9341908935457468e-04" rms="4.4163027405738831e-01" purity="4.5214426517486572e-01" nType="0">
              <Node pos="l" depth="4" NCoef="0" IVar="-1" Cut="0.0000000000000000e+00" cType="1" res="-1.1599617078900337e-02" rms="4.2165434360504150e-01" purity="3.4640303254127502e-01" nType="-99"/>
              <Node pos="r" depth="4" NCoef="0" IVar="-1" Cut="0.0000000000000000e+00" cType="1" res="1.2597741559147835e-02" rms="4.5757892727851868e-01" purity="5.4032152891159058e-01" nType="-99"/>
            </Node>
            <Node pos="r" depth="3" NCoef="0" IVar="5" Cut="9.5922686159610748e-02" cType="1" res="-1.1133071966469288e-02" rms="4.6516177058219910e-01" purity="4.4625869393348694e-01" nType="0">
              <Node pos="l" depth="4" NCoef="0" IVar="-1" Cut="0.0000000000000000e+00" cType="1" res="-5.2846468985080719e-02" rms="4.6395236253738403e-01" purity="3.9772471785545349e-01" nType="-99"/>
              <Node pos="r" depth="4" NCoef="0" IVar="-1" Cut="0.0000000000000000e+00" cType="1" res="-8.1585617735981941e-03" rms="4.6583086252212524e-01" purity="4.7943940758705139e-01" nType="-99"/>
            </Node>
          </Node>
          <Node pos="r" depth="2" NCoef="0" IVar="-1" Cut="0.0000000000000000e+00" cType="1" res="-7.8502058982849121e-02" rms="4.7146636247634888e-01" purity="5.1151341199874878e-01" nType="-99"/>
        </Node>
      </Node>
    </BinaryTree>
    <BinaryTree type="DecisionTree" boostWeight="1.0000000000000000e+00" itree="18">
      <Node pos="s" depth="0" NCoef="0" IVar="7" Cut="3.3990584313869476e-02" cType="1" res="6.0323047364363447e-05" rms="4.3789911270141602e-01" purity="5.0000000000000000e-01" nType="0">
        <Node pos="l" depth="1" NCoef="0" IVar="8" Cut="2.8080724179744720e-02" cType="1" res="2.3380180355161428e-03" rms="4.2639681696891785e-01" purity="5.0676691532135010e-01" nType="0">
          <Node pos="l" depth="2" NCoef="0" IVar="8" Cut="2.7801594114862382e-04" cType="1" res="3.2603037543594837e-03" rms="4.2499819397926331e-01" purity="5.0387811660766602e-01" nType="0">
            <Node pos="l" depth="3" NCoef="0" IVar="2" Cut="1.3861386477947235e-01" cType="1" res="2.1252264268696308e-03" rms="4.2789903283119202e-01" purity="4.8856794834136963e-01" nType="0">
              <Node pos="l" depth="4" NCoef="0" IVar="-1" Cut="0.0000000000000000e+00" cType="1" res="-4.9714371562004089e-03" rms="3.6865827441215515e-01" purity="5.5127286911010742e-01" nType="-99"/>
              <Node pos="r" depth="4" NCoef="0" IVar="-1" Cut="0.0000000000000000e+00" cType="1" res="1.2031213380396366e-02" rms="4.7779345512390137e-01" purity="4.2849019169807434e-01" nType="-99"/>
            </Node>
            <Node pos="r" depth="3" NCoef="0" IVar="-1" Cut="0.0000000000000000e+00" cType="1" res="9.1133661568164825e-02" rms="3.5890942811965942e-01" purity="8.2088607549667358e-01" nType="-99"/>
          </Node>
          <Node pos="r" depth="2" NCoef="0" IVar="-1" Cut="0.0000000000000000e+00" cType="1" res="-3.5575494170188904e-02" rms="4.5066756010055542e-01" purity="5.5912274122238159e-01" nType="-99"/>
        </Node>
        <Node pos="r" depth="1" NCoef="0" IVar="6" Cut="3.4915097057819366e-02" cType="1" res="-3.5138675011694431e-03" rms="4.5534044504165649e-01" purity="4.8938131332397461e-01" nType="0">
          <Node pos="l" depth="2" NCoef="0" IVar="-1" Cut="0.0000000000000000e+00" cType="1" res="-6.3433915376663208e-02" rms="4.5761209726333618e-01" purity="4.8802018165588379e-01" nType="-99"/>
          <Node pos="r" depth="2" NCoef="0" IVar="1" Cut="-1.4619768857955933e+00" cType="1" res="-1.6477770404890180e-03" rms="4.5509997010231018e-01" purity="4.8949545621871948e-01" nType="0">
            <Node pos="l" depth="3" NCoef="0" IVar="1" Cut="-1.9775153398513794e+00" cType="1" res="-1.0208623483777046e-02" rms="4.5389205217361450e-01" purity="4.8077690601348877e-01" nType="0">
              <Node pos="l" depth="4" NCoef="0" IVar="-1" Cut="0.0000000000000000e+00" cType="1" res="-1.2031597085297108e-02" rms="4.5461133122444153e-01" purity="4.8629212379455566e-01" nType="-99"/>
              <Node pos="r" depth="4" NCoef="0" IVar="-1" Cut="0.0000000000000000e+00" cType="1" res="-5.4936952888965607e-02" rms="4.5205229520797729e-01" purity="4.6846330165863037e-01" nType="-99"/>
            </Node>
            <Node pos="r" depth="3" NCoef="0" IVar="2" Cut="2.2108948230743408e-01" cType="1" res="1.4383976813405752e-03" rms="4.5549517869949341e-01" purity="4.9263846874237061e-01" nType="0">
              <Node pos="l" depth="4" NCoef="0" IVar="-1" Cut="0.0000000000000000e+00" cType="1" res="7.7389879152178764e-03" rms="4.5477336645126343e-01" purity="5.0010669231414795e-01" nType="-99"/>
              <Node pos="r" depth="4" NCoef="0" IVar="-1" Cut="0.0000000000000000e+00" cType="1" res="-3.2068319618701935e-02" rms="4.6158534288406372e-01" purity="4.2633822560310364e-01" nType="-99"/>
            </Node>
          </Node>
        </Node>
      </Node>
    </BinaryTree>
    <BinaryTree type="DecisionTree" boostWeight="1.0000000000000000e+00" itree="19">
      <Node pos="s" depth="0" NCoef="0" IVar="4" Cut="2.4752475321292877e-01" cType="1" res="2.9288328732945956e-05" rms="4.3778917193412781e-01" purity="5.0000000000000000e-01" nType="0">
        <Node pos="l" depth="1" NCoef="0" IVar="5" Cut="1.3597026467323303e-01" cType="1" res="1.1979865375906229e-03" rms="4.3360686302185059e-01" purity="4.8717740178108215e-01" nType="0">
          <Node pos="l" depth="2" NCoef="0" IVar="5" Cut="1.3462193310260773e-03" cType="1" res="2.5220920797437429e-03" rms="4.2713770270347595e-01" purity="4.8621565103530884e-01" nType="0">
            <Node pos="l" depth="3" NCoef="0" IVar="4" Cut="2.6956520974636078e-02" cType="1" res="-1.3418635353446007e-03" rms="4.0928781032562256e-01" purity="4.7992911934852600e-01" nType="0">
              <Node pos="l" depth="4" NCoef="0" IVar="-1" Cut="0.0000000000000000e+00" cType="1" res="7.7018081210553646e-03" rms="3.9330258965492249e-01" purity="4.8606425523757935e-01" nType="-99"/>
              <Node pos="r" depth="4" NCoef="0" IVar="-1" Cut="0.0000000000000000e+00" cType="1" res="-4.7083795070648193e-02" rms="4.8856785893440247e-01" purity="4.4564488530158997e-01" nType="-99"/>
            </Node>
            <Node pos="r" depth="3" NCoef="0" IVar="4" Cut="6.8618573248386383e-02" cType="1" res="8.9524341747164726e-03" rms="4.5522180199623108e-01" purity="4.9667763710021973e-01" nType="0">
              <Node pos="l" depth="4" NCoef="0" IVar="-1" Cut="0.0000000000000000e+00" cType="1" res="-2.0533140748739243e-02" rms="4.4883659482002258e-01" purity="4.3479609489440918e-01" nType="-99"/>
              <Node pos="r" depth="4" NCoef="0" IVar="-1" Cut="0.0000000000000000e+00" cType="1" res="2.9993977397680283e-02" rms="4.5638498663902283e-01" purity="5.0879752635955811e-01" nType="-99"/>
            </Node>
          </Node>
          <Node pos="r" depth="2" NCoef="0" IVar="3" Cut="2.6886749267578125e-01" cType="1" res="-4.1695721447467804e-03" rms="4.5885872840881348e-01" purity="4.9107602238655090e-01" nType="0">
            <Node pos="l" depth="3" NCoef="0" IVar="7" Cut="8.6220107972621918e-02" cType="1" res="3.5966173163615167e-04" rms="4.5548233389854431e-01" purity="4.6929907798767090e-01" nType="0">
              <Node pos="l" depth="4" NCoef="0" IVar="-1" Cut="0.0000000000000000e+00" cType="1" res="2.6708038523793221e-02" rms="4.5943132042884827e-01" purity="5.2387243509292603e-01" nType="-99"/>
              <Node pos="r" depth="4" NCoef="0" IVar="-1" Cut="0.0000000000000000e+00" cType="1" res="-1.5328838489949703e-02" rms="4.5297384262084961e-01" purity="4.3652778863906860e-01" nType="-99"/>
            </Node>
            <Node pos="r" depth="3" NCoef="0" IVar="2" Cut="1.2638321518898010e-01" cType="1" res="-1.3649709522724152e-02" rms="4.6570405364036560e-01" purity="5.3665733337402344e-01" nType="0">
              <Node pos="l" depth="4" NCoef="0" IVar="-1" Cut="0.0000000000000000e+00" cType="1" res="-5.6807443499565125e-02" rms="4.5979082584381104e-01" purity="5.7775288820266724e-01" nType="-99"/>
              <Node pos="r" depth="4" NCoef="0" IVar="-1" Cut="0.0000000000000000e+00" cType="1" res="-8.5113905370235443e-03" rms="4.7131437063217163e-01" purity="4.9569925665855408e-01" nType="-99"/>
            </Node>
          </Node>
        </Node>
        <Node pos="r" depth="1" NCoef="0" IVar="5" Cut="1.4962472021579742e-01" cType="1" res="-5.5493675172328949e-03" rms="4.5718497037887573e-01" purity="5.6120735406875610e-01" nType="0">
          <Node pos="l" depth="2" NCoef="0" IVar="6" Cut="7.0856899023056030e-02" cType="1" res="-1.1108191683888435e-02" rms="4.6493494510650635e-01" purity="5.3018826246261597e-01" nType="0">
            <Node pos="l" depth="3" NCoef="0" IVar="2" Cut="2.1533720195293427e-01" cType="1" res="-3.9786170236766338e-03" rms="4.6909955143928528e-01" purity="5.3624725341796875e-01" nType="0">
              <Node pos="l" depth="4" NCoef="0" IVar="-1" Cut="0.0000000000000000e+00" cType="1" res="5.5046919733285904e-03" rms="4.6223795413970947e-01" purity="5.9681445360183716e-01" nType="-99"/>
              <Node pos="r" depth="4" NCoef="0" IVar="-1" Cut="0.0000000000000000e+00" cType="1" res="-3.7966847419738770e-02" rms="4.8323813080787659e-01" purity="4.0609136223793030e-01" nType="-99"/>
            </Node>
            <Node pos="r" depth="3" NCoef="0" IVar="-1" Cut="0.0000000000000000e+00" cType="1" res="-6.8311169743537903e-02" rms="4.5493656396865845e-01" purity="5.1644909381866455e-01" nType="-99"/>
          </Node>
          <Node pos="r" depth="2" NCoef="0" IVar="-1" Cut="0.0000000000000000e+00" cType="1" res="3.3376853913068771e-02" rms="4.3092638254165649e-01" purity="6.6062283515930176e-01" nType="-99"/>
        </Node>
      </Node>
    </BinaryTree>
    <BinaryTree type="DecisionTree" boostWeight="1.0000000000000000e+00" itree="20">
      <Node pos="s" depth="0" NCoef="0" IVar="8" Cut="1.8720482289791107e-01" cType="1" res="1.3116750778863207e-06" rms="4.3762406706809998e-01" purity="5.0000000000000000e-01" nType="0">
        <Node pos="l" depth="1" NCoef="0" IVar="8" Cut="1.3344617187976837e-01" cType="1" res="3.4887398942373693e-04" rms="4.3784022331237793e-01" purity="5.0607812404632568e-01" nType="0">
          <Node pos="l" depth="2" NCoef="0" IVar="7" Cut="1.9544585049152374e-01" cType="1" res="-2.5827082572504878e-04" rms="4.3783804774284363e-01" purity="5.1498556137084961e-01" nType="0">
            <Node pos="l" depth="3" NCoef="0" IVar="1" Cut="-2.8305435180664062e+00" cType="1" res="3.8179749390110373e-04" rms="4.3726387619972229e-01" purity="5.1944518089294434e-01" nType="0">
              <Node pos="l" depth="4" NCoef="0" IVar="-1" Cut="0.0000000000000000e+00" cType="1" res="2.9839703813195229e-02" rms="4.3004977703094482e-01" purity="5.1841896772384644e-01" nType="-99"/>
              <Node pos="r" depth="4" NCoef="0" IVar="-1" Cut="0.0000000000000000e+00" cType="1" res="-3.9638500311411917e-04" rms="4.3761295080184937e-01" purity="5.1949620246887207e-01" nType="-99"/>
            </Node>
            <Node pos="r" depth="3" NCoef="0" IVar="-1" Cut="0.0000000000000000e+00" cType="1" res="-3.6018904298543930e-02" rms="4.5029971003532410e-01" purity="4.1483837366104126e-01" nType="-99"/>
          </Node>
          <Node pos="r" depth="2" NCoef="0" IVar="-1" Cut="0.0000000000000000e+00" cType="1" res="4.2724493891000748e-02" rms="4.3762955069541931e-01" purity="2.8755128383636475e-01" nType="-99"/>
        </Node>
        <Node pos="r" depth="1" NCoef="0" IVar="-1" Cut="0.0000000000000000e+00" cType="1" res="-3.2670851796865463e-02" rms="4.2990702390670776e-01" purity="2.8972664475440979e-01" nType="-99"/>
      </Node>
    </BinaryTree>
    <BinaryTree type="DecisionTree" boostWeight="1.0000000000000000e+00" itree="21">
      <Node pos="s" depth="0" NCoef="0" IVar="1" Cut="-2.3950757980346680e+00" cType="1" res="-1.5933224858599715e-05" rms="4.3759146332740784e-01" purity="5.0000000000000000e-01" nType="0">
        <Node pos="l" depth="1" NCoef="0" IVar="5" Cut="4.3400533497333527e-02" cType="1" res="-5.8033056557178497e-03" rms="4.3685102462768555e-01" purity="4.9466779828071594e-01" nType="0">
          <Node pos="l" depth="2" NCoef="0" IVar="3" Cut="2.5742575526237488e-01" cType="1" res="1.2886398471891880e-03" rms="4.2159149050712585e-01" purity="4.8947849869728088e-01" nType="0">
            <Node pos="l" depth="3" NCoef="0" IVar="-1" Cut="0.0000000000000000e+00" cType="1" res="2.2133545950055122e-02" rms="4.1943898797035217e-01" purity="6.3248419761657715e-01" nType="-99"/>
            <Node pos="r" depth="3" NCoef="0" IVar="-1" Cut="0.0000000000000000e+00" cType="1" res="-1.0646846145391464e-02" rms="4.2316246032714844e-01" purity="3.7994033098220825e-01" nType="-99"/>
          </Node>
          <Node pos="r" depth="2" NCoef="0" IVar="5" Cut="1.2590898573398590e-01" cType="1" res="-1.3508570380508900e-02" rms="4.5272183418273926e-01" purity="5.0030583143234253e-01" nType="0">
            <Node pos="l" depth="3" NCoef="0" IVar="-1" Cut="0.0000000000000000e+00" cType="1" res="-4.9027040600776672e-02" rms="4.5363435149192810e-01" purity="4.8525550961494446e-01" nType="-99"/>
            <Node pos="r" depth="3" NCoef="0" IVar="-1" Cut="0.0000000000000000e+00" cType="1" res="-1.8113406375050545e-02" rms="4.5173659920692444e-01" purity="5.1507347822189331e-01" nType="-99"/>
          </Node>
        </Node>
        <Node pos="r" depth="1" NCoef="0" IVar="7" Cut="1.1896704137325287e-01" cType="1" res="7.3712482117116451e-04" rms="4.3768209218978882e-01" purity="5.0069385766983032e-01" nType="0">
          <Node pos="l" depth="2" NCoef="0" IVar="6" Cut="2.3544178903102875e-01" cType="1" res="-2.6484610862098634e-04" rms="4.3473193049430847e-01" purity="5.1935285329818726e-01" nType="0">
            <Node pos="l" depth="3" NCoef="0" IVar="1" Cut="-2.0233629643917084e-01" cType="1" res="1.6960238281171769e-04" rms="4.3412095308303833e-01" purity="5.1895076036453247e-01" nType="0">
              <Node pos="l" depth="4" NCoef="0" IVar="-1" Cut="0.0000000000000000e+00" cType="1" res="-6.2364442273974419e-03" rms="4.3220281600952148e-01" purity="5.1421380043029785e-01" nType="-99"/>
              <Node pos="r" depth="4" NCoef="0" IVar="-1" Cut="0.0000000000000000e+00" cType="1" res="4.7985035926103592e-03" rms="4.3536475300788879e-01" purity="5.2205276489257812e-01" nType="-99"/>
            </Node>
            <Node pos="r" depth="3" NCoef="0" IVar="-1" Cut="0.0000000000000000e+00" cType="1" res="-2.9747048392891884e-02" rms="4.5056390762329102e-01" purity="5.3007340431213379e-01" nType="-99"/>
          </Node>
          <Node pos="r" depth="2" NCoef="0" IVar="3" Cut="9.0518012642860413e-02" cType="1" res="6.1755618080496788e-03" rms="4.5332130789756775e-01" purity="3.9941763877868652e-01" nType="0">
            <Node pos="l" depth="3" NCoef="0" IVar="-1" Cut="0.0000000000000000e+00" cType="1" res="-3.4482281655073166e-02" rms="4.2214488983154297e-01" purity="5.2160400152206421e-01" nType="-99"/>
            <Node pos="r" depth="3" NCoef="0" IVar="6" Cut="1.1023980379104614e-01" cType="1" res="1.0642644017934799e-02" rms="4.6054744720458984e-01" purity="3.6940169334411621e-01" nType="0">
              <Node pos="l" depth="4" NCoef="0" IVar="-1" Cut="0.0000000000000000e+00" cType="1" res="-4.0382615406997502e-04" rms="4.6069931983947754e-01" purity="3.5653141140937805e-01" nType="-99"/>
              <Node pos="r" depth="4" NCoef="0" IVar="-1" Cut="0.0000000000000000e+00" cType="1" res="4.7761559486389160e-02" rms="4.6024066209793091e-01" purity="3.7976428866386414e-01" nType="-99"/>
            </Node>
          </Node>
        </Node>
      </Node>
    </BinaryTree>
    <BinaryTree type="DecisionTree" boostWeight="1.0000000000000000e+00" itree="22">
      <Node pos="s" depth="0" NCoef="0" IVar="1" Cut="-9.0204393863677979e-01" cType="1" res="-1.1590181202336680e-05" rms="4.3753167986869812e-01" purity="5.0000000000000000e-01" nType="0">
        <Node pos="l" depth="1" NCoef="0" IVar="6" Cut="2.0718877017498016e-01" cType="1" res="2.5390677619725466e-03" rms="4.3568184971809387e-01" purity="4.9787488579750061e-01" nType="0">
          <Node pos="l" depth="2" NCoef="0" IVar="7" Cut="1.5766747295856476e-01" cType="1" res="1.3901229249313474e-03" rms="4.3459078669548035e-01" purity="4.9608650803565979e-01" nType="0">
            <Node pos="l" depth="3" NCoef="0" IVar="7" Cut="1.0146102309226990e-01" cType="1" res="2.4647612590342760e-03" rms="4.3367570638656616e-01" purity="5.1099485158920288e-01" nType="0">
              <Node pos="l" depth="4" NCoef="0" IVar="-1" Cut="0.0000000000000000e+00" cType="1" res="2.7642743661999702e-03" rms="4.3046557903289795e-01" purity="5.2136456966400146e-01" nType="-99"/>
              <Node pos="r" depth="4" NCoef="0" IVar="-1" Cut="0.0000000000000000e+00" cType="1" res="3.9670564234256744e-02" rms="4.6307015419006348e-01" purity="4.1166815161705017e-01" nType="-99"/>
            </Node>
            <Node pos="r" depth="3" NCoef="0" IVar="-1" Cut="0.0000000000000000e+00" cType="1" res="-2.8051557019352913e-02" rms="4.4482624530792236e-01" purity="3.2405599951744080e-01" nType="-99"/>
          </Node>
          <Node pos="r" depth="2" NCoef="0" IVar="-1" Cut="0.0000000000000000e+00" cType="1" res="4.1065003722906113e-02" rms="4.4821709394454956e-01" purity="5.1912397146224976e-01" nType="-99"/>
        </Node>
        <Node pos="r" depth="1" NCoef="0" IVar="0" Cut="2.8217825889587402e+00" cType="1" res="-1.3997955247759819e-03" rms="4.3852895498275757e-01" purity="5.0115662813186646e-01" nType="0">
          <Node pos="l" depth="2" NCoef="0" IVar="2" Cut="1.3861386477947235e-01" cType="1" res="-4.2125410982407629e-04" rms="4.4638201594352722e-01" purity="5.3142738342285156e-01" nType="0">
            <Node pos="l" depth="3" NCoef="0" IVar="7" Cut="1.8694821000099182e-01" cType="1" res="-3.5528654698282480e-03" rms="4.2115259170532227e-01" purity="5.9006106853485107e-01" nType="0">
              <Node pos="l" depth="4" NCoef="0" IVar="-1" Cut="0.0000000000000000e+00" cType="1" res="-1.5316416509449482e-02" rms="4.1763919591903687e-01" purity="6.0271966457366943e-01" nType="-99"/>
