<?xml version="1.0"?>
<MethodSetup Method="MLP::MLP">
  <GeneralInfo>
    <Info name="TMVA Release" value="4.2.1 [262657]"/>
    <Info name="ROOT Release" value="6.12/07 [396295]"/>
    <Info name="Creator" value="jkrupa"/>
    <Info name="Date" value="Thu Apr  4 16:08:12 2019"/>
    <Info name="Host" value="Linux cmsbuild87.cern.ch 2.6.32-696.30.1.el6.x86_64 #1 SMP Tue May 22 06:09:36 CEST 2018 x86_64 x86_64 x86_64 GNU/Linux"/>
    <Info name="Dir" value="/uscms_data/d3/jkrupa/pf_studies/CMSSW_10_5_0_pre2/src/CaloTrigNN/CaloNtupler/test"/>
    <Info name="Training events" value="464982"/>
    <Info name="TrainingTime" value="2.60092478e+03"/>
    <Info name="AnalysisType" value="Classification"/>
  </GeneralInfo>
  <Options>
    <Option name="NCycles" modified="Yes">600</Option>
    <Option name="HiddenLayers" modified="Yes">N+5</Option>
    <Option name="NeuronType" modified="Yes">tanh</Option>
    <Option name="RandomSeed" modified="No">1</Option>
    <Option name="EstimatorType" modified="No">CE</Option>
    <Option name="NeuronInputType" modified="No">sum</Option>
    <Option name="V" modified="Yes">False</Option>
    <Option name="VerbosityLevel" modified="No">Default</Option>
    <Option name="VarTransform" modified="Yes">N</Option>
    <Option name="H" modified="Yes">True</Option>
    <Option name="CreateMVAPdfs" modified="No">False</Option>
    <Option name="IgnoreNegWeightsInTraining" modified="No">False</Option>
    <Option name="TrainingMethod" modified="No">BP</Option>
    <Option name="LearningRate" modified="No">2.000000e-02</Option>
    <Option name="DecayRate" modified="No">1.000000e-02</Option>
    <Option name="TestRate" modified="Yes">5</Option>
    <Option name="EpochMonitoring" modified="No">False</Option>
    <Option name="Sampling" modified="No">1.000000e+00</Option>
    <Option name="SamplingEpoch" modified="No">1.000000e+00</Option>
    <Option name="SamplingImportance" modified="No">1.000000e+00</Option>
    <Option name="SamplingTraining" modified="No">True</Option>
    <Option name="SamplingTesting" modified="No">False</Option>
    <Option name="ResetStep" modified="No">50</Option>
    <Option name="Tau" modified="No">3.000000e+00</Option>
    <Option name="BPMode" modified="No">sequential</Option>
    <Option name="BatchSize" modified="No">-1</Option>
    <Option name="ConvergenceImprove" modified="No">1.000000e-30</Option>
    <Option name="ConvergenceTests" modified="No">-1</Option>
    <Option name="UseRegulator" modified="Yes">False</Option>
    <Option name="UpdateLimit" modified="No">10000</Option>
    <Option name="CalculateErrors" modified="No">False</Option>
    <Option name="WeightRange" modified="No">1.000000e+00</Option>
  </Options>
  <Variables NVar="9">
    <Variable VarIndex="0" Expression="eta" Label="eta" Title="eta" Unit="" Internal="eta" Type="F" Min="-2.99998808e+00" Max="2.99969673e+00"/>
    <Variable VarIndex="1" Expression="phi" Label="phi" Title="phi" Unit="" Internal="phi" Type="F" Min="-3.14157081e+00" Max="3.14158702e+00"/>
    <Variable VarIndex="2" Expression="depthFrac0" Label="depthFrac0" Title="depthFrac0" Unit="" Internal="depthFrac0" Type="F" Min="0.00000000e+00" Max="1.00000000e+00"/>
    <Variable VarIndex="3" Expression="depthFrac1" Label="depthFrac1" Title="depthFrac1" Unit="" Internal="depthFrac1" Type="F" Min="0.00000000e+00" Max="1.00000000e+00"/>
    <Variable VarIndex="4" Expression="depthFrac2" Label="depthFrac2" Title="depthFrac2" Unit="" Internal="depthFrac2" Type="F" Min="0.00000000e+00" Max="1.00000000e+00"/>
    <Variable VarIndex="5" Expression="depthFrac3" Label="depthFrac3" Title="depthFrac3" Unit="" Internal="depthFrac3" Type="F" Min="0.00000000e+00" Max="1.00000000e+00"/>
    <Variable VarIndex="6" Expression="depthFrac4" Label="depthFrac4" Title="depthFrac4" Unit="" Internal="depthFrac4" Type="F" Min="0.00000000e+00" Max="9.50231373e-01"/>
    <Variable VarIndex="7" Expression="depthFrac5" Label="depthFrac5" Title="depthFrac5" Unit="" Internal="depthFrac5" Type="F" Min="0.00000000e+00" Max="9.34503138e-01"/>
    <Variable VarIndex="8" Expression="depthFrac6" Label="depthFrac6" Title="depthFrac6" Unit="" Internal="depthFrac6" Type="F" Min="0.00000000e+00" Max="8.28991711e-01"/>
  </Variables>
  <Spectators NSpec="0"/>
  <Classes NClass="2">
    <Class Name="Signal" Index="0"/>
    <Class Name="Background" Index="1"/>
  </Classes>
  <Transformations NTransformations="1">
    <Transform Name="Normalize">
      <Selection>
        <Input NInputs="9">
          <Input Type="Variable" Label="eta" Expression="eta"/>
          <Input Type="Variable" Label="phi" Expression="phi"/>
          <Input Type="Variable" Label="depthFrac0" Expression="depthFrac0"/>
          <Input Type="Variable" Label="depthFrac1" Expression="depthFrac1"/>
          <Input Type="Variable" Label="depthFrac2" Expression="depthFrac2"/>
          <Input Type="Variable" Label="depthFrac3" Expression="depthFrac3"/>
          <Input Type="Variable" Label="depthFrac4" Expression="depthFrac4"/>
          <Input Type="Variable" Label="depthFrac5" Expression="depthFrac5"/>
          <Input Type="Variable" Label="depthFrac6" Expression="depthFrac6"/>
        </Input>
        <Output NOutputs="9">
          <Output Type="Variable" Label="eta" Expression="eta"/>
          <Output Type="Variable" Label="phi" Expression="phi"/>
          <Output Type="Variable" Label="depthFrac0" Expression="depthFrac0"/>
          <Output Type="Variable" Label="depthFrac1" Expression="depthFrac1"/>
          <Output Type="Variable" Label="depthFrac2" Expression="depthFrac2"/>
          <Output Type="Variable" Label="depthFrac3" Expression="depthFrac3"/>
          <Output Type="Variable" Label="depthFrac4" Expression="depthFrac4"/>
          <Output Type="Variable" Label="depthFrac5" Expression="depthFrac5"/>
          <Output Type="Variable" Label="depthFrac6" Expression="depthFrac6"/>
        </Output>
      </Selection>
      <Class ClassIndex="0">
        <Ranges>
          <Range Index="0" Min="-2.9959058761596680e+00" Max="2.9974379539489746e+00"/>
          <Range Index="1" Min="-3.1415708065032959e+00" Max="3.1415841579437256e+00"/>
          <Range Index="2" Min="0.0000000000000000e+00" Max="1.0000000000000000e+00"/>
          <Range Index="3" Min="0.0000000000000000e+00" Max="1.0000000000000000e+00"/>
          <Range Index="4" Min="0.0000000000000000e+00" Max="1.0000000000000000e+00"/>
          <Range Index="5" Min="0.0000000000000000e+00" Max="1.0000000000000000e+00"/>
          <Range Index="6" Min="0.0000000000000000e+00" Max="9.5023137331008911e-01"/>
          <Range Index="7" Min="0.0000000000000000e+00" Max="9.3450313806533813e-01"/>
          <Range Index="8" Min="0.0000000000000000e+00" Max="8.2899171113967896e-01"/>
        </Ranges>
      </Class>
      <Class ClassIndex="1">
        <Ranges>
          <Range Index="0" Min="-2.9999880790710449e+00" Max="2.9996967315673828e+00"/>
          <Range Index="1" Min="-3.1415696144104004e+00" Max="3.1415870189666748e+00"/>
          <Range Index="2" Min="0.0000000000000000e+00" Max="1.0000000000000000e+00"/>
          <Range Index="3" Min="0.0000000000000000e+00" Max="1.0000000000000000e+00"/>
          <Range Index="4" Min="0.0000000000000000e+00" Max="1.0000000000000000e+00"/>
          <Range Index="5" Min="0.0000000000000000e+00" Max="1.0000000000000000e+00"/>
          <Range Index="6" Min="0.0000000000000000e+00" Max="8.6378788948059082e-01"/>
          <Range Index="7" Min="0.0000000000000000e+00" Max="9.0415382385253906e-01"/>
          <Range Index="8" Min="0.0000000000000000e+00" Max="7.5395482778549194e-01"/>
        </Ranges>
      </Class>
      <Class ClassIndex="2">
        <Ranges>
          <Range Index="0" Min="-2.9999880790710449e+00" Max="2.9996967315673828e+00"/>
          <Range Index="1" Min="-3.1415708065032959e+00" Max="3.1415870189666748e+00"/>
          <Range Index="2" Min="0.0000000000000000e+00" Max="1.0000000000000000e+00"/>
          <Range Index="3" Min="0.0000000000000000e+00" Max="1.0000000000000000e+00"/>
          <Range Index="4" Min="0.0000000000000000e+00" Max="1.0000000000000000e+00"/>
          <Range Index="5" Min="0.0000000000000000e+00" Max="1.0000000000000000e+00"/>
          <Range Index="6" Min="0.0000000000000000e+00" Max="9.5023137331008911e-01"/>
          <Range Index="7" Min="0.0000000000000000e+00" Max="9.3450313806533813e-01"/>
          <Range Index="8" Min="0.0000000000000000e+00" Max="8.2899171113967896e-01"/>
        </Ranges>
      </Class>
    </Transform>
  </Transformations>
  <MVAPdfs/>
  <Weights>
    <Layout NLayers="3">
      <Layer Index="0" NNeurons="10">
        <Neuron NSynapses="14">
          3.9813185897366807e-02 6.9111184715881544e+00 1.0956795199746091e-02 1.2407353476517219e-02 -7.1898423671669933e+00 6.9500852148436038e-03 3.6150566701683505e-02 4.7600484770778046e-03 5.8209516166308393e-02 6.3834043967115166e-03 -9.2313156890245617e-03 1.7324667918746040e-02 -8.0107356679535377e-03 8.9455851830475223e-03 
        </Neuron>
        <Neuron NSynapses="14">
          -5.3925042877194393e-02 -3.8257056740586701e-02 4.0137425683657219e-02 5.3810439776278821e-02 -3.8244188818451541e-02 -6.2146670050988303e-03 -6.6297766043866446e-02 1.2929114272968367e-02 -1.2955304614436353e-01 -1.7184962600208253e-02 -2.0384593962546216e-02 2.6968839149730712e-02 1.8088182006157739e-02 1.3909747749324831e-02 
        </Neuron>
        <Neuron NSynapses="14">
          2.8044434534291957e-01 -7.9486141006324518e-01 5.7795452348982979e+00 -5.5187234949204543e-02 -7.3860162763492265e-01 1.5333960859924678e+00 5.1713758644982166e-01 -9.0188463132937402e-01 -1.4083751481257387e+00 8.0031305961098340e+00 -2.8293835802920047e+00 -9.9646552800951826e-01 1.2947471869217672e+01 6.5893586770603108e+00 
        </Neuron>
        <Neuron NSynapses="14">
          1.1925801902775450e-02 -4.0770917564683534e-01 5.6157708878072921e+00 -2.9508096919841447e+00 -4.1478813874906439e-01 9.2304787211909534e-01 -4.7628698716309253e-01 -1.8810302471266231e+00 9.2214240290244220e-01 2.5030521921638016e+00 -3.0125863289114800e+00 -1.9122283974783070e+00 -1.9736535048946141e+01 6.9774686377988253e+00 
        </Neuron>
        <Neuron NSynapses="14">
          3.4383317101198108e-01 -4.4301945937172764e+00 8.2671859281675779e+00 1.9878783319432114e+00 -4.6641972696829841e+00 1.9859639448925568e+00 -5.7265090311319333e-01 1.5913054013418177e+00 8.3248785966539535e-02 1.2683926248741204e+00 -3.3451758238373706e+00 -2.5278866062874812e+00 -5.0796596015693629e-01 6.9649765867499092e+00 
        </Neuron>
        <Neuron NSynapses="14">
          4.5094131698786227e-01 -1.5354528963031497e+00 -2.3307814891360369e+01 3.2629049430030141e+00 -1.4682601532571242e+00 6.0616791278835747e-01 5.1362157196560976e-01 -1.4471243230622224e+00 5.4895700765738615e+00 1.0416820391410857e+00 2.6917435817518016e+00 1.7866752495492597e+00 -4.6659133512344564e+00 6.6686162964476985e+00 
        </Neuron>
        <Neuron NSynapses="14">
          2.1832152441395861e-01 -1.2993286144380252e+00 5.6990225378840096e+00 -1.8596090910347965e-01 -1.6653769592365961e-01 2.4990145960096406e+00 1.1460653332241610e+00 -1.9822936165870466e+00 -3.5486879316803113e+00 7.3770319092522996e-01 5.1546262369350835e+00 2.0078323231556250e+00 -7.0095586672103414e+00 -2.8173178948338695e+01 
        </Neuron>
        <Neuron NSynapses="14">
          -3.5749010146562055e-01 -7.3150046109662281e-01 1.7412648243783213e+00 -4.7865140338879897e-01 -1.1460254936426923e+00 -4.2117119538851044e+00 -4.1607927815427481e-01 1.3683075902712172e+00 -7.0363535595586912e-01 1.0202448822112071e+00 -6.5279119836484822e-01 1.8543285630296820e+00 -7.9446515943537817e+00 6.3592133430435691e+00 
        </Neuron>
        <Neuron NSynapses="14">
          -5.6273405120680209e-01 -2.1277705841950874e+00 4.9343668429645300e+00 -7.5007425034334441e-01 -1.8573710436322166e+00 -5.9674619789580552e+00 -3.5987707209562769e-01 9.4215419715788659e-02 -9.8502992082713059e-01 2.9930173247679974e+00 -2.8446477691916598e+00 1.3520386736098498e+00 -5.9252325975410542e+00 5.5176086770023476e+00 
        </Neuron>
        <Neuron NSynapses="14">
          -1.2829636852395093e-01 -6.4137440463597315e+00 -3.0135836842772381e+00 1.1394786071185592e+00 -5.4015954145215375e+00 -2.9991656284421593e+00 7.1979902336472101e-01 -1.3315388239588793e-01 -5.8862772517141670e-01 1.4207042490081855e+01 1.2682692412446115e+00 -1.0563209868229417e+00 6.5896771217706638e+00 -3.4675595609941077e+00 
        </Neuron>
      </Layer>
      <Layer Index="1" NNeurons="15">
        <Neuron NSynapses="1">
          -5.3791683235239696e-01 
        </Neuron>
        <Neuron NSynapses="1">
          -6.7604567476866451e-01 
        </Neuron>
        <Neuron NSynapses="1">
          -9.0811660511389414e-01 
        </Neuron>
        <Neuron NSynapses="1">
          -3.4152555692649178e-01 
        </Neuron>
        <Neuron NSynapses="1">
          -6.9830440720395270e-01 
        </Neuron>
        <Neuron NSynapses="1">
          8.6143097229108712e-01 
        </Neuron>
        <Neuron NSynapses="1">
          -5.6808157765323630e-01 
        </Neuron>
        <Neuron NSynapses="1">
          7.1976566039374157e-01 
        </Neuron>
        <Neuron NSynapses="1">
          3.7117705462313627e-01 
        </Neuron>
        <Neuron NSynapses="1">
          -1.0647399970769336e+00 
        </Neuron>
        <Neuron NSynapses="1">
          -2.0033650915527312e+00 
        </Neuron>
        <Neuron NSynapses="1">
          1.2007341971878267e+00 
        </Neuron>
        <Neuron NSynapses="1">
          4.4137256223892418e+00 
        </Neuron>
        <Neuron NSynapses="1">
          -3.1775196228341414e+00 
        </Neuron>
        <Neuron NSynapses="1">
          -5.9630290140957305e+00 
        </Neuron>
      </Layer>
      <Layer Index="2" NNeurons="1">
        <Neuron NSynapses="0"/>
      </Layer>
    </Layout>
  </Weights>
</MethodSetup>
