<?xml version="1.0"?>
<MethodSetup Method="BDT::BDT">
  <GeneralInfo>
    <Info name="TMVA Release" value="4.2.1 [262657]"/>
    <Info name="ROOT Release" value="6.12/07 [396295]"/>
    <Info name="Creator" value="jkrupa"/>
    <Info name="Date" value="Fri May  3 13:25:41 2019"/>
    <Info name="Host" value="Linux cmsbuild87.cern.ch 2.6.32-696.30.1.el6.x86_64 #1 SMP Tue May 22 06:09:36 CEST 2018 x86_64 x86_64 x86_64 GNU/Linux"/>
    <Info name="Dir" value="/uscms_data/d3/jkrupa/pf_studies/CMSSW_10_5_0_pre2/src/CaloTrigNN/CaloNtupler/test"/>
    <Info name="Training events" value="135184"/>
    <Info name="TrainingTime" value="6.58226612e+01"/>
    <Info name="AnalysisType" value="Classification"/>
  </GeneralInfo>
  <Options>
    <Option name="V" modified="Yes">False</Option>
    <Option name="VerbosityLevel" modified="No">Default</Option>
    <Option name="VarTransform" modified="No">None</Option>
    <Option name="H" modified="Yes">False</Option>
    <Option name="CreateMVAPdfs" modified="No">False</Option>
    <Option name="IgnoreNegWeightsInTraining" modified="No">False</Option>
    <Option name="NTrees" modified="Yes">300</Option>
    <Option name="MaxDepth" modified="Yes">3</Option>
    <Option name="MinNodeSize" modified="Yes">2.5%</Option>
    <Option name="nCuts" modified="Yes">100</Option>
    <Option name="BoostType" modified="Yes">Grad</Option>
    <Option name="AdaBoostR2Loss" modified="No">quadratic</Option>
    <Option name="UseBaggedBoost" modified="Yes">True</Option>
    <Option name="Shrinkage" modified="No">1.000000e+00</Option>
    <Option name="AdaBoostBeta" modified="No">5.000000e-01</Option>
    <Option name="UseRandomisedTrees" modified="No">False</Option>
    <Option name="UseNvars" modified="No">3</Option>
    <Option name="UsePoissonNvars" modified="No">True</Option>
    <Option name="BaggedSampleFraction" modified="No">6.000000e-01</Option>
    <Option name="UseYesNoLeaf" modified="No">True</Option>
    <Option name="NegWeightTreatment" modified="No">pray</Option>
    <Option name="Css" modified="No">1.000000e+00</Option>
    <Option name="Cts_sb" modified="No">1.000000e+00</Option>
    <Option name="Ctb_ss" modified="No">1.000000e+00</Option>
    <Option name="Cbb" modified="No">1.000000e+00</Option>
    <Option name="NodePurityLimit" modified="No">5.000000e-01</Option>
    <Option name="SeparationType" modified="Yes">giniindex</Option>
    <Option name="RegressionLossFunctionBDTG" modified="No">huber</Option>
    <Option name="HuberQuantile" modified="No">7.000000e-01</Option>
    <Option name="DoBoostMonitor" modified="No">False</Option>
    <Option name="UseFisherCuts" modified="No">False</Option>
    <Option name="MinLinCorrForFisher" modified="No">8.000000e-01</Option>
    <Option name="UseExclusiveVars" modified="No">False</Option>
    <Option name="DoPreselection" modified="No">False</Option>
    <Option name="SigToBkgFraction" modified="No">1.000000e+00</Option>
    <Option name="PruneMethod" modified="Yes">nopruning</Option>
    <Option name="PruneStrength" modified="No">0.000000e+00</Option>
    <Option name="PruningValFraction" modified="No">5.000000e-01</Option>
    <Option name="SkipNormalization" modified="No">False</Option>
    <Option name="nEventsMin" modified="No">0</Option>
    <Option name="UseBaggedGrad" modified="No">False</Option>
    <Option name="GradBaggingFraction" modified="No">6.000000e-01</Option>
    <Option name="UseNTrainEvents" modified="No">0</Option>
    <Option name="NNodesMax" modified="No">0</Option>
  </Options>
  <Variables NVar="9">
    <Variable VarIndex="0" Expression="eta" Label="eta" Title="eta" Unit="" Internal="eta" Type="F" Min="-2.99992132e+00" Max="2.99945736e+00"/>
    <Variable VarIndex="1" Expression="phi" Label="phi" Title="phi" Unit="" Internal="phi" Type="F" Min="-3.14156866e+00" Max="3.14146304e+00"/>
    <Variable VarIndex="2" Expression="depthFrac0" Label="depthFrac0" Title="depthFrac0" Unit="" Internal="depthFrac0" Type="F" Min="0.00000000e+00" Max="1.00000000e+00"/>
    <Variable VarIndex="3" Expression="depthFrac1" Label="depthFrac1" Title="depthFrac1" Unit="" Internal="depthFrac1" Type="F" Min="0.00000000e+00" Max="1.00000000e+00"/>
    <Variable VarIndex="4" Expression="depthFrac2" Label="depthFrac2" Title="depthFrac2" Unit="" Internal="depthFrac2" Type="F" Min="0.00000000e+00" Max="9.69767749e-01"/>
    <Variable VarIndex="5" Expression="depthFrac3" Label="depthFrac3" Title="depthFrac3" Unit="" Internal="depthFrac3" Type="F" Min="0.00000000e+00" Max="8.76690805e-01"/>
    <Variable VarIndex="6" Expression="depthFrac4" Label="depthFrac4" Title="depthFrac4" Unit="" Internal="depthFrac4" Type="F" Min="0.00000000e+00" Max="9.51184809e-01"/>
    <Variable VarIndex="7" Expression="depthFrac5" Label="depthFrac5" Title="depthFrac5" Unit="" Internal="depthFrac5" Type="F" Min="0.00000000e+00" Max="8.58262241e-01"/>
    <Variable VarIndex="8" Expression="depthFrac6" Label="depthFrac6" Title="depthFrac6" Unit="" Internal="depthFrac6" Type="F" Min="0.00000000e+00" Max="9.45384383e-01"/>
  </Variables>
  <Spectators NSpec="0"/>
  <Classes NClass="2">
    <Class Name="Signal" Index="0"/>
    <Class Name="Background" Index="1"/>
  </Classes>
  <Transformations NTransformations="0"/>
  <MVAPdfs/>
  <Weights NTrees="300" AnalysisType="1">
    <BinaryTree type="DecisionTree" boostWeight="1.0000000000000000e+00" itree="0">
      <Node pos="s" depth="0" NCoef="0" IVar="8" Cut="4.1039194911718369e-02" cType="1" res="-4.2240940965712070e-03" rms="4.9998214840888977e-01" purity="4.9577590823173523e-01" nType="0">
        <Node pos="l" depth="1" NCoef="0" IVar="3" Cut="9.8019802570343018e-01" cType="1" res="1.4993453025817871e-01" rms="4.7699019312858582e-01" purity="6.4993453025817871e-01" nType="0">
          <Node pos="l" depth="2" NCoef="0" IVar="2" Cut="3.9603959769010544e-02" cType="1" res="1.8810357153415680e-01" rms="4.6326780319213867e-01" purity="6.8810355663299561e-01" nType="0">
            <Node pos="l" depth="3" NCoef="0" IVar="-1" Cut="0.0000000000000000e+00" cType="1" res="8.0230545997619629e-01" rms="2.9845681786537170e-01" purity="9.0115272998809814e-01" nType="-99"/>
            <Node pos="r" depth="3" NCoef="0" IVar="-1" Cut="0.0000000000000000e+00" cType="1" res="2.3823447525501251e-01" rms="4.8560383915901184e-01" purity="6.1911725997924805e-01" nType="-99"/>
          </Node>
          <Node pos="r" depth="2" NCoef="0" IVar="-1" Cut="0.0000000000000000e+00" cType="1" res="-9.9760383367538452e-01" rms="3.4592594951391220e-02" purity="1.1980830458924174e-03" nType="-99"/>
        </Node>
        <Node pos="r" depth="1" NCoef="0" IVar="2" Cut="4.2263191193342209e-02" cType="1" res="-1.9965678453445435e-01" rms="4.5840722322463989e-01" purity="3.0034321546554565e-01" nType="0">
          <Node pos="l" depth="2" NCoef="0" IVar="-1" Cut="0.0000000000000000e+00" cType="1" res="7.5712345540523529e-02" rms="4.9856483936309814e-01" purity="5.3785616159439087e-01" nType="-99"/>
          <Node pos="r" depth="2" NCoef="0" IVar="8" Cut="7.2245404124259949e-02" cType="1" res="-2.2712720930576324e-01" rms="4.4543600082397461e-01" purity="2.7287280559539795e-01" nType="0">
            <Node pos="l" depth="3" NCoef="0" IVar="-1" Cut="0.0000000000000000e+00" cType="1" res="-2.5272384285926819e-01" rms="4.8376923799514771e-01" purity="3.7363806366920471e-01" nType="-99"/>
            <Node pos="r" depth="3" NCoef="0" IVar="-1" Cut="0.0000000000000000e+00" cType="1" res="-5.7942402362823486e-01" rms="4.0751311182975769e-01" purity="2.1028798818588257e-01" nType="-99"/>
          </Node>
        </Node>
      </Node>
    </BinaryTree>
    <BinaryTree type="DecisionTree" boostWeight="1.0000000000000000e+00" itree="1">
      <Node pos="s" depth="0" NCoef="0" IVar="7" Cut="6.7981168627738953e-02" cType="1" res="7.8425087849609554e-05" rms="4.4207826256752014e-01" purity="4.9759936332702637e-01" nType="0">
        <Node pos="l" depth="1" NCoef="0" IVar="3" Cut="9.7029703855514526e-01" cType="1" res="5.8955773711204529e-02" rms="4.2667409777641296e-01" purity="6.3533169031143188e-01" nType="0">
          <Node pos="l" depth="2" NCoef="0" IVar="6" Cut="1.0907427966594696e-01" cType="1" res="6.9409795105457306e-02" rms="4.3670979142189026e-01" purity="6.7256891727447510e-01" nType="0">
            <Node pos="l" depth="3" NCoef="0" IVar="-1" Cut="0.0000000000000000e+00" cType="1" res="2.2083747386932373e-01" rms="4.2146199941635132e-01" purity="7.1922957897186279e-01" nType="-99"/>
            <Node pos="r" depth="3" NCoef="0" IVar="-1" Cut="0.0000000000000000e+00" cType="1" res="-1.7063543200492859e-02" rms="4.7864195704460144e-01" purity="5.0859475135803223e-01" nType="-99"/>
          </Node>
          <Node pos="r" depth="2" NCoef="0" IVar="-1" Cut="0.0000000000000000e+00" cType="1" res="-5.6419509649276733e-01" rms="3.2895207405090332e-02" purity="1.6200890531763434e-03" nType="-99"/>
        </Node>
        <Node pos="r" depth="1" NCoef="0" IVar="3" Cut="7.6592169702053070e-02" cType="1" res="-7.0808626711368561e-02" rms="4.4982966780662537e-01" purity="3.3177265524864197e-01" nType="0">
          <Node pos="l" depth="2" NCoef="0" IVar="-1" Cut="0.0000000000000000e+00" cType="1" res="1.3877834379673004e-01" rms="4.5304694771766663e-01" purity="5.3390741348266602e-01" nType="-99"/>
          <Node pos="r" depth="2" NCoef="0" IVar="8" Cut="4.2181175202131271e-02" cType="1" res="-8.5211709141731262e-02" rms="4.4716793298721313e-01" purity="3.0917131900787354e-01" nType="0">
            <Node pos="l" depth="3" NCoef="0" IVar="-1" Cut="0.0000000000000000e+00" cType="1" res="-3.3390155434608459e-01" rms="4.9519324302673340e-01" purity="4.7179487347602844e-01" nType="-99"/>
            <Node pos="r" depth="3" NCoef="0" IVar="-1" Cut="0.0000000000000000e+00" cType="1" res="-1.4422795176506042e-01" rms="4.2390987277030945e-01" purity="2.4541342258453369e-01" nType="-99"/>
          </Node>
        </Node>
      </Node>
    </BinaryTree>
    <BinaryTree type="DecisionTree" boostWeight="1.0000000000000000e+00" itree="2">
      <Node pos="s" depth="0" NCoef="0" IVar="0" Cut="-2.7623362541198730e+00" cType="1" res="9.2210643924772739e-04" rms="4.3362274765968323e-01" purity="4.9832966923713684e-01" nType="0">
        <Node pos="l" depth="1" NCoef="0" IVar="2" Cut="8.9108914136886597e-02" cType="1" res="-6.0840032994747162e-02" rms="4.2317607998847961e-01" purity="3.7407568097114563e-01" nType="0">
          <Node pos="l" depth="2" NCoef="0" IVar="8" Cut="1.0254479199647903e-01" cType="1" res="1.9238666864112020e-03" rms="3.8671627640724182e-01" purity="4.3553128838539124e-01" nType="0">
            <Node pos="l" depth="3" NCoef="0" IVar="-1" Cut="0.0000000000000000e+00" cType="1" res="9.0916819870471954e-02" rms="3.8311871886253357e-01" purity="5.0469923019409180e-01" nType="-99"/>
            <Node pos="r" depth="3" NCoef="0" IVar="-1" Cut="0.0000000000000000e+00" cType="1" res="-2.5979724526405334e-01" rms="3.8396957516670227e-01" purity="1.8737956881523132e-01" nType="-99"/>
          </Node>
          <Node pos="r" depth="2" NCoef="0" IVar="8" Cut="3.9770245552062988e-02" cType="1" res="-1.0435804724693298e-01" rms="4.4150507450103760e-01" purity="3.3146476745605469e-01" nType="0">
            <Node pos="l" depth="3" NCoef="0" IVar="-1" Cut="0.0000000000000000e+00" cType="1" res="-3.3278194069862366e-01" rms="4.8683160543441772e-01" purity="4.8463508486747742e-01" nType="-99"/>
            <Node pos="r" depth="3" NCoef="0" IVar="-1" Cut="0.0000000000000000e+00" cType="1" res="-1.8329240381717682e-01" rms="3.9635717868804932e-01" purity="2.0365919172763824e-01" nType="-99"/>
          </Node>
        </Node>
        <Node pos="r" depth="1" NCoef="0" IVar="0" Cut="2.7138845920562744e+00" cType="1" res="2.5750357657670975e-02" rms="4.3528953194618225e-01" purity="5.4827952384948730e-01" nType="0">
          <Node pos="l" depth="2" NCoef="0" IVar="0" Cut="-2.6538965702056885e+00" cType="1" res="9.3908615410327911e-02" rms="4.2440962791442871e-01" purity="6.8209779262542725e-01" nType="0">
            <Node pos="l" depth="3" NCoef="0" IVar="-1" Cut="0.0000000000000000e+00" cType="1" res="9.7642004489898682e-02" rms="4.5075118541717529e-01" purity="5.7666242122650146e-01" nType="-99"/>
            <Node pos="r" depth="3" NCoef="0" IVar="-1" Cut="0.0000000000000000e+00" cType="1" res="3.3554726839065552e-01" rms="4.0573963522911072e-01" purity="7.4085831642150879e-01" nType="-99"/>
          </Node>
          <Node pos="r" depth="2" NCoef="0" IVar="2" Cut="1.0891088843345642e-01" cType="1" res="-4.0176283568143845e-02" rms="4.3552774190902710e-01" purity="4.1884264349937439e-01" nType="0">
            <Node pos="l" depth="3" NCoef="0" IVar="-1" Cut="0.0000000000000000e+00" cType="1" res="2.2662950679659843e-02" rms="4.0838432312011719e-01" purity="4.6243727207183838e-01" nType="-99"/>
            <Node pos="r" depth="3" NCoef="0" IVar="-1" Cut="0.0000000000000000e+00" cType="1" res="-2.1235178411006927e-01" rms="4.5564746856689453e-01" purity="3.7616899609565735e-01" nType="-99"/>
          </Node>
        </Node>
      </Node>
    </BinaryTree>
    <BinaryTree type="DecisionTree" boostWeight="1.0000000000000000e+00" itree="3">
      <Node pos="s" depth="0" NCoef="0" IVar="7" Cut="1.3412620127201080e-01" cType="1" res="4.7566588036715984e-03" rms="4.2481726408004761e-01" purity="5.0194150209426880e-01" nType="0">
        <Node pos="l" depth="1" NCoef="0" IVar="8" Cut="9.3602417036890984e-03" cType="1" res="1.4728189446032047e-02" rms="4.2504873871803284e-01" purity="5.5283647775650024e-01" nType="0">
          <Node pos="l" depth="2" NCoef="0" IVar="5" Cut="8.6801070719957352e-03" cType="1" res="-4.2255339212715626e-03" rms="3.8276180624961853e-01" purity="6.8570125102996826e-01" nType="0">
            <Node pos="l" depth="3" NCoef="0" IVar="-1" Cut="0.0000000000000000e+00" cType="1" res="1.1810496449470520e-01" rms="3.1645295023918152e-01" purity="7.2882336378097534e-01" nType="-99"/>
            <Node pos="r" depth="3" NCoef="0" IVar="-1" Cut="0.0000000000000000e+00" cType="1" res="-1.3967688381671906e-01" rms="4.6266648173332214e-01" purity="6.1888551712036133e-01" nType="-99"/>
          </Node>
          <Node pos="r" depth="2" NCoef="0" IVar="8" Cut="1.2983882427215576e-01" cType="1" res="2.9548382386565208e-02" rms="4.5483621954917908e-01" purity="4.4894763827323914e-01" nType="0">
            <Node pos="l" depth="3" NCoef="0" IVar="-1" Cut="0.0000000000000000e+00" cType="1" res="9.7034454345703125e-02" rms="4.6196770668029785e-01" purity="4.8192623257637024e-01" nType="-99"/>
            <Node pos="r" depth="3" NCoef="0" IVar="-1" Cut="0.0000000000000000e+00" cType="1" res="-1.3889631628990173e-01" rms="3.8576045632362366e-01" purity="1.8789808452129364e-01" nType="-99"/>
          </Node>
        </Node>
        <Node pos="r" depth="1" NCoef="0" IVar="4" Cut="4.9289423972368240e-02" cType="1" res="-3.5627014935016632e-02" rms="4.2147293686866760e-01" purity="2.9582214355468750e-01" nType="0">
          <Node pos="l" depth="2" NCoef="0" IVar="-1" Cut="0.0000000000000000e+00" cType="1" res="2.3243127763271332e-01" rms="4.2716452479362488e-01" purity="4.8351114988327026e-01" nType="-99"/>
          <Node pos="r" depth="2" NCoef="0" IVar="2" Cut="4.5497149229049683e-02" cType="1" res="-5.3826525807380676e-02" rms="4.1755640506744385e-01" purity="2.6808112859725952e-01" nType="0">
            <Node pos="l" depth="3" NCoef="0" IVar="-1" Cut="0.0000000000000000e+00" cType="1" res="-2.7819985151290894e-01" rms="4.6416324377059937e-01" purity="4.4032186269760132e-01" nType="-99"/>
            <Node pos="r" depth="3" NCoef="0" IVar="-1" Cut="0.0000000000000000e+00" cType="1" res="-1.1424517631530762e-01" rms="4.0684279799461365e-01" purity="2.3518866300582886e-01" nType="-99"/>
          </Node>
        </Node>
      </Node>
    </BinaryTree>
    <BinaryTree type="DecisionTree" boostWeight="1.0000000000000000e+00" itree="4">
      <Node pos="s" depth="0" NCoef="0" IVar="0" Cut="2.8210208415985107e+00" cType="1" res="-1.7957737436518073e-03" rms="4.2078101634979248e-01" purity="4.9767845869064331e-01" nType="0">
        <Node pos="l" depth="1" NCoef="0" IVar="0" Cut="-2.8270223140716553e+00" cType="1" res="6.3723698258399963e-03" rms="4.2601135373115540e-01" purity="5.2805316448211670e-01" nType="0">
          <Node pos="l" depth="2" NCoef="0" IVar="3" Cut="4.9504950642585754e-01" cType="1" res="-3.9565790444612503e-02" rms="3.7552946805953979e-01" purity="3.1446132063865662e-01" nType="0">
            <Node pos="l" depth="3" NCoef="0" IVar="-1" Cut="0.0000000000000000e+00" cType="1" res="-1.7074252665042877e-01" rms="3.9039987325668335e-01" purity="3.0917176604270935e-01" nType="-99"/>
            <Node pos="r" depth="3" NCoef="0" IVar="-1" Cut="0.0000000000000000e+00" cType="1" res="7.7767871320247650e-02" rms="3.1154844164848328e-01" purity="3.3264464139938354e-01" nType="-99"/>
          </Node>
          <Node pos="r" depth="2" NCoef="0" IVar="7" Cut="8.4976460784673691e-03" cType="1" res="1.4991141855716705e-02" rms="4.3428912758827209e-01" purity="5.6812661886215210e-01" nType="0">
            <Node pos="l" depth="3" NCoef="0" IVar="-1" Cut="0.0000000000000000e+00" cType="1" res="-5.2784923464059830e-02" rms="3.7693130970001221e-01" purity="7.8431975841522217e-01" nType="-99"/>
            <Node pos="r" depth="3" NCoef="0" IVar="-1" Cut="0.0000000000000000e+00" cType="1" res="6.7407190799713135e-02" rms="4.5448100566864014e-01" purity="4.8251304030418396e-01" nType="-99"/>
          </Node>
        </Node>
        <Node pos="r" depth="1" NCoef="0" IVar="3" Cut="5.8415842056274414e-01" cType="1" res="-4.5961704105138779e-02" rms="3.8832622766494751e-01" purity="3.3343937993049622e-01" nType="0">
          <Node pos="l" depth="2" NCoef="0" IVar="2" Cut="6.9306932389736176e-02" cType="1" res="-5.8162417262792587e-02" rms="4.0627524256706238e-01" purity="3.3406010270118713e-01" nType="0">
            <Node pos="l" depth="3" NCoef="0" IVar="-1" Cut="0.0000000000000000e+00" cType="1" res="-2.3503607138991356e-02" rms="3.9837175607681274e-01" purity="5.4118806123733521e-01" nType="-99"/>
            <Node pos="r" depth="3" NCoef="0" IVar="-1" Cut="0.0000000000000000e+00" cType="1" res="-2.1265284717082977e-01" rms="4.0767073631286621e-01" purity="2.4993334710597992e-01" nType="-99"/>
          </Node>
          <Node pos="r" depth="2" NCoef="0" IVar="-1" Cut="0.0000000000000000e+00" cType="1" res="7.3954775929450989e-02" rms="2.6758584380149841e-01" purity="3.3020266890525818e-01" nType="-99"/>
        </Node>
      </Node>
    </BinaryTree>
    <BinaryTree type="DecisionTree" boostWeight="1.0000000000000000e+00" itree="5">
      <Node pos="s" depth="0" NCoef="0" IVar="5" Cut="9.5481179654598236e-02" cType="1" res="4.1215695091523230e-04" rms="4.1935002803802490e-01" purity="5.0156182050704956e-01" nType="0">
        <Node pos="l" depth="1" NCoef="0" IVar="3" Cut="9.5049506425857544e-01" cType="1" res="1.3795154169201851e-02" rms="3.9445808529853821e-01" purity="5.6418210268020630e-01" nType="0">
          <Node pos="l" depth="2" NCoef="0" IVar="3" Cut="6.8525534868240356e-01" cType="1" res="1.8851598724722862e-02" rms="4.0599298477172852e-01" purity="5.9944725036621094e-01" nType="0">
            <Node pos="l" depth="3" NCoef="0" IVar="-1" Cut="0.0000000000000000e+00" cType="1" res="4.1408870369195938e-02" rms="4.0738287568092346e-01" purity="5.8625489473342896e-01" nType="-99"/>
            <Node pos="r" depth="3" NCoef="0" IVar="-1" Cut="0.0000000000000000e+00" cType="1" res="2.9806554317474365e-01" rms="3.6696207523345947e-01" purity="8.3735519647598267e-01" nType="-99"/>
          </Node>
          <Node pos="r" depth="2" NCoef="0" IVar="-1" Cut="0.0000000000000000e+00" cType="1" res="-5.2614104747772217e-01" rms="3.8823150098323822e-02" purity="2.0210186485201120e-03" nType="-99"/>
        </Node>
        <Node pos="r" depth="1" NCoef="0" IVar="2" Cut="6.3703842461109161e-02" cType="1" res="-1.3823368586599827e-02" rms="4.4385698437690735e-01" purity="4.3495252728462219e-01" nType="0">
          <Node pos="l" depth="2" NCoef="0" IVar="2" Cut="4.2257267981767654e-02" cType="1" res="1.4024235308170319e-02" rms="4.3930226564407349e-01" purity="5.6885880231857300e-01" nType="0">
            <Node pos="l" depth="3" NCoef="0" IVar="-1" Cut="0.0000000000000000e+00" cType="1" res="-4.5413415879011154e-02" rms="4.2796716094017029e-01" purity="6.5680813789367676e-01" nType="-99"/>
            <Node pos="r" depth="3" NCoef="0" IVar="-1" Cut="0.0000000000000000e+00" cType="1" res="1.1376217007637024e-01" rms="4.4841992855072021e-01" purity="4.7964152693748474e-01" nType="-99"/>
          </Node>
          <Node pos="r" depth="2" NCoef="0" IVar="5" Cut="1.7857396602630615e-01" cType="1" res="-2.3731296882033348e-02" rms="4.4504618644714355e-01" purity="3.8730987906455994e-01" nType="0">
            <Node pos="l" depth="3" NCoef="0" IVar="-1" Cut="0.0000000000000000e+00" cType="1" res="-3.5691827535629272e-02" rms="4.3961179256439209e-01" purity="3.8576453924179077e-01" nType="-99"/>
            <Node pos="r" depth="3" NCoef="0" IVar="-1" Cut="0.0000000000000000e+00" cType="1" res="-1.1249101161956787e-01" rms="4.5538762211799622e-01" purity="3.9051750302314758e-01" nType="-99"/>
          </Node>
        </Node>
      </Node>
    </BinaryTree>
    <BinaryTree type="DecisionTree" boostWeight="1.0000000000000000e+00" itree="6">
      <Node pos="s" depth="0" NCoef="0" IVar="5" Cut="3.2984405755996704e-01" cType="1" res="-1.4560845447704196e-03" rms="4.1905874013900757e-01" purity="5.0041902065277100e-01" nType="0">
        <Node pos="l" depth="1" NCoef="0" IVar="6" Cut="3.1078314781188965e-01" cType="1" res="-3.1322813592851162e-03" rms="4.1842859983444214e-01" purity="4.9515622854232788e-01" nType="0">
          <Node pos="l" depth="2" NCoef="0" IVar="6" Cut="1.3846577703952789e-01" cType="1" res="-4.6571050770580769e-03" rms="4.1696971654891968e-01" purity="4.9230828881263733e-01" nType="0">
            <Node pos="l" depth="3" NCoef="0" IVar="-1" Cut="0.0000000000000000e+00" cType="1" res="6.2130606966093183e-04" rms="4.1132050752639771e-01" purity="5.3755515813827515e-01" nType="-99"/>
            <Node pos="r" depth="3" NCoef="0" IVar="-1" Cut="0.0000000000000000e+00" cType="1" res="-5.3180970251560211e-02" rms="4.3404302000999451e-01" purity="3.4878778457641602e-01" nType="-99"/>
          </Node>
          <Node pos="r" depth="2" NCoef="0" IVar="-1" Cut="0.0000000000000000e+00" cType="1" res="1.2062505632638931e-01" rms="4.6172448992729187e-01" purity="5.9047204256057739e-01" nType="-99"/>
        </Node>
        <Node pos="r" depth="1" NCoef="0" IVar="-1" Cut="0.0000000000000000e+00" cType="1" res="1.5047170221805573e-01" rms="4.3640127778053284e-01" purity="6.8309861421585083e-01" nType="-99"/>
      </Node>
    </BinaryTree>
    <BinaryTree type="DecisionTree" boostWeight="1.0000000000000000e+00" itree="7">
      <Node pos="s" depth="0" NCoef="0" IVar="7" Cut="6.7981168627738953e-02" cType="1" res="9.2879997100681067e-04" rms="4.1745889186859131e-01" purity="5.0175517797470093e-01" nType="0">
        <Node pos="l" depth="1" NCoef="0" IVar="7" Cut="5.9903908520936966e-02" cType="1" res="-6.3599310815334320e-03" rms="4.0635257959365845e-01" purity="6.3909184932708740e-01" nType="0">
          <Node pos="l" depth="2" NCoef="0" IVar="6" Cut="1.1301205307245255e-01" cType="1" res="-2.2616875357925892e-03" rms="4.0157538652420044e-01" purity="6.5167564153671265e-01" nType="0">
            <Node pos="l" depth="3" NCoef="0" IVar="-1" Cut="0.0000000000000000e+00" cType="1" res="-2.4600438773632050e-02" rms="3.8791981339454651e-01" purity="6.7516165971755981e-01" nType="-99"/>
            <Node pos="r" depth="3" NCoef="0" IVar="-1" Cut="0.0000000000000000e+00" cType="1" res="5.2701562643051147e-02" rms="4.5962819457054138e-01" purity="5.4126548767089844e-01" nType="-99"/>
          </Node>
          <Node pos="r" depth="2" NCoef="0" IVar="-1" Cut="0.0000000000000000e+00" cType="1" res="-1.4909252524375916e-01" rms="4.6095672249794006e-01" purity="4.7461369633674622e-01" nType="-99"/>
        </Node>
        <Node pos="r" depth="1" NCoef="0" IVar="7" Cut="8.3633013069629669e-02" cType="1" res="9.7525632008910179e-03" rms="4.3035590648651123e-01" purity="3.3549490571022034e-01" nType="0">
          <Node pos="l" depth="2" NCoef="0" IVar="3" Cut="2.6142522692680359e-01" cType="1" res="6.2759786844253540e-02" rms="4.5892646908760071e-01" purity="4.3134558200836182e-01" nType="0">
            <Node pos="l" depth="3" NCoef="0" IVar="-1" Cut="0.0000000000000000e+00" cType="1" res="9.9606961011886597e-02" rms="4.4385078549385071e-01" purity="4.1205090284347534e-01" nType="-99"/>
            <Node pos="r" depth="3" NCoef="0" IVar="-1" Cut="0.0000000000000000e+00" cType="1" res="2.1120977401733398e-01" rms="4.7022747993469238e-01" purity="4.4772800803184509e-01" nType="-99"/>
          </Node>
          <Node pos="r" depth="2" NCoef="0" IVar="7" Cut="2.6770356297492981e-01" cType="1" res="-1.8554410780780017e-04" rms="4.2404848337173462e-01" purity="3.1752425432205200e-01" nType="0">
            <Node pos="l" depth="3" NCoef="0" IVar="-1" Cut="0.0000000000000000e+00" cType="1" res="-1.0771418921649456e-02" rms="4.2282801866531372e-01" purity="3.0839246511459351e-01" nType="-99"/>
            <Node pos="r" depth="3" NCoef="0" IVar="-1" Cut="0.0000000000000000e+00" cType="1" res="1.3027615845203400e-01" rms="4.3731158971786499e-01" purity="4.4070962071418762e-01" nType="-99"/>
          </Node>
        </Node>
      </Node>
    </BinaryTree>
    <BinaryTree type="DecisionTree" boostWeight="1.0000000000000000e+00" itree="8">
      <Node pos="s" depth="0" NCoef="0" IVar="4" Cut="2.3043985664844513e-01" cType="1" res="-1.2328425655141473e-03" rms="4.1726648807525635e-01" purity="5.0081115961074829e-01" nType="0">
        <Node pos="l" depth="1" NCoef="0" IVar="0" Cut="2.8806798458099365e+00" cType="1" res="2.9928546864539385e-03" rms="4.0765467286109924e-01" purity="4.8529627919197083e-01" nType="0">
          <Node pos="l" depth="2" NCoef="0" IVar="0" Cut="2.7060034275054932e+00" cType="1" res="5.1404559053480625e-03" rms="4.1332602500915527e-01" purity="4.9747487902641296e-01" nType="0">
            <Node pos="l" depth="3" NCoef="0" IVar="-1" Cut="0.0000000000000000e+00" cType="1" res="-8.1425383687019348e-03" rms="4.0306451916694641e-01" purity="5.2999454736709595e-01" nType="-99"/>
            <Node pos="r" depth="3" NCoef="0" IVar="-1" Cut="0.0000000000000000e+00" cType="1" res="5.6260962039232254e-02" rms="4.3202373385429382e-01" purity="4.3480658531188965e-01" nType="-99"/>
          </Node>
          <Node pos="r" depth="2" NCoef="0" IVar="-1" Cut="0.0000000000000000e+00" cType="1" res="-1.9972738623619080e-01" rms="2.7338922023773193e-01" purity="2.5082400441169739e-01" nType="-99"/>
        </Node>
        <Node pos="r" depth="1" NCoef="0" IVar="2" Cut="1.3811543583869934e-01" cType="1" res="-1.4686543494462967e-02" rms="4.4622591137886047e-01" purity="5.5020725727081299e-01" nType="0">
          <Node pos="l" depth="2" NCoef="0" IVar="8" Cut="2.5589078664779663e-02" cType="1" res="3.6123360041528940e-03" rms="4.4020223617553711e-01" purity="5.6933665275573730e-01" nType="0">
            <Node pos="l" depth="3" NCoef="0" IVar="-1" Cut="0.0000000000000000e+00" cType="1" res="6.7969821393489838e-02" rms="4.2442968487739563e-01" purity="7.2446709871292114e-01" nType="-99"/>
            <Node pos="r" depth="3" NCoef="0" IVar="-1" Cut="0.0000000000000000e+00" cType="1" res="-3.6950755864381790e-02" rms="4.5241251587867737e-01" purity="4.3705913424491882e-01" nType="-99"/>
          </Node>
          <Node pos="r" depth="2" NCoef="0" IVar="6" Cut="5.3185727447271347e-02" cType="1" res="-5.8983970433473587e-02" rms="4.5746102929115295e-01" purity="5.0389933586120605e-01" nType="0">
            <Node pos="l" depth="3" NCoef="0" IVar="-1" Cut="0.0000000000000000e+00" cType="1" res="-8.2517452538013458e-02" rms="4.5890271663665771e-01" purity="5.9365081787109375e-01" nType="-99"/>
            <Node pos="r" depth="3" NCoef="0" IVar="-1" Cut="0.0000000000000000e+00" cType="1" res="-2.2138690948486328e-01" rms="4.5353952050209045e-01" purity="3.9044943451881409e-01" nType="-99"/>
          </Node>
        </Node>
      </Node>
    </BinaryTree>
    <BinaryTree type="DecisionTree" boostWeight="1.0000000000000000e+00" itree="9">
      <Node pos="s" depth="0" NCoef="0" IVar="8" Cut="4.1039194911718369e-02" cType="1" res="-2.5054195430129766e-04" rms="4.1764926910400391e-01" purity="4.9892982840538025e-01" nType="0">
        <Node pos="l" depth="1" NCoef="0" IVar="8" Cut="3.1692475080490112e-02" cType="1" res="-1.0472784750163555e-02" rms="4.0970551967620850e-01" purity="6.4625149965286255e-01" nType="0">
          <Node pos="l" depth="2" NCoef="0" IVar="8" Cut="1.2548619415611029e-03" cType="1" res="-1.4329331461340189e-03" rms="4.0103021264076233e-01" purity="6.6346460580825806e-01" nType="0">
            <Node pos="l" depth="3" NCoef="0" IVar="-1" Cut="0.0000000000000000e+00" cType="1" res="-3.6116547882556915e-02" rms="3.7612211704254150e-01" purity="6.6695058345794678e-01" nType="-99"/>
            <Node pos="r" depth="3" NCoef="0" IVar="-1" Cut="0.0000000000000000e+00" cType="1" res="4.1305534541606903e-02" rms="4.4587263464927673e-01" purity="6.5654188394546509e-01" nType="-99"/>
          </Node>
          <Node pos="r" depth="2" NCoef="0" IVar="4" Cut="1.6504217684268951e-01" cType="1" res="-8.4781132638454437e-02" rms="4.6848711371421814e-01" purity="5.0475805997848511e-01" nType="0">
            <Node pos="l" depth="3" NCoef="0" IVar="-1" Cut="0.0000000000000000e+00" cType="1" res="-2.6735654473304749e-01" rms="4.7009536623954773e-01" purity="4.6749085187911987e-01" nType="-99"/>
            <Node pos="r" depth="3" NCoef="0" IVar="-1" Cut="0.0000000000000000e+00" cType="1" res="-1.5845799446105957e-01" rms="4.6626943349838257e-01" purity="5.3430128097534180e-01" nType="-99"/>
          </Node>
        </Node>
        <Node pos="r" depth="1" NCoef="0" IVar="6" Cut="8.1540673971176147e-02" cType="1" res="1.2939803302288055e-02" rms="4.2732039093971252e-01" purity="3.0883228778839111e-01" nType="0">
          <Node pos="l" depth="2" NCoef="0" IVar="5" Cut="1.4905706048011780e-01" cType="1" res="4.2325951159000397e-02" rms="4.4575208425521851e-01" purity="3.5698947310447693e-01" nType="0">
            <Node pos="l" depth="3" NCoef="0" IVar="-1" Cut="0.0000000000000000e+00" cType="1" res="1.4095214009284973e-01" rms="4.4697496294975281e-01" purity="3.6660039424896240e-01" nType="-99"/>
            <Node pos="r" depth="3" NCoef="0" IVar="-1" Cut="0.0000000000000000e+00" cType="1" res="2.4854414165019989e-02" rms="4.3998453021049500e-01" purity="3.2453000545501709e-01" nType="-99"/>
          </Node>
          <Node pos="r" depth="2" NCoef="0" IVar="8" Cut="5.5504050105810165e-02" cType="1" res="1.6758041456341743e-03" rms="4.1949558258056641e-01" purity="2.9037314653396606e-01" nType="0">
            <Node pos="l" depth="3" NCoef="0" IVar="-1" Cut="0.0000000000000000e+00" cType="1" res="9.4913542270660400e-02" rms="4.6483603119850159e-01" purity="4.3215212225914001e-01" nType="-99"/>
            <Node pos="r" depth="3" NCoef="0" IVar="-1" Cut="0.0000000000000000e+00" cType="1" res="-2.0582305267453194e-02" rms="4.0827828645706177e-01" purity="2.5895422697067261e-01" nType="-99"/>
          </Node>
        </Node>
      </Node>
    </BinaryTree>
    <BinaryTree type="DecisionTree" boostWeight="1.0000000000000000e+00" itree="10">
      <Node pos="s" depth="0" NCoef="0" IVar="1" Cut="3.4203377366065979e-01" cType="1" res="-1.7490392783656716e-03" rms="4.1629293560981750e-01" purity="4.9881014227867126e-01" nType="0">
        <Node pos="l" depth="1" NCoef="0" IVar="8" Cut="1.8720483407378197e-02" cType="1" res="-1.1648201383650303e-02" rms="4.1509479284286499e-01" purity="4.8766338825225830e-01" nType="0">
          <Node pos="l" depth="2" NCoef="0" IVar="8" Cut="1.8532794201746583e-03" cType="1" res="3.5975251812487841e-03" rms="3.8988897204399109e-01" purity="6.7476528882980347e-01" nType="0">
            <Node pos="l" depth="3" NCoef="0" IVar="-1" Cut="0.0000000000000000e+00" cType="1" res="-6.9306823424994946e-03" rms="3.7764331698417664e-01" purity="6.6794222593307495e-01" nType="-99"/>
            <Node pos="r" depth="3" NCoef="0" IVar="-1" Cut="0.0000000000000000e+00" cType="1" res="7.1244798600673676e-02" rms="4.3579623103141785e-01" purity="7.0276123285293579e-01" nType="-99"/>
          </Node>
          <Node pos="r" depth="2" NCoef="0" IVar="3" Cut="1.0910946130752563e-01" cType="1" res="-2.2361582145094872e-02" rms="4.3160614371299744e-01" purity="3.5618430376052856e-01" nType="0">
            <Node pos="l" depth="3" NCoef="0" IVar="-1" Cut="0.0000000000000000e+00" cType="1" res="7.2634252719581127e-03" rms="4.2069667577743530e-01" purity="4.3870803713798523e-01" nType="-99"/>
            <Node pos="r" depth="3" NCoef="0" IVar="-1" Cut="0.0000000000000000e+00" cType="1" res="-7.1373410522937775e-02" rms="4.3330749869346619e-01" purity="3.4201100468635559e-01" nType="-99"/>
          </Node>
        </Node>
        <Node pos="r" depth="1" NCoef="0" IVar="8" Cut="1.2664458155632019e-01" cType="1" res="1.1014580726623535e-02" rms="4.1748639941215515e-01" purity="5.1318240165710449e-01" nType="0">
          <Node pos="l" depth="2" NCoef="0" IVar="1" Cut="2.0050089359283447e+00" cType="1" res="1.4489471912384033e-02" rms="4.2200788855552673e-01" purity="5.4944914579391479e-01" nType="0">
            <Node pos="l" depth="3" NCoef="0" IVar="-1" Cut="0.0000000000000000e+00" cType="1" res="6.3875705003738403e-02" rms="4.2101046442985535e-01" purity="5.5773794651031494e-01" nType="-99"/>
            <Node pos="r" depth="3" NCoef="0" IVar="-1" Cut="0.0000000000000000e+00" cType="1" res="1.0491491295397282e-02" rms="4.2316403985023499e-01" purity="5.3784561157226562e-01" nType="-99"/>
          </Node>
          <Node pos="r" depth="2" NCoef="0" IVar="-1" Cut="0.0000000000000000e+00" cType="1" res="-6.5676726400852203e-02" rms="3.7455785274505615e-01" purity="1.9803063571453094e-01" nType="-99"/>
        </Node>
      </Node>
    </BinaryTree>
    <BinaryTree type="DecisionTree" boostWeight="1.0000000000000000e+00" itree="11">
      <Node pos="s" depth="0" NCoef="0" IVar="0" Cut="2.5834314823150635e+00" cType="1" res="9.0973149053752422e-04" rms="4.1491979360580444e-01" purity="4.9982738494873047e-01" nType="0">
        <Node pos="l" depth="1" NCoef="0" IVar="0" Cut="-2.5576791763305664e+00" cType="1" res="7.9945297911763191e-03" rms="4.1015294194221497e-01" purity="5.2236837148666382e-01" nType="0">
          <Node pos="l" depth="2" NCoef="0" IVar="2" Cut="1.1881188303232193e-01" cType="1" res="1.8427189206704497e-03" rms="4.1588306427001953e-01" purity="4.7462671995162964e-01" nType="0">
            <Node pos="l" depth="3" NCoef="0" IVar="-1" Cut="0.0000000000000000e+00" cType="1" res="4.0093027055263519e-02" rms="3.9482590556144714e-01" purity="5.0537282228469849e-01" nType="-99"/>
            <Node pos="r" depth="3" NCoef="0" IVar="-1" Cut="0.0000000000000000e+00" cType="1" res="-2.9989352449774742e-02" rms="4.4123956561088562e-01" purity="4.3490856885910034e-01" nType="-99"/>
          </Node>
          <Node pos="r" depth="2" NCoef="0" IVar="2" Cut="5.9405941516160965e-02" cType="1" res="4.6670477837324142e-02" rms="3.6977553367614746e-01" purity="8.2251656055450439e-01" nType="0">
            <Node pos="l" depth="3" NCoef="0" IVar="-1" Cut="0.0000000000000000e+00" cType="1" res="-5.2066940814256668e-02" rms="3.2174989581108093e-01" purity="8.7189376354217529e-01" nType="-99"/>
            <Node pos="r" depth="3" NCoef="0" IVar="-1" Cut="0.0000000000000000e+00" cType="1" res="2.3067434132099152e-01" rms="3.9301118254661560e-01" purity="7.9141932725906372e-01" nType="-99"/>
          </Node>
        </Node>
        <Node pos="r" depth="1" NCoef="0" IVar="0" Cut="2.7151918411254883e+00" cType="1" res="-7.4977003969252110e-03" rms="4.2035150527954102e-01" purity="4.7307828068733215e-01" nType="0">
          <Node pos="l" depth="2" NCoef="0" IVar="0" Cut="2.6604137420654297e+00" cType="1" res="-3.9857190102338791e-02" rms="4.1538110375404358e-01" purity="6.7308187484741211e-01" nType="0">
            <Node pos="l" depth="3" NCoef="0" IVar="-1" Cut="0.0000000000000000e+00" cType="1" res="-4.2687360197305679e-02" rms="4.0498197078704834e-01" purity="7.1969133615493774e-01" nType="-99"/>
            <Node pos="r" depth="3" NCoef="0" IVar="-1" Cut="0.0000000000000000e+00" cType="1" res="-2.0345830917358398e-01" rms="4.2444363236427307e-01" purity="6.2281876802444458e-01" nType="-99"/>
          </Node>
          <Node pos="r" depth="2" NCoef="0" IVar="0" Cut="2.7742922306060791e+00" cType="1" res="1.0390214156359434e-03" rms="4.2123878002166748e-01" purity="4.2031553387641907e-01" nType="0">
            <Node pos="l" depth="3" NCoef="0" IVar="-1" Cut="0.0000000000000000e+00" cType="1" res="1.1914165318012238e-01" rms="4.5138078927993774e-01" purity="5.5973076820373535e-01" nType="-99"/>
            <Node pos="r" depth="3" NCoef="0" IVar="-1" Cut="0.0000000000000000e+00" cType="1" res="-4.0440756827592850e-02" rms="4.1000860929489136e-01" purity="3.7555706501007080e-01" nType="-99"/>
          </Node>
        </Node>
      </Node>
    </BinaryTree>
    <BinaryTree type="DecisionTree" boostWeight="1.0000000000000000e+00" itree="12">
      <Node pos="s" depth="0" NCoef="0" IVar="7" Cut="1.8694821000099182e-01" cType="1" res="6.4540642779320478e-04" rms="4.1510140895843506e-01" purity="5.0030398368835449e-01" nType="0">
        <Node pos="l" depth="1" NCoef="0" IVar="6" Cut="1.7270094156265259e-01" cType="1" res="2.7245171368122101e-03" rms="4.1572967171669006e-01" purity="5.1859635114669800e-01" nType="0">
          <Node pos="l" depth="2" NCoef="0" IVar="5" Cut="2.8859055042266846e-01" cType="1" res="6.2867510132491589e-03" rms="4.1131776571273804e-01" purity="5.3821820020675659e-01" nType="0">
            <Node pos="l" depth="3" NCoef="0" IVar="-1" Cut="0.0000000000000000e+00" cType="1" res="2.4271992966532707e-02" rms="4.0943625569343567e-01" purity="5.3846281766891479e-01" nType="-99"/>
            <Node pos="r" depth="3" NCoef="0" IVar="-1" Cut="0.0000000000000000e+00" cType="1" res="-1.1753668636083603e-01" rms="4.6033728122711182e-01" purity="5.3103446960449219e-01" nType="-99"/>
          </Node>
          <Node pos="r" depth="2" NCoef="0" IVar="5" Cut="2.3522920906543732e-01" cType="1" res="-1.6128288581967354e-02" rms="4.3785813450813293e-01" purity="4.1474932432174683e-01" nType="0">
            <Node pos="l" depth="3" NCoef="0" IVar="-1" Cut="0.0000000000000000e+00" cType="1" res="-9.0172410011291504e-02" rms="4.3713054060935974e-01" purity="3.4936350584030151e-01" nType="-99"/>
            <Node pos="r" depth="3" NCoef="0" IVar="-1" Cut="0.0000000000000000e+00" cType="1" res="1.3423570990562439e-01" rms="4.3453359603881836e-01" purity="6.5934067964553833e-01" nType="-99"/>
          </Node>
        </Node>
        <Node pos="r" depth="1" NCoef="0" IVar="3" Cut="1.3885086774826050e-01" cType="1" res="-2.0209437236189842e-02" rms="4.0816077589988708e-01" purity="3.1681948900222778e-01" nType="0">
          <Node pos="l" depth="2" NCoef="0" IVar="-1" Cut="0.0000000000000000e+00" cType="1" res="2.9720604419708252e-02" rms="4.1233471035957336e-01" purity="4.1523972153663635e-01" nType="-99"/>
          <Node pos="r" depth="2" NCoef="0" IVar="-1" Cut="0.0000000000000000e+00" cType="1" res="-1.4251050353050232e-01" rms="4.0222337841987610e-01" purity="2.2613726556301117e-01" nType="-99"/>
        </Node>
      </Node>
    </BinaryTree>
    <BinaryTree type="DecisionTree" boostWeight="1.0000000000000000e+00" itree="13">
      <Node pos="s" depth="0" NCoef="0" IVar="8" Cut="3.4189928323030472e-02" cType="1" res="1.6802602913230658e-03" rms="4.1610684990882874e-01" purity="5.0174480676651001e-01" nType="0">
        <Node pos="l" depth="1" NCoef="0" IVar="8" Cut="1.0492914356291294e-02" cType="1" res="-5.8027533814311028e-03" rms="4.0219622850418091e-01" purity="6.6196817159652710e-01" nType="0">
          <Node pos="l" depth="2" NCoef="0" IVar="8" Cut="1.9738364499062300e-03" cType="1" res="2.2649965249001980e-03" rms="3.7895449995994568e-01" purity="6.7846447229385376e-01" nType="0">
            <Node pos="l" depth="3" NCoef="0" IVar="-1" Cut="0.0000000000000000e+00" cType="1" res="-1.6736945137381554e-02" rms="3.7477138638496399e-01" purity="6.7068928480148315e-01" nType="-99"/>
            <Node pos="r" depth="3" NCoef="0" IVar="-1" Cut="0.0000000000000000e+00" cType="1" res="1.9725783169269562e-01" rms="4.1193866729736328e-01" purity="7.5599855184555054e-01" nType="-99"/>
          </Node>
          <Node pos="r" depth="2" NCoef="0" IVar="7" Cut="6.7981168627738953e-02" cType="1" res="-2.5224290788173676e-02" rms="4.5269554853439331e-01" purity="6.2225639820098877e-01" nType="0">
            <Node pos="l" depth="3" NCoef="0" IVar="-1" Cut="0.0000000000000000e+00" cType="1" res="-1.3204129040241241e-01" rms="4.4372180104255676e-01" purity="6.8761038780212402e-01" nType="-99"/>
            <Node pos="r" depth="3" NCoef="0" IVar="-1" Cut="0.0000000000000000e+00" cType="1" res="-1.0660337284207344e-04" rms="4.6220093965530396e-01" purity="5.4224461317062378e-01" nType="-99"/>
          </Node>
        </Node>
        <Node pos="r" depth="1" NCoef="0" IVar="3" Cut="3.5363882780075073e-01" cType="1" res="9.8060769960284233e-03" rms="4.3055659532546997e-01" purity="3.2775798439979553e-01" nType="0">
          <Node pos="l" depth="2" NCoef="0" IVar="4" Cut="1.2170022726058960e-01" cType="1" res="1.5522378496825695e-02" rms="4.2388734221458435e-01" purity="3.1062179803848267e-01" nType="0">
            <Node pos="l" depth="3" NCoef="0" IVar="-1" Cut="0.0000000000000000e+00" cType="1" res="1.0290245711803436e-01" rms="4.1656565666198730e-01" purity="3.1556764245033264e-01" nType="-99"/>
            <Node pos="r" depth="3" NCoef="0" IVar="-1" Cut="0.0000000000000000e+00" cType="1" res="1.8091944977641106e-02" rms="4.2755609750747681e-01" purity="3.0792099237442017e-01" nType="-99"/>
          </Node>
          <Node pos="r" depth="2" NCoef="0" IVar="8" Cut="5.4911114275455475e-02" cType="1" res="-1.8564268946647644e-02" rms="4.6118757128715515e-01" purity="4.1280591487884521e-01" nType="0">
            <Node pos="l" depth="3" NCoef="0" IVar="-1" Cut="0.0000000000000000e+00" cType="1" res="1.4125532470643520e-02" rms="4.7106897830963135e-01" purity="5.2276802062988281e-01" nType="-99"/>
            <Node pos="r" depth="3" NCoef="0" IVar="-1" Cut="0.0000000000000000e+00" cType="1" res="-9.2222161591053009e-02" rms="4.5272019505500793e-01" purity="3.3009707927703857e-01" nType="-99"/>
          </Node>
        </Node>
      </Node>
    </BinaryTree>
    <BinaryTree type="DecisionTree" boostWeight="1.0000000000000000e+00" itree="14">
      <Node pos="s" depth="0" NCoef="0" IVar="8" Cut="1.8057245016098022e-01" cType="1" res="-5.9085537213832140e-04" rms="4.1368678212165833e-01" purity="5.0089293718338013e-01" nType="0">
        <Node pos="l" depth="1" NCoef="0" IVar="0" Cut="-2.7616991996765137e+00" cType="1" res="1.0109605500474572e-03" rms="4.1598033905029297e-01" purity="5.1292955875396729e-01" nType="0">
          <Node pos="l" depth="2" NCoef="0" IVar="0" Cut="-2.7781815528869629e+00" cType="1" res="1.1044323444366455e-02" rms="4.1536876559257507e-01" purity="3.9506724476814270e-01" nType="0">
            <Node pos="l" depth="3" NCoef="0" IVar="-1" Cut="0.0000000000000000e+00" cType="1" res="1.6116879880428314e-02" rms="4.0982294082641602e-01" purity="3.7686094641685486e-01" nType="-99"/>
            <Node pos="r" depth="3" NCoef="0" IVar="-1" Cut="0.0000000000000000e+00" cType="1" res="1.3577350974082947e-01" rms="4.5155557990074158e-01" purity="5.2777779102325439e-01" nType="-99"/>
          </Node>
          <Node pos="r" depth="2" NCoef="0" IVar="5" Cut="2.5108557939529419e-01" cType="1" res="-3.0208674725145102e-03" rms="4.1615769267082214e-01" purity="5.6029158830642700e-01" nType="0">
            <Node pos="l" depth="3" NCoef="0" IVar="-1" Cut="0.0000000000000000e+00" cType="1" res="5.4775387980043888e-04" rms="4.1431429982185364e-01" purity="5.5924373865127563e-01" nType="-99"/>
            <Node pos="r" depth="3" NCoef="0" IVar="-1" Cut="0.0000000000000000e+00" cType="1" res="-1.1635383218526840e-01" rms="4.3631023168563843e-01" purity="5.7320576906204224e-01" nType="-99"/>
          </Node>
        </Node>
        <Node pos="r" depth="1" NCoef="0" IVar="-1" Cut="0.0000000000000000e+00" cType="1" res="-1.3753846287727356e-01" rms="3.4892496466636658e-01" purity="1.9910083711147308e-01" nType="-99"/>
      </Node>
    </BinaryTree>
    <BinaryTree type="DecisionTree" boostWeight="1.0000000000000000e+00" itree="15">
      <Node pos="s" depth="0" NCoef="0" IVar="0" Cut="-2.7029397487640381e+00" cType="1" res="-9.5368426991626620e-04" rms="4.1388848423957825e-01" purity="4.9997520446777344e-01" nType="0">
        <Node pos="l" depth="1" NCoef="0" IVar="0" Cut="-2.7676379680633545e+00" cType="1" res="-1.1480679735541344e-02" rms="4.1673365235328674e-01" purity="4.1488185524940491e-01" nType="0">
          <Node pos="l" depth="2" NCoef="0" IVar="0" Cut="-2.7929420471191406e+00" cType="1" res="-4.7571850009262562e-03" rms="4.0504765510559082e-01" purity="3.6958381533622742e-01" nType="0">
            <Node pos="l" depth="3" NCoef="0" IVar="-1" Cut="0.0000000000000000e+00" cType="1" res="-3.5611845552921295e-02" rms="3.9306241273880005e-01" purity="3.3951953053474426e-01" nType="-99"/>
            <Node pos="r" depth="3" NCoef="0" IVar="-1" Cut="0.0000000000000000e+00" cType="1" res="5.0312597304582596e-02" rms="4.4652226567268372e-01" purity="4.8293626308441162e-01" nType="-99"/>
          </Node>
          <Node pos="r" depth="2" NCoef="0" IVar="1" Cut="4.0413478016853333e-01" cType="1" res="-3.1116640195250511e-02" rms="4.4854861497879028e-01" purity="5.4717475175857544e-01" nType="0">
            <Node pos="l" depth="3" NCoef="0" IVar="-1" Cut="0.0000000000000000e+00" cType="1" res="-4.4141210615634918e-02" rms="4.5129767060279846e-01" purity="5.4673320055007935e-01" nType="-99"/>
            <Node pos="r" depth="3" NCoef="0" IVar="-1" Cut="0.0000000000000000e+00" cType="1" res="-1.3151331245899200e-01" rms="4.4402763247489929e-01" purity="5.4778265953063965e-01" nType="-99"/>
          </Node>
        </Node>
        <Node pos="r" depth="1" NCoef="0" IVar="2" Cut="1.0891088843345642e-01" cType="1" res="5.2250828593969345e-03" rms="4.1208413243293762e-01" purity="5.4992032051086426e-01" nType="0">
          <Node pos="l" depth="2" NCoef="0" IVar="3" Cut="2.1782177686691284e-01" cType="1" res="-2.6600479613989592e-03" rms="3.9185082912445068e-01" purity="5.8397150039672852e-01" nType="0">
            <Node pos="l" depth="3" NCoef="0" IVar="-1" Cut="0.0000000000000000e+00" cType="1" res="3.4206096082925797e-02" rms="3.7113758921623230e-01" purity="6.6255676746368408e-01" nType="-99"/>
            <Node pos="r" depth="3" NCoef="0" IVar="-1" Cut="0.0000000000000000e+00" cType="1" res="-5.7353731244802475e-02" rms="4.1865178942680359e-01" purity="4.7355943918228149e-01" nType="-99"/>
          </Node>
          <Node pos="r" depth="2" NCoef="0" IVar="3" Cut="1.4110906422138214e-01" cType="1" res="1.3730949722230434e-02" rms="4.3269008398056030e-01" purity="5.1318854093551636e-01" nType="0">
            <Node pos="l" depth="3" NCoef="0" IVar="-1" Cut="0.0000000000000000e+00" cType="1" res="-8.7899051606655121e-02" rms="4.1375437378883362e-01" purity="3.2905772328376770e-01" nType="-99"/>
            <Node pos="r" depth="3" NCoef="0" IVar="-1" Cut="0.0000000000000000e+00" cType="1" res="4.6842571347951889e-02" rms="4.3416067957878113e-01" purity="5.2983146905899048e-01" nType="-99"/>
          </Node>
        </Node>
      </Node>
    </BinaryTree>
    <BinaryTree type="DecisionTree" boostWeight="1.0000000000000000e+00" itree="16">
      <Node pos="s" depth="0" NCoef="0" IVar="7" Cut="2.6342701911926270e-01" cType="1" res="6.0749478871002793e-04" rms="4.1346657276153564e-01" purity="5.0030064582824707e-01" nType="0">
        <Node pos="l" depth="1" NCoef="0" IVar="4" Cut="1.3442325592041016e-01" cType="1" res="2.0699752494692802e-03" rms="4.1318207979202271e-01" purity="5.0349789857864380e-01" nType="0">
          <Node pos="l" depth="2" NCoef="0" IVar="5" Cut="6.0760747641324997e-02" cType="1" res="-4.8678722232580185e-03" rms="3.7701740860939026e-01" purity="5.1492899656295776e-01" nType="0">
            <Node pos="l" depth="3" NCoef="0" IVar="-1" Cut="0.0000000000000000e+00" cType="1" res="2.9573466628789902e-02" rms="3.2200640439987183e-01" purity="6.6312968730926514e-01" nType="-99"/>
            <Node pos="r" depth="3" NCoef="0" IVar="-1" Cut="0.0000000000000000e+00" cType="1" res="-4.8000589013099670e-02" rms="4.2808669805526733e-01" purity="3.5539332032203674e-01" nType="-99"/>
          </Node>
          <Node pos="r" depth="2" NCoef="0" IVar="5" Cut="9.4817347824573517e-02" cType="1" res="7.6405662111938000e-03" rms="4.3999463319778442e-01" purity="4.9431961774826050e-01" nType="0">
            <Node pos="l" depth="3" NCoef="0" IVar="-1" Cut="0.0000000000000000e+00" cType="1" res="-2.0888012368232012e-03" rms="4.3661934137344360e-01" purity="5.1681548357009888e-01" nType="-99"/>
            <Node pos="r" depth="3" NCoef="0" IVar="-1" Cut="0.0000000000000000e+00" cType="1" res="3.6368906497955322e-02" rms="4.4237753748893738e-01" purity="4.7763678431510925e-01" nType="-99"/>
          </Node>
        </Node>
        <Node pos="r" depth="1" NCoef="0" IVar="-1" Cut="0.0000000000000000e+00" cType="1" res="-1.3569189608097076e-01" rms="4.2005765438079834e-01" purity="3.8997820019721985e-01" nType="-99"/>
      </Node>
    </BinaryTree>
    <BinaryTree type="DecisionTree" boostWeight="1.0000000000000000e+00" itree="17">
      <Node pos="s" depth="0" NCoef="0" IVar="3" Cut="7.9207919538021088e-02" cType="1" res="-1.3139618095010519e-03" rms="4.1450747847557068e-01" purity="5.0034499168395996e-01" nType="0">
        <Node pos="l" depth="1" NCoef="0" IVar="2" Cut="5.9405941516160965e-02" cType="1" res="-1.4835427515208721e-02" rms="3.3546632528305054e-01" purity="7.7843165397644043e-01" nType="0">
          <Node pos="l" depth="2" NCoef="0" IVar="8" Cut="1.8720483407378197e-02" cType="1" res="-1.7954722279682755e-03" rms="3.1319114565849304e-01" purity="8.6081820726394653e-01" nType="0">
            <Node pos="l" depth="3" NCoef="0" IVar="-1" Cut="0.0000000000000000e+00" cType="1" res="-7.3637224733829498e-02" rms="2.7533236145973206e-01" purity="9.1752696037292480e-01" nType="-99"/>
            <Node pos="r" depth="3" NCoef="0" IVar="-1" Cut="0.0000000000000000e+00" cType="1" res="7.1297623217105865e-02" rms="4.1691327095031738e-01" purity="6.6558969020843506e-01" nType="-99"/>
          </Node>
          <Node pos="r" depth="2" NCoef="0" IVar="-1" Cut="0.0000000000000000e+00" cType="1" res="-2.2743719816207886e-01" rms="4.2798227071762085e-01" purity="3.4357005357742310e-01" nType="-99"/>
        </Node>
        <Node pos="r" depth="1" NCoef="0" IVar="0" Cut="2.8804404735565186e+00" cType="1" res="1.2847464531660080e-03" rms="4.2798063158988953e-01" purity="4.4689914584159851e-01" nType="0">
          <Node pos="l" depth="2" NCoef="0" IVar="6" Cut="1.1054335534572601e-01" cType="1" res="-5.7332603319082409e-05" rms="4.3334576487541199e-01" purity="4.5641624927520752e-01" nType="0">
            <Node pos="l" depth="3" NCoef="0" IVar="-1" Cut="0.0000000000000000e+00" cType="1" res="-1.5965942293405533e-02" rms="4.3233653903007507e-01" purity="5.1176321506500244e-01" nType="-99"/>
            <Node pos="r" depth="3" NCoef="0" IVar="-1" Cut="0.0000000000000000e+00" cType="1" res="2.3387974128127098e-02" rms="4.3470773100852966e-01" purity="3.7365880608558655e-01" nType="-99"/>
          </Node>
          <Node pos="r" depth="2" NCoef="0" IVar="-1" Cut="0.0000000000000000e+00" cType="1" res="1.6270138323307037e-01" rms="2.8401976823806763e-01" purity="2.3767724633216858e-01" nType="-99"/>
        </Node>
      </Node>
    </BinaryTree>
    <BinaryTree type="DecisionTree" boostWeight="1.0000000000000000e+00" itree="18">
      <Node pos="s" depth="0" NCoef="0" IVar="5" Cut="2.7161461114883423e-01" cType="1" res="2.4473015218973160e-03" rms="4.1408324241638184e-01" purity="5.0115549564361572e-01" nType="0">
        <Node pos="l" depth="1" NCoef="0" IVar="6" Cut="9.4176717102527618e-02" cType="1" res="6.6207273630425334e-04" rms="4.1227483749389648e-01" purity="4.9532589316368103e-01" nType="0">
          <Node pos="l" depth="2" NCoef="0" IVar="3" Cut="6.2376236915588379e-01" cType="1" res="8.2004275172948837e-03" rms="3.9729669690132141e-01" purity="5.9317493438720703e-01" nType="0">
            <Node pos="l" depth="3" NCoef="0" IVar="-1" Cut="0.0000000000000000e+00" cType="1" res="3.7625350058078766e-02" rms="4.0844473242759705e-01" purity="6.1824405193328857e-01" nType="-99"/>
            <Node pos="r" depth="3" NCoef="0" IVar="-1" Cut="0.0000000000000000e+00" cType="1" res="-9.2031389474868774e-02" rms="3.1718707084655762e-01" purity="4.3578210473060608e-01" nType="-99"/>
          </Node>
          <Node pos="r" depth="2" NCoef="0" IVar="8" Cut="7.2456695139408112e-02" cType="1" res="-9.3165924772620201e-03" rms="4.3109977245330811e-01" purity="3.6580118536949158e-01" nType="0">
            <Node pos="l" depth="3" NCoef="0" IVar="-1" Cut="0.0000000000000000e+00" cType="1" res="-4.3721038848161697e-02" rms="4.5908421277999878e-01" purity="4.7297787666320801e-01" nType="-99"/>
            <Node pos="r" depth="3" NCoef="0" IVar="-1" Cut="0.0000000000000000e+00" cType="1" res="1.1161346919834614e-02" rms="3.8795396685600281e-01" purity="2.1491099894046783e-01" nType="-99"/>
          </Node>
        </Node>
        <Node pos="r" depth="1" NCoef="0" IVar="3" Cut="1.2119980901479721e-01" cType="1" res="3.1887263059616089e-02" rms="4.4180259108543396e-01" purity="5.9729093313217163e-01" nType="0">
          <Node pos="l" depth="2" NCoef="0" IVar="-1" Cut="0.0000000000000000e+00" cType="1" res="1.9113147258758545e-01" rms="4.1822001338005066e-01" purity="6.8817204236984253e-01" nType="-99"/>
          <Node pos="r" depth="2" NCoef="0" IVar="-1" Cut="0.0000000000000000e+00" cType="1" res="-1.5846386551856995e-02" rms="4.6505004167556763e-01" purity="4.9065420031547546e-01" nType="-99"/>
        </Node>
      </Node>
    </BinaryTree>
    <BinaryTree type="DecisionTree" boostWeight="1.0000000000000000e+00" itree="19">
      <Node pos="s" depth="0" NCoef="0" IVar="0" Cut="-2.8211543560028076e+00" cType="1" res="-2.0618832204490900e-03" rms="4.1198760271072388e-01" purity="5.0001835823059082e-01" nType="0">
        <Node pos="l" depth="1" NCoef="0" IVar="6" Cut="4.0685620158910751e-02" cType="1" res="1.1914908885955811e-02" rms="3.6969572305679321e-01" purity="3.2541704177856445e-01" nType="0">
          <Node pos="l" depth="2" NCoef="0" IVar="0" Cut="-2.8877754211425781e+00" cType="1" res="3.8727905601263046e-02" rms="3.2597216963768005e-01" purity="4.8616790771484375e-01" nType="0">
            <Node pos="l" depth="3" NCoef="0" IVar="-1" Cut="0.0000000000000000e+00" cType="1" res="1.5470467507839203e-02" rms="2.1735060214996338e-01" purity="2.8044104576110840e-01" nType="-99"/>
            <Node pos="r" depth="3" NCoef="0" IVar="-1" Cut="0.0000000000000000e+00" cType="1" res="2.1443210542201996e-01" rms="4.0375545620918274e-01" purity="6.9338482618331909e-01" nType="-99"/>
          </Node>
          <Node pos="r" depth="2" NCoef="0" IVar="1" Cut="3.4310284256935120e-01" cType="1" res="-1.9969274289906025e-03" rms="3.8973090052604675e-01" purity="2.4201197922229767e-01" nType="0">
            <Node pos="l" depth="3" NCoef="0" IVar="-1" Cut="0.0000000000000000e+00" cType="1" res="3.6121122539043427e-02" rms="3.8793337345123291e-01" purity="2.3841206729412079e-01" nType="-99"/>
            <Node pos="r" depth="3" NCoef="0" IVar="-1" Cut="0.0000000000000000e+00" cType="1" res="-5.7736106216907501e-02" rms="3.9147731661796570e-01" purity="2.4664573371410370e-01" nType="-99"/>
          </Node>
        </Node>
        <Node pos="r" depth="1" NCoef="0" IVar="4" Cut="2.7670156955718994e-01" cType="1" res="-4.5099742710590363e-03" rms="4.1890805959701538e-01" purity="5.3060048818588257e-01" nType="0">
          <Node pos="l" depth="2" NCoef="0" IVar="5" Cut="1.9522300362586975e-01" cType="1" res="-1.2800175463780761e-03" rms="4.1454693675041199e-01" purity="5.1645386219024658e-01" nType="0">
            <Node pos="l" depth="3" NCoef="0" IVar="-1" Cut="0.0000000000000000e+00" cType="1" res="5.2282325923442841e-03" rms="4.0929734706878662e-01" purity="5.2294182777404785e-01" nType="-99"/>
            <Node pos="r" depth="3" NCoef="0" IVar="-1" Cut="0.0000000000000000e+00" cType="1" res="-4.7814734280109406e-02" rms="4.4251403212547302e-01" purity="4.7999101877212524e-01" nType="-99"/>
          </Node>
          <Node pos="r" depth="2" NCoef="0" IVar="3" Cut="1.4809192717075348e-01" cType="1" res="-2.2482255473732948e-02" rms="4.4195905327796936e-01" purity="6.0931593179702759e-01" nType="0">
            <Node pos="l" depth="3" NCoef="0" IVar="-1" Cut="0.0000000000000000e+00" cType="1" res="6.8524025380611420e-02" rms="4.2643737792968750e-01" purity="6.2706953287124634e-01" nType="-99"/>
            <Node pos="r" depth="3" NCoef="0" IVar="-1" Cut="0.0000000000000000e+00" cType="1" res="-9.4714917242527008e-02" rms="4.4552418589591980e-01" purity="6.0406464338302612e-01" nType="-99"/>
          </Node>
        </Node>
      </Node>
    </BinaryTree>
    <BinaryTree type="DecisionTree" boostWeight="1.0000000000000000e+00" itree="20">
      <Node pos="s" depth="0" NCoef="0" IVar="5" Cut="1.9121819734573364e-01" cType="1" res="-8.7710871594026685e-04" rms="4.1321614384651184e-01" purity="4.9899649620056152e-01" nType="0">
        <Node pos="l" depth="1" NCoef="0" IVar="7" Cut="2.6342701911926270e-01" cType="1" res="-3.0926649924367666e-03" rms="4.0733876824378967e-01" purity="4.9875101447105408e-01" nType="0">
          <Node pos="l" depth="2" NCoef="0" IVar="3" Cut="2.1782177686691284e-01" cType="1" res="-4.1579040698707104e-03" rms="4.0669548511505127e-01" purity="5.0138598680496216e-01" nType="0">
            <Node pos="l" depth="3" NCoef="0" IVar="-1" Cut="0.0000000000000000e+00" cType="1" res="-4.6366933733224869e-02" rms="3.5737261176109314e-01" purity="5.3491055965423584e-01" nType="-99"/>
            <Node pos="r" depth="3" NCoef="0" IVar="-1" Cut="0.0000000000000000e+00" cType="1" res="-1.1858212528750300e-03" rms="4.2864501476287842e-01" purity="4.8503762483596802e-01" nType="-99"/>
          </Node>
          <Node pos="r" depth="2" NCoef="0" IVar="-1" Cut="0.0000000000000000e+00" cType="1" res="9.0616479516029358e-02" rms="4.2622515559196472e-01" purity="4.1335296630859375e-01" nType="-99"/>
        </Node>
        <Node pos="r" depth="1" NCoef="0" IVar="3" Cut="2.6922553777694702e-01" cType="1" res="1.1032993905246258e-02" rms="4.4328844547271729e-01" purity="5.0031596422195435e-01" nType="0">
          <Node pos="l" depth="2" NCoef="0" IVar="0" Cut="2.7562737464904785e+00" cType="1" res="1.7959410324692726e-02" rms="4.3826121091842651e-01" purity="5.0181889533996582e-01" nType="0">
            <Node pos="l" depth="3" NCoef="0" IVar="-1" Cut="0.0000000000000000e+00" cType="1" res="2.2051928564906120e-02" rms="4.4326913356781006e-01" purity="5.2341747283935547e-01" nType="-99"/>
            <Node pos="r" depth="3" NCoef="0" IVar="-1" Cut="0.0000000000000000e+00" cType="1" res="1.1971634626388550e-01" rms="4.2479887604713440e-01" purity="4.4912743568420410e-01" nType="-99"/>
          </Node>
          <Node pos="r" depth="2" NCoef="0" IVar="-1" Cut="0.0000000000000000e+00" cType="1" res="-5.1334124058485031e-02" rms="4.6488720178604126e-01" purity="4.9322491884231567e-01" nType="-99"/>
        </Node>
      </Node>
    </BinaryTree>
    <BinaryTree type="DecisionTree" boostWeight="1.0000000000000000e+00" itree="21">
      <Node pos="s" depth="0" NCoef="0" IVar="7" Cut="1.1896704137325287e-01" cType="1" res="2.2898579481989145e-03" rms="4.1169059276580811e-01" purity="5.0230073928833008e-01" nType="0">
        <Node pos="l" depth="1" NCoef="0" IVar="2" Cut="1.7821782827377319e-01" cType="1" res="5.7458789087831974e-03" rms="4.1272562742233276e-01" purity="5.7053536176681519e-01" nType="0">
          <Node pos="l" depth="2" NCoef="0" IVar="2" Cut="4.0584027767181396e-02" cType="1" res="9.9811758846044540e-03" rms="4.0237540006637573e-01" purity="5.7181459665298462e-01" nType="0">
            <Node pos="l" depth="3" NCoef="0" IVar="-1" Cut="0.0000000000000000e+00" cType="1" res="-2.7189036831259727e-02" rms="2.7940922975540161e-01" purity="7.2133517265319824e-01" nType="-99"/>
            <Node pos="r" depth="3" NCoef="0" IVar="-1" Cut="0.0000000000000000e+00" cType="1" res="4.1578412055969238e-02" rms="4.4542998075485229e-01" purity="5.0648695230484009e-01" nType="-99"/>
          </Node>
          <Node pos="r" depth="2" NCoef="0" IVar="0" Cut="2.7604498863220215e+00" cType="1" res="-6.3823745585978031e-03" rms="4.4079786539077759e-01" purity="5.6687217950820923e-01" nType="0">
            <Node pos="l" depth="3" NCoef="0" IVar="-1" Cut="0.0000000000000000e+00" cType="1" res="1.0323846712708473e-02" rms="4.3194240331649780e-01" purity="6.1340695619583130e-01" nType="-99"/>
            <Node pos="r" depth="3" NCoef="0" IVar="-1" Cut="0.0000000000000000e+00" cType="1" res="-8.1407718360424042e-02" rms="4.6265551447868347e-01" purity="4.4157955050468445e-01" nType="-99"/>
          </Node>
        </Node>
        <Node pos="r" depth="1" NCoef="0" IVar="6" Cut="2.0214939117431641e-01" cType="1" res="-8.3966283127665520e-03" rms="4.0828853845596313e-01" purity="2.9131004214286804e-01" nType="0">
          <Node pos="l" depth="2" NCoef="0" IVar="0" Cut="2.5838718414306641e+00" cType="1" res="-1.7394026741385460e-02" rms="4.0109926462173462e-01" purity="2.4795658886432648e-01" nType="0">
            <Node pos="l" depth="3" NCoef="0" IVar="-1" Cut="0.0000000000000000e+00" cType="1" res="-7.9470239579677582e-03" rms="4.0438741445541382e-01" purity="2.6764670014381409e-01" nType="-99"/>
            <Node pos="r" depth="3" NCoef="0" IVar="-1" Cut="0.0000000000000000e+00" cType="1" res="-1.0154335200786591e-01" rms="3.9695259928703308e-01" purity="2.2696568071842194e-01" nType="-99"/>
          </Node>
          <Node pos="r" depth="2" NCoef="0" IVar="8" Cut="7.8294843435287476e-02" cType="1" res="2.1718764677643776e-02" rms="4.3011417984962463e-01" purity="4.3641933798789978e-01" nType="0">
            <Node pos="l" depth="3" NCoef="0" IVar="-1" Cut="0.0000000000000000e+00" cType="1" res="1.3532708585262299e-01" rms="4.4758734107017517e-01" purity="5.5057978630065918e-01" nType="-99"/>
            <Node pos="r" depth="3" NCoef="0" IVar="-1" Cut="0.0000000000000000e+00" cType="1" res="-3.9602048695087433e-02" rms="4.0539926290512085e-01" purity="2.9835590720176697e-01" nType="-99"/>
          </Node>
        </Node>
      </Node>
    </BinaryTree>
    <BinaryTree type="DecisionTree" boostWeight="1.0000000000000000e+00" itree="22">
      <Node pos="s" depth="0" NCoef="0" IVar="0" Cut="-2.7593700885772705e+00" cType="1" res="-1.9616729114204645e-03" rms="4.1381856799125671e-01" purity="4.9798038601875305e-01" nType="0">
        <Node pos="l" depth="1" NCoef="0" IVar="2" Cut="2.0792078971862793e-01" cType="1" res="-1.6106689348816872e-02" rms="4.0783768892288208e-01" purity="3.7092500925064087e-01" nType="0">
          <Node pos="l" depth="2" NCoef="0" IVar="4" Cut="1.5362657606601715e-01" cType="1" res="-1.0869045741856098e-02" rms="4.0105810761451721e-01" purity="3.6694568395614624e-01" nType="0">
            <Node pos="l" depth="3" NCoef="0" IVar="-1" Cut="0.0000000000000000e+00" cType="1" res="1.8907457124441862e-03" rms="3.6443910002708435e-01" purity="3.4585678577423096e-01" nType="-99"/>
            <Node pos="r" depth="3" NCoef="0" IVar="-1" Cut="0.0000000000000000e+00" cType="1" res="-6.1289504170417786e-02" rms="4.3565043807029724e-01" purity="3.8892754912376404e-01" nType="-99"/>
          </Node>
          <Node pos="r" depth="2" NCoef="0" IVar="-1" Cut="0.0000000000000000e+00" cType="1" res="-1.1944347620010376e-01" rms="4.4719594717025757e-01" purity="3.9627906680107117e-01" nType="-99"/>
        </Node>
        <Node pos="r" depth="1" NCoef="0" IVar="7" Cut="1.3596233725547791e-01" cType="1" res="3.9445268921554089e-03" rms="4.1614818572998047e-01" purity="5.5103188753128052e-01" nType="0">
          <Node pos="l" depth="2" NCoef="0" IVar="5" Cut="2.6312667131423950e-01" cType="1" res="5.8959296438843012e-04" rms="4.1474702954292297e-01" purity="5.9772676229476929e-01" nType="0">
            <Node pos="l" depth="3" NCoef="0" IVar="-1" Cut="0.0000000000000000e+00" cType="1" res="6.9175125099718571e-03" rms="4.1273242235183716e-01" purity="5.9759634733200073e-01" nType="-99"/>
            <Node pos="r" depth="3" NCoef="0" IVar="-1" Cut="0.0000000000000000e+00" cType="1" res="-7.0351310074329376e-02" rms="4.4276633858680725e-01" purity="5.9966099262237549e-01" nType="-99"/>
          </Node>
          <Node pos="r" depth="2" NCoef="0" IVar="3" Cut="2.5762820243835449e-01" cType="1" res="1.9283384084701538e-02" rms="4.2215555906295776e-01" purity="3.3754158020019531e-01" nType="0">
            <Node pos="l" depth="3" NCoef="0" IVar="-1" Cut="0.0000000000000000e+00" cType="1" res="3.4657683223485947e-02" rms="4.1525748372077942e-01" purity="3.4069362282752991e-01" nType="-99"/>
            <Node pos="r" depth="3" NCoef="0" IVar="-1" Cut="0.0000000000000000e+00" cType="1" res="1.4040920138359070e-01" rms="4.4512236118316650e-01" purity="3.2606720924377441e-01" nType="-99"/>
          </Node>
        </Node>
      </Node>
    </BinaryTree>
    <BinaryTree type="DecisionTree" boostWeight="1.0000000000000000e+00" itree="23">
      <Node pos="s" depth="0" NCoef="0" IVar="6" Cut="2.2723807394504547e-01" cType="1" res="2.5728830951265991e-04" rms="4.1260951757431030e-01" purity="4.9866190552711487e-01" nType="0">
        <Node pos="l" depth="1" NCoef="0" IVar="7" Cut="4.0719471871852875e-02" cType="1" res="2.6851152069866657e-03" rms="4.1088846325874329e-01" purity="5.0204139947891235e-01" nType="0">
          <Node pos="l" depth="2" NCoef="0" IVar="0" Cut="2.8651649951934814e+00" cType="1" res="9.1890469193458557e-03" rms="3.7984895706176758e-01" purity="6.7896252870559692e-01" nType="0">
            <Node pos="l" depth="3" NCoef="0" IVar="-1" Cut="0.0000000000000000e+00" cType="1" res="2.1537957713007927e-02" rms="3.8851463794708252e-01" purity="7.0118820667266846e-01" nType="-99"/>
            <Node pos="r" depth="3" NCoef="0" IVar="-1" Cut="0.0000000000000000e+00" cType="1" res="1.7893142998218536e-01" rms="2.6510557532310486e-01" purity="4.3495640158653259e-01" nType="-99"/>
          </Node>
          <Node pos="r" depth="2" NCoef="0" IVar="8" Cut="7.3870547115802765e-02" cType="1" res="-2.5127634871751070e-03" rms="4.3403217196464539e-01" purity="3.6064779758453369e-01" nType="0">
            <Node pos="l" depth="3" NCoef="0" IVar="-1" Cut="0.0000000000000000e+00" cType="1" res="-2.5505598634481430e-02" rms="4.6106088161468506e-01" purity="4.6514612436294556e-01" nType="-99"/>
            <Node pos="r" depth="3" NCoef="0" IVar="-1" Cut="0.0000000000000000e+00" cType="1" res="2.6986520737409592e-02" rms="3.9569038152694702e-01" purity="2.2406174242496490e-01" nType="-99"/>
          </Node>
        </Node>
        <Node pos="r" depth="1" NCoef="0" IVar="4" Cut="8.8939607143402100e-02" cType="1" res="-2.4604905396699905e-02" rms="4.2904743552207947e-01" purity="4.6405407786369324e-01" nType="0">
          <Node pos="l" depth="2" NCoef="0" IVar="-1" Cut="0.0000000000000000e+00" cType="1" res="-1.2181833386421204e-02" rms="4.1589275002479553e-01" purity="5.2990311384201050e-01" nType="-99"/>
          <Node pos="r" depth="2" NCoef="0" IVar="0" Cut="2.5200469493865967e+00" cType="1" res="-3.9050206542015076e-02" rms="4.3748900294303894e-01" purity="4.1772449016571045e-01" nType="0">
            <Node pos="l" depth="3" NCoef="0" IVar="-1" Cut="0.0000000000000000e+00" cType="1" res="-6.6330716013908386e-02" rms="4.3620198965072632e-01" purity="4.2069590091705322e-01" nType="-99"/>
            <Node pos="r" depth="3" NCoef="0" IVar="-1" Cut="0.0000000000000000e+00" cType="1" res="-1.4538124203681946e-01" rms="4.3830600380897522e-01" purity="4.1450268030166626e-01" nType="-99"/>
          </Node>
        </Node>
      </Node>
    </BinaryTree>
    <BinaryTree type="DecisionTree" boostWeight="1.0000000000000000e+00" itree="24">
      <Node pos="s" depth="0" NCoef="0" IVar="3" Cut="4.5544555783271790e-01" cType="1" res="3.0940300785005093e-03" rms="4.1265806555747986e-01" purity="5.0250369310379028e-01" nType="0">
        <Node pos="l" depth="1" NCoef="0" IVar="8" Cut="1.0296265780925751e-01" cType="1" res="6.0059092938899994e-03" rms="4.1576224565505981e-01" purity="4.8792934417724609e-01" nType="0">
          <Node pos="l" depth="2" NCoef="0" IVar="4" Cut="5.7248603552579880e-02" cType="1" res="9.1795725747942924e-03" rms="4.2421853542327881e-01" purity="5.5654662847518921e-01" nType="0">
            <Node pos="l" depth="3" NCoef="0" IVar="-1" Cut="0.0000000000000000e+00" cType="1" res="-2.4619113653898239e-02" rms="3.1156009435653687e-01" purity="8.1503540277481079e-01" nType="-99"/>
            <Node pos="r" depth="3" NCoef="0" IVar="-1" Cut="0.0000000000000000e+00" cType="1" res="3.3397227525711060e-02" rms="4.5014971494674683e-01" purity="4.8562565445899963e-01" nType="-99"/>
          </Node>
          <Node pos="r" depth="2" NCoef="0" IVar="2" Cut="6.2667712569236755e-02" cType="1" res="-6.9247018545866013e-03" rms="3.7909021973609924e-01" purity="2.0835857093334198e-01" nType="0">
            <Node pos="l" depth="3" NCoef="0" IVar="-1" Cut="0.0000000000000000e+00" cType="1" res="-8.0587781965732574e-02" rms="4.1726136207580566e-01" purity="3.1862598657608032e-01" nType="-99"/>
            <Node pos="r" depth="3" NCoef="0" IVar="-1" Cut="0.0000000000000000e+00" cType="1" res="1.7394176684319973e-03" rms="3.6476707458496094e-01" purity="1.7048113048076630e-01" nType="-99"/>
          </Node>
        </Node>
        <Node pos="r" depth="1" NCoef="0" IVar="5" Cut="8.0511137843132019e-02" cType="1" res="-1.0594681836664677e-02" rms="3.9745509624481201e-01" purity="5.7101774215698242e-01" nType="0">
          <Node pos="l" depth="2" NCoef="0" IVar="0" Cut="-2.5783114433288574e+00" cType="1" res="-2.4144987110048532e-03" rms="3.8409936428070068e-01" purity="5.6668877601623535e-01" nType="0">
            <Node pos="l" depth="3" NCoef="0" IVar="-1" Cut="0.0000000000000000e+00" cType="1" res="3.6956764757633209e-02" rms="3.8522914052009583e-01" purity="5.3661614656448364e-01" nType="-99"/>
            <Node pos="r" depth="3" NCoef="0" IVar="-1" Cut="0.0000000000000000e+00" cType="1" res="-4.9596793949604034e-02" rms="3.8273960351943970e-01" purity="5.9229117631912231e-01" nType="-99"/>
          </Node>
          <Node pos="r" depth="2" NCoef="0" IVar="-1" Cut="0.0000000000000000e+00" cType="1" res="-1.4008595049381256e-01" rms="4.6127203106880188e-01" purity="5.9472966194152832e-01" nType="-99"/>
        </Node>
      </Node>
    </BinaryTree>
    <BinaryTree type="DecisionTree" boostWeight="1.0000000000000000e+00" itree="25">
      <Node pos="s" depth="0" NCoef="0" IVar="4" Cut="3.6033406853675842e-01" cType="1" res="-1.2659850763157010e-03" rms="4.1191011667251587e-01" purity="4.9935263395309448e-01" nType="0">
        <Node pos="l" depth="1" NCoef="0" IVar="2" Cut="1.5841583907604218e-01" cType="1" res="7.9394616477657109e-05" rms="4.1058918833732605e-01" purity="4.8851808905601501e-01" nType="0">
          <Node pos="l" depth="2" NCoef="0" IVar="8" Cut="4.6801205724477768e-02" cType="1" res="3.7229512818157673e-03" rms="3.9983364939689636e-01" purity="4.8483234643936157e-01" nType="0">
            <Node pos="l" depth="3" NCoef="0" IVar="-1" Cut="0.0000000000000000e+00" cType="1" res="3.1575042754411697e-02" rms="3.8434857130050659e-01" purity="6.4991205930709839e-01" nType="-99"/>
            <Node pos="r" depth="3" NCoef="0" IVar="-1" Cut="0.0000000000000000e+00" cType="1" res="-8.7340278550982475e-03" rms="4.1738000512123108e-01" purity="2.8878444433212280e-01" nType="-99"/>
          </Node>
          <Node pos="r" depth="2" NCoef="0" IVar="4" Cut="1.6406615078449249e-01" cType="1" res="-9.0074716135859489e-03" rms="4.3612658977508545e-01" purity="4.9771019816398621e-01" nType="0">
            <Node pos="l" depth="3" NCoef="0" IVar="-1" Cut="0.0000000000000000e+00" cType="1" res="4.8743421211838722e-03" rms="4.2510703206062317e-01" purity="4.9794769287109375e-01" nType="-99"/>
            <Node pos="r" depth="3" NCoef="0" IVar="-1" Cut="0.0000000000000000e+00" cType="1" res="-6.3912175595760345e-02" rms="4.5182538032531738e-01" purity="4.9735021591186523e-01" nType="-99"/>
          </Node>
        </Node>
        <Node pos="r" depth="1" NCoef="0" IVar="7" Cut="7.5946575962007046e-03" cType="1" res="-2.2636877372860909e-02" rms="4.3179029226303101e-01" purity="6.7145532369613647e-01" nType="0">
          <Node pos="l" depth="2" NCoef="0" IVar="-1" Cut="0.0000000000000000e+00" cType="1" res="1.9034432247281075e-02" rms="4.1928768157958984e-01" purity="7.3432981967926025e-01" nType="-99"/>
          <Node pos="r" depth="2" NCoef="0" IVar="-1" Cut="0.0000000000000000e+00" cType="1" res="-1.2838816642761230e-01" rms="4.3975034356117249e-01" purity="6.2367165088653564e-01" nType="-99"/>
        </Node>
      </Node>
    </BinaryTree>
    <BinaryTree type="DecisionTree" boostWeight="1.0000000000000000e+00" itree="26">
      <Node pos="s" depth="0" NCoef="0" IVar="0" Cut="-2.7604105472564697e+00" cType="1" res="-2.2321720607578754e-03" rms="4.1190835833549500e-01" purity="4.9910822510719299e-01" nType="0">
        <Node pos="l" depth="1" NCoef="0" IVar="3" Cut="1.8811881542205811e-01" cType="1" res="9.5263831317424774e-03" rms="4.0800833702087402e-01" purity="3.8230141997337341e-01" nType="0">
          <Node pos="l" depth="2" NCoef="0" IVar="4" Cut="2.0163488388061523e-01" cType="1" res="2.8734542429447174e-02" rms="3.7391018867492676e-01" purity="4.4188281893730164e-01" nType="0">
            <Node pos="l" depth="3" NCoef="0" IVar="-1" Cut="0.0000000000000000e+00" cType="1" res="5.6267287582159042e-02" rms="3.5064852237701416e-01" purity="4.4671648740768433e-01" nType="-99"/>
            <Node pos="r" depth="3" NCoef="0" IVar="-1" Cut="0.0000000000000000e+00" cType="1" res="1.9946898519992828e-01" rms="4.2069277167320251e-01" purity="4.3071332573890686e-01" nType="-99"/>
          </Node>
          <Node pos="r" depth="2" NCoef="0" IVar="2" Cut="1.5772747993469238e-01" cType="1" res="8.4123417036607862e-04" rms="4.2223691940307617e-01" purity="3.5536113381385803e-01" nType="0">
            <Node pos="l" depth="3" NCoef="0" IVar="-1" Cut="0.0000000000000000e+00" cType="1" res="-3.4933820366859436e-02" rms="4.0333905816078186e-01" purity="3.2299622893333435e-01" nType="-99"/>
            <Node pos="r" depth="3" NCoef="0" IVar="-1" Cut="0.0000000000000000e+00" cType="1" res="6.4205907285213470e-02" rms="4.5788297057151794e-01" purity="4.2236617207527161e-01" nType="-99"/>
          </Node>
        </Node>
        <Node pos="r" depth="1" NCoef="0" IVar="2" Cut="8.9108914136886597e-02" cType="1" res="-7.0317792706191540e-03" rms="4.1339358687400818e-01" purity="5.4678642749786377e-01" nType="0">
          <Node pos="l" depth="2" NCoef="0" IVar="6" Cut="2.3544178903102875e-01" cType="1" res="4.9089809181168675e-04" rms="3.8151755928993225e-01" purity="6.2024843692779541e-01" nType="0">
            <Node pos="l" depth="3" NCoef="0" IVar="-1" Cut="0.0000000000000000e+00" cType="1" res="-1.2354223057627678e-02" rms="3.7250944972038269e-01" purity="6.2198925018310547e-01" nType="-99"/>
            <Node pos="r" depth="3" NCoef="0" IVar="-1" Cut="0.0000000000000000e+00" cType="1" res="7.7515028417110443e-02" rms="4.3794414401054382e-01" purity="6.0818332433700562e-01" nType="-99"/>
          </Node>
          <Node pos="r" depth="2" NCoef="0" IVar="2" Cut="1.5224324166774750e-01" cType="1" res="-1.2537335045635700e-02" rms="4.3516302108764648e-01" purity="4.9302241206169128e-01" nType="0">
            <Node pos="l" depth="3" NCoef="0" IVar="-1" Cut="0.0000000000000000e+00" cType="1" res="-6.3987284898757935e-02" rms="4.3856862187385559e-01" purity="4.3380498886108398e-01" nType="-99"/>
            <Node pos="r" depth="3" NCoef="0" IVar="-1" Cut="0.0000000000000000e+00" cType="1" res="-7.2033340111374855e-03" rms="4.3191263079643250e-01" purity="5.4501104354858398e-01" nType="-99"/>
          </Node>
        </Node>
      </Node>
    </BinaryTree>
    <BinaryTree type="DecisionTree" boostWeight="1.0000000000000000e+00" itree="27">
      <Node pos="s" depth="0" NCoef="0" IVar="2" Cut="3.9603959769010544e-02" cType="1" res="3.7608647253364325e-03" rms="4.1264751553535461e-01" purity="5.0154113769531250e-01" nType="0">
        <Node pos="l" depth="1" NCoef="0" IVar="2" Cut="3.0975215137004852e-02" cType="1" res="-9.8165236413478851e-03" rms="3.0989965796470642e-01" purity="6.8806946277618408e-01" nType="0">
          <Node pos="l" depth="2" NCoef="0" IVar="4" Cut="1.6992142796516418e-01" cType="1" res="-3.4098336473107338e-03" rms="2.8713893890380859e-01" purity="7.0063424110412598e-01" nType="0">
            <Node pos="l" depth="3" NCoef="0" IVar="-1" Cut="0.0000000000000000e+00" cType="1" res="-6.3460797071456909e-02" rms="2.6224148273468018e-01" purity="6.9324648380279541e-01" nType="-99"/>
            <Node pos="r" depth="3" NCoef="0" IVar="-1" Cut="0.0000000000000000e+00" cType="1" res="9.3698404729366302e-02" rms="4.0197840332984924e-01" purity="7.4406206607818604e-01" nType="-99"/>
          </Node>
          <Node pos="r" depth="2" NCoef="0" IVar="-1" Cut="0.0000000000000000e+00" cType="1" res="-1.6079416871070862e-01" rms="4.3321430683135986e-01" purity="6.0126584768295288e-01" nType="-99"/>
        </Node>
        <Node pos="r" depth="1" NCoef="0" IVar="2" Cut="1.5371656417846680e-01" cType="1" res="7.1441209875047207e-03" rms="4.3441912531852722e-01" purity="4.5506143569946289e-01" nType="0">
          <Node pos="l" depth="2" NCoef="0" IVar="3" Cut="4.1719877719879150e-01" cType="1" res="1.2465119361877441e-02" rms="4.3303415179252625e-01" purity="4.2873492836952209e-01" nType="0">
            <Node pos="l" depth="3" NCoef="0" IVar="-1" Cut="0.0000000000000000e+00" cType="1" res="2.1109677851200104e-02" rms="4.3345612287521362e-01" purity="3.7436893582344055e-01" nType="-99"/>
            <Node pos="r" depth="3" NCoef="0" IVar="-1" Cut="0.0000000000000000e+00" cType="1" res="8.9059367775917053e-02" rms="4.3049857020378113e-01" purity="6.6851121187210083e-01" nType="-99"/>
          </Node>
          <Node pos="r" depth="2" NCoef="0" IVar="0" Cut="-2.6940097808837891e+00" cType="1" res="-1.9135309848934412e-03" rms="4.3661752343177795e-01" purity="4.9987563490867615e-01" nType="0">
            <Node pos="l" depth="3" NCoef="0" IVar="-1" Cut="0.0000000000000000e+00" cType="1" res="-3.2452289015054703e-02" rms="4.4787815213203430e-01" purity="4.1299018263816833e-01" nType="-99"/>
            <Node pos="r" depth="3" NCoef="0" IVar="-1" Cut="0.0000000000000000e+00" cType="1" res="1.2528796680271626e-02" rms="4.2967125773429871e-01" purity="5.5135989189147949e-01" nType="-99"/>
          </Node>
        </Node>
      </Node>
    </BinaryTree>
    <BinaryTree type="DecisionTree" boostWeight="1.0000000000000000e+00" itree="28">
      <Node pos="s" depth="0" NCoef="0" IVar="5" Cut="3.3951827883720398e-01" cType="1" res="-1.6413802513852715e-03" rms="4.1327366232872009e-01" purity="5.0263464450836182e-01" nType="0">
        <Node pos="l" depth="1" NCoef="0" IVar="3" Cut="5.1485151052474976e-01" cType="1" res="-5.9508468257263303e-04" rms="4.1259890794754028e-01" purity="4.9831399321556091e-01" nType="0">
          <Node pos="l" depth="2" NCoef="0" IVar="5" Cut="1.9160054624080658e-01" cType="1" res="2.0461869426071644e-03" rms="4.1781374812126160e-01" purity="4.9108567833900452e-01" nType="0">
            <Node pos="l" depth="3" NCoef="0" IVar="-1" Cut="0.0000000000000000e+00" cType="1" res="1.3266355730593204e-02" rms="4.1356450319290161e-01" purity="4.9773290753364563e-01" nType="-99"/>
            <Node pos="r" depth="3" NCoef="0" IVar="-1" Cut="0.0000000000000000e+00" cType="1" res="-2.9239390045404434e-02" rms="4.4007942080497742e-01" purity="4.5475876331329346e-01" nType="-99"/>
          </Node>
          <Node pos="r" depth="2" NCoef="0" IVar="4" Cut="9.2573333531618118e-03" cType="1" res="-1.8252611160278320e-02" rms="3.7540549039840698e-01" purity="5.4663687944412231e-01" nType="0">
            <Node pos="l" depth="3" NCoef="0" IVar="-1" Cut="0.0000000000000000e+00" cType="1" res="3.5973686724901199e-02" rms="2.4628710746765137e-01" purity="3.4230858087539673e-01" nType="-99"/>
            <Node pos="r" depth="3" NCoef="0" IVar="-1" Cut="0.0000000000000000e+00" cType="1" res="-9.8427295684814453e-02" rms="4.4393774867057800e-01" purity="6.9131296873092651e-01" nType="-99"/>
          </Node>
        </Node>
        <Node pos="r" depth="1" NCoef="0" IVar="-1" Cut="0.0000000000000000e+00" cType="1" res="-1.3150124251842499e-01" rms="4.3667888641357422e-01" purity="6.6992664337158203e-01" nType="-99"/>
      </Node>
    </BinaryTree>
    <BinaryTree type="DecisionTree" boostWeight="1.0000000000000000e+00" itree="29">
      <Node pos="s" depth="0" NCoef="0" IVar="2" Cut="2.8712871670722961e-01" cType="1" res="-2.0329499966464937e-04" rms="4.1360345482826233e-01" purity="5.0126564502716064e-01" nType="0">
        <Node pos="l" depth="1" NCoef="0" IVar="3" Cut="2.4752475321292877e-01" cType="1" res="-1.5168760437518358e-03" rms="4.1327413916587830e-01" purity="4.9079740047454834e-01" nType="0">
          <Node pos="l" depth="2" NCoef="0" IVar="0" Cut="-2.5249214172363281e+00" cType="1" res="5.2431151270866394e-03" rms="3.8974106311798096e-01" purity="5.0020581483840942e-01" nType="0">
            <Node pos="l" depth="3" NCoef="0" IVar="-1" Cut="0.0000000000000000e+00" cType="1" res="-7.8669637441635132e-03" rms="3.8864824175834656e-01" purity="4.8293903470039368e-01" nType="-99"/>
            <Node pos="r" depth="3" NCoef="0" IVar="-1" Cut="0.0000000000000000e+00" cType="1" res="4.1344657540321350e-02" rms="3.9062535762786865e-01" purity="5.1630347967147827e-01" nType="-99"/>
          </Node>
          <Node pos="r" depth="2" NCoef="0" IVar="4" Cut="9.0516701340675354e-02" cType="1" res="-7.6676155440509319e-03" rms="4.3348628282546997e-01" purity="4.8223692178726196e-01" nType="0">
            <Node pos="l" depth="3" NCoef="0" IVar="-1" Cut="0.0000000000000000e+00" cType="1" res="-8.6268618702888489e-02" rms="3.5717722773551941e-01" purity="3.1533402204513550e-01" nType="-99"/>
            <Node pos="r" depth="3" NCoef="0" IVar="-1" Cut="0.0000000000000000e+00" cType="1" res="-8.6827334016561508e-03" rms="4.5220321416854858e-01" purity="5.2832293510437012e-01" nType="-99"/>
          </Node>
        </Node>
        <Node pos="r" depth="1" NCoef="0" IVar="3" Cut="3.6693960428237915e-01" cType="1" res="2.0388701930642128e-02" rms="4.1819325089454651e-01" purity="6.6536885499954224e-01" nType="0">
          <Node pos="l" depth="2" NCoef="0" IVar="-1" Cut="0.0000000000000000e+00" cType="1" res="-1.4018203131854534e-02" rms="4.2569980025291443e-01" purity="5.6192153692245483e-01" nType="-99"/>
          <Node pos="r" depth="2" NCoef="0" IVar="-1" Cut="0.0000000000000000e+00" cType="1" res="1.1593856662511826e-01" rms="4.1024634242057800e-01" purity="7.5526618957519531e-01" nType="-99"/>
        </Node>
      </Node>
    </BinaryTree>
    <BinaryTree type="DecisionTree" boostWeight="1.0000000000000000e+00" itree="30">
      <Node pos="s" depth="0" NCoef="0" IVar="0" Cut="2.7024583816528320e+00" cType="1" res="-1.8351471517235041e-03" rms="4.1090905666351318e-01" purity="5.0000613927841187e-01" nType="0">
        <Node pos="l" depth="1" NCoef="0" IVar="4" Cut="2.1123653650283813e-01" cType="1" res="2.6874032337218523e-03" rms="4.0736669301986694e-01" purity="5.4509562253952026e-01" nType="0">
          <Node pos="l" depth="2" NCoef="0" IVar="1" Cut="2.4571280479431152e+00" cType="1" res="7.6330481097102165e-03" rms="3.9382931590080261e-01" purity="5.3334814310073853e-01" nType="0">
            <Node pos="l" depth="3" NCoef="0" IVar="-1" Cut="0.0000000000000000e+00" cType="1" res="3.0223254114389420e-02" rms="3.9379239082336426e-01" purity="5.3380048274993896e-01" nType="-99"/>
            <Node pos="r" depth="3" NCoef="0" IVar="-1" Cut="0.0000000000000000e+00" cType="1" res="-2.4574533104896545e-02" rms="3.9383602142333984e-01" purity="5.2934753894805908e-01" nType="-99"/>
          </Node>
          <Node pos="r" depth="2" NCoef="0" IVar="2" Cut="1.3576248288154602e-01" cType="1" res="-9.3176467344164848e-03" rms="4.3826013803482056e-01" purity="5.7361155748367310e-01" nType="0">
            <Node pos="l" depth="3" NCoef="0" IVar="-1" Cut="0.0000000000000000e+00" cType="1" res="-5.4743472486734390e-02" rms="4.3865671753883362e-01" purity="5.7480156421661377e-01" nType="-99"/>
            <Node pos="r" depth="3" NCoef="0" IVar="-1" Cut="0.0000000000000000e+00" cType="1" res="3.4015469253063202e-02" rms="4.3655496835708618e-01" purity="5.7109946012496948e-01" nType="-99"/>
          </Node>
        </Node>
        <Node pos="r" depth="1" NCoef="0" IVar="2" Cut="2.2772277891635895e-01" cType="1" res="-9.4508621841669083e-03" rms="4.1669526696205139e-01" purity="4.2407804727554321e-01" nType="0">
          <Node pos="l" depth="2" NCoef="0" IVar="6" Cut="2.4005375802516937e-01" cType="1" res="-4.4584092684090137e-03" rms="4.1139572858810425e-01" purity="4.1806942224502563e-01" nType="0">
            <Node pos="l" depth="3" NCoef="0" IVar="-1" Cut="0.0000000000000000e+00" cType="1" res="-2.9450766742229462e-03" rms="4.0958422422409058e-01" purity="4.1663289070129395e-01" nType="-99"/>
            <Node pos="r" depth="3" NCoef="0" IVar="-1" Cut="0.0000000000000000e+00" cType="1" res="-1.1965617537498474e-01" rms="4.2944049835205078e-01" purity="4.3434342741966248e-01" nType="-99"/>
          </Node>
          <Node pos="r" depth="2" NCoef="0" IVar="-1" Cut="0.0000000000000000e+00" cType="1" res="-1.1956098675727844e-01" rms="4.5464265346527100e-01" purity="4.7177061438560486e-01" nType="-99"/>
        </Node>
      </Node>
    </BinaryTree>
    <BinaryTree type="DecisionTree" boostWeight="1.0000000000000000e+00" itree="31">
      <Node pos="s" depth="0" NCoef="0" IVar="4" Cut="1.3275465369224548e-01" cType="1" res="-3.3111849916167557e-04" rms="4.1117915511131287e-01" purity="4.9937671422958374e-01" nType="0">
        <Node pos="l" depth="1" NCoef="0" IVar="6" Cut="2.4485945701599121e-01" cType="1" res="6.0822465457022190e-03" rms="3.7439388036727905e-01" purity="5.1477038860321045e-01" nType="0">
          <Node pos="l" depth="2" NCoef="0" IVar="6" Cut="1.1635199934244156e-01" cType="1" res="3.4559066407382488e-03" rms="3.6747121810913086e-01" purity="5.1226180791854858e-01" nType="0">
            <Node pos="l" depth="3" NCoef="0" IVar="-1" Cut="0.0000000000000000e+00" cType="1" res="3.9691362529993057e-02" rms="3.4883475303649902e-01" purity="5.9915107488632202e-01" nType="-99"/>
            <Node pos="r" depth="3" NCoef="0" IVar="-1" Cut="0.0000000000000000e+00" cType="1" res="-3.7745732814073563e-02" rms="4.1042616963386536e-01" purity="2.9239448904991150e-01" nType="-99"/>
          </Node>
          <Node pos="r" depth="2" NCoef="0" IVar="-1" Cut="0.0000000000000000e+00" cType="1" res="8.6150810122489929e-02" rms="4.2961046099662781e-01" purity="5.3674292564392090e-01" nType="-99"/>
        </Node>
        <Node pos="r" depth="1" NCoef="0" IVar="3" Cut="4.9997794628143311e-01" cType="1" res="-5.5251619778573513e-03" rms="4.3864730000495911e-01" purity="4.8690971732139587e-01" nType="0">
          <Node pos="l" depth="2" NCoef="0" IVar="7" Cut="1.6861535608768463e-01" cType="1" res="-8.3783669397234917e-03" rms="4.3905258178710938e-01" purity="4.6326130628585815e-01" nType="0">
            <Node pos="l" depth="3" NCoef="0" IVar="-1" Cut="0.0000000000000000e+00" cType="1" res="-1.5499491244554520e-02" rms="4.4255551695823669e-01" purity="4.8527941107749939e-01" nType="-99"/>
            <Node pos="r" depth="3" NCoef="0" IVar="-1" Cut="0.0000000000000000e+00" cType="1" res="-9.8186478018760681e-02" rms="4.0189170837402344e-01" purity="2.4497453868389130e-01" nType="-99"/>
          </Node>
          <Node pos="r" depth="2" NCoef="0" IVar="-1" Cut="0.0000000000000000e+00" cType="1" res="6.0907799750566483e-02" rms="4.3350297212600708e-01" purity="7.2491347789764404e-01" nType="-99"/>
        </Node>
      </Node>
    </BinaryTree>
    <BinaryTree type="DecisionTree" boostWeight="1.0000000000000000e+00" itree="32">
      <Node pos="s" depth="0" NCoef="0" IVar="4" Cut="1.7753557860851288e-01" cType="1" res="1.1583365267142653e-03" rms="4.1212078928947449e-01" purity="5.0069934129714966e-01" nType="0">
        <Node pos="l" depth="1" NCoef="0" IVar="2" Cut="2.8712871670722961e-01" cType="1" res="-4.4525708071887493e-03" rms="3.9087834954261780e-01" purity="4.8682764172554016e-01" nType="0">
          <Node pos="l" depth="2" NCoef="0" IVar="8" Cut="7.4881933629512787e-02" cType="1" res="-2.6169577613472939e-03" rms="3.8873559236526489e-01" purity="4.7344028949737549e-01" nType="0">
            <Node pos="l" depth="3" NCoef="0" IVar="-1" Cut="0.0000000000000000e+00" cType="1" res="-2.1333418786525726e-02" rms="3.8892787694931030e-01" purity="5.8372962474822998e-01" nType="-99"/>
            <Node pos="r" depth="3" NCoef="0" IVar="-1" Cut="0.0000000000000000e+00" cType="1" res="1.8807442858815193e-02" rms="3.8819095492362976e-01" purity="2.3151737451553345e-01" nType="-99"/>
          </Node>
          <Node pos="r" depth="2" NCoef="0" IVar="-1" Cut="0.0000000000000000e+00" cType="1" res="-7.6611608266830444e-02" rms="4.1492375731468201e-01" purity="6.4625495672225952e-01" nType="-99"/>
        </Node>
        <Node pos="r" depth="1" NCoef="0" IVar="7" Cut="8.3071209490299225e-02" cType="1" res="9.8601942881941795e-03" rms="4.4291469454765320e-01" purity="5.2221274375915527e-01" nType="0">
          <Node pos="l" depth="2" NCoef="0" IVar="5" Cut="6.6218371503055096e-03" cType="1" res="4.7845141962170601e-03" rms="4.4439199566841125e-01" purity="6.0291963815689087e-01" nType="0">
            <Node pos="l" depth="3" NCoef="0" IVar="-1" Cut="0.0000000000000000e+00" cType="1" res="8.3200134336948395e-02" rms="4.1707992553710938e-01" purity="7.4797570705413818e-01" nType="-99"/>
            <Node pos="r" depth="3" NCoef="0" IVar="-1" Cut="0.0000000000000000e+00" cType="1" res="1.6088425181806087e-03" rms="4.4854494929313660e-01" purity="5.7930010557174683e-01" nType="-99"/>
          </Node>
          <Node pos="r" depth="2" NCoef="0" IVar="3" Cut="1.4521709084510803e-01" cType="1" res="2.0088385790586472e-02" rms="4.3974471092224121e-01" purity="3.5957729816436768e-01" nType="0">
            <Node pos="l" depth="3" NCoef="0" IVar="-1" Cut="0.0000000000000000e+00" cType="1" res="-8.4575107321143150e-03" rms="4.2445069551467896e-01" purity="3.6452120542526245e-01" nType="-99"/>
            <Node pos="r" depth="3" NCoef="0" IVar="-1" Cut="0.0000000000000000e+00" cType="1" res="8.0345891416072845e-02" rms="4.4586834311485291e-01" purity="3.5742586851119995e-01" nType="-99"/>
          </Node>
        </Node>
      </Node>
    </BinaryTree>
    <BinaryTree type="DecisionTree" boostWeight="1.0000000000000000e+00" itree="33">
      <Node pos="s" depth="0" NCoef="0" IVar="2" Cut="2.1782177686691284e-01" cType="1" res="1.2509793741628528e-03" rms="4.1122692823410034e-01" purity="5.0054663419723511e-01" nType="0">
        <Node pos="l" depth="1" NCoef="0" IVar="6" Cut="8.4759041666984558e-02" cType="1" res="-8.9572736760601401e-04" rms="4.0831685066223145e-01" purity="4.8802557587623596e-01" nType="0">
          <Node pos="l" depth="2" NCoef="0" IVar="4" Cut="1.7174580693244934e-01" cType="1" res="-7.4640419334173203e-03" rms="3.8426932692527771e-01" purity="5.9054929018020630e-01" nType="0">
            <Node pos="l" depth="3" NCoef="0" IVar="-1" Cut="0.0000000000000000e+00" cType="1" res="-6.2095071189105511e-04" rms="3.3613562583923340e-01" purity="6.0647827386856079e-01" nType="-99"/>
            <Node pos="r" depth="3" NCoef="0" IVar="-1" Cut="0.0000000000000000e+00" cType="1" res="-4.5233465731143951e-02" rms="4.3982610106468201e-01" purity="5.6944149732589722e-01" nType="-99"/>
          </Node>
          <Node pos="r" depth="2" NCoef="0" IVar="4" Cut="2.6709961891174316e-01" cType="1" res="4.9323267303407192e-03" rms="4.2844143509864807e-01" purity="3.9705646038055420e-01" nType="0">
            <Node pos="l" depth="3" NCoef="0" IVar="-1" Cut="0.0000000000000000e+00" cType="1" res="3.4697654191404581e-03" rms="4.2635694146156311e-01" purity="3.6968293786048889e-01" nType="-99"/>
            <Node pos="r" depth="3" NCoef="0" IVar="-1" Cut="0.0000000000000000e+00" cType="1" res="6.9391667842864990e-02" rms="4.4002622365951538e-01" purity="5.6043338775634766e-01" nType="-99"/>
          </Node>
        </Node>
        <Node pos="r" depth="1" NCoef="0" IVar="0" Cut="-2.7220039367675781e+00" cType="1" res="1.4981165528297424e-02" rms="4.2911952733993530e-01" purity="5.8063048124313354e-01" nType="0">
          <Node pos="l" depth="2" NCoef="0" IVar="-1" Cut="0.0000000000000000e+00" cType="1" res="-4.1729521006345749e-02" rms="4.5611873269081116e-01" purity="4.5873153209686279e-01" nType="-99"/>
          <Node pos="r" depth="2" NCoef="0" IVar="6" Cut="4.3149929493665695e-02" cType="1" res="2.9669933021068573e-02" rms="4.1536799073219299e-01" purity="6.3635158538818359e-01" nType="0">
            <Node pos="l" depth="3" NCoef="0" IVar="-1" Cut="0.0000000000000000e+00" cType="1" res="1.2972591817378998e-01" rms="3.9736938476562500e-01" purity="7.4756604433059692e-01" nType="-99"/>
            <Node pos="r" depth="3" NCoef="0" IVar="-1" Cut="0.0000000000000000e+00" cType="1" res="2.4886187165975571e-02" rms="4.3737533688545227e-01" purity="4.8827159404754639e-01" nType="-99"/>
          </Node>
        </Node>
      </Node>
    </BinaryTree>
    <BinaryTree type="DecisionTree" boostWeight="1.0000000000000000e+00" itree="34">
      <Node pos="s" depth="0" NCoef="0" IVar="4" Cut="1.7282989621162415e-01" cType="1" res="-3.9072940126061440e-03" rms="4.1201025247573853e-01" purity="4.9853906035423279e-01" nType="0">
        <Node pos="l" depth="1" NCoef="0" IVar="6" Cut="2.3544178903102875e-01" cType="1" res="3.0010804766789079e-04" rms="3.8915058970451355e-01" purity="4.8936876654624939e-01" nType="0">
          <Node pos="l" depth="2" NCoef="0" IVar="5" Cut="2.7776342630386353e-01" cType="1" res="2.4425163865089417e-03" rms="3.8374441862106323e-01" purity="4.9065986275672913e-01" nType="0">
            <Node pos="l" depth="3" NCoef="0" IVar="-1" Cut="0.0000000000000000e+00" cType="1" res="2.8476822189986706e-03" rms="3.7956163287162781e-01" purity="4.9046701192855835e-01" nType="-99"/>
            <Node pos="r" depth="3" NCoef="0" IVar="-1" Cut="0.0000000000000000e+00" cType="1" res="8.7965950369834900e-02" rms="4.5733374357223511e-01" purity="4.9446317553520203e-01" nType="-99"/>
          </Node>
          <Node pos="r" depth="2" NCoef="0" IVar="4" Cut="7.7000036835670471e-02" cType="1" res="-1.7876368016004562e-02" rms="4.3187841773033142e-01" purity="4.7841513156890869e-01" nType="0">
            <Node pos="l" depth="3" NCoef="0" IVar="-1" Cut="0.0000000000000000e+00" cType="1" res="1.2201554141938686e-02" rms="4.1838595271110535e-01" purity="5.8344000577926636e-01" nType="-99"/>
            <Node pos="r" depth="3" NCoef="0" IVar="-1" Cut="0.0000000000000000e+00" cType="1" res="-9.9927932024002075e-02" rms="4.4226410984992981e-01" purity="3.8827839493751526e-01" nType="-99"/>
          </Node>
        </Node>
        <Node pos="r" depth="1" NCoef="0" IVar="2" Cut="2.4425297975540161e-01" cType="1" res="-1.0105987079441547e-02" rms="4.4347494840621948e-01" purity="5.1204949617385864e-01" nType="0">
          <Node pos="l" depth="2" NCoef="0" IVar="5" Cut="8.2748837769031525e-02" cType="1" res="-7.2067249566316605e-03" rms="4.4317424297332764e-01" purity="5.0799870491027832e-01" nType="0">
            <Node pos="l" depth="3" NCoef="0" IVar="-1" Cut="0.0000000000000000e+00" cType="1" res="-5.3355176001787186e-02" rms="4.3406054377555847e-01" purity="5.1857113838195801e-01" nType="-99"/>
            <Node pos="r" depth="3" NCoef="0" IVar="-1" Cut="0.0000000000000000e+00" cType="1" res="-1.4315953012555838e-03" rms="4.4774770736694336e-01" purity="5.0244075059890747e-01" nType="-99"/>
          </Node>
          <Node pos="r" depth="2" NCoef="0" IVar="-1" Cut="0.0000000000000000e+00" cType="1" res="-1.4239476621150970e-01" rms="4.4570437073707581e-01" purity="5.7326096296310425e-01" nType="-99"/>
        </Node>
      </Node>
    </BinaryTree>
    <BinaryTree type="DecisionTree" boostWeight="1.0000000000000000e+00" itree="35">
      <Node pos="s" depth="0" NCoef="0" IVar="8" Cut="9.4983436167240143e-02" cType="1" res="1.0889228433370590e-03" rms="4.1042065620422363e-01" purity="4.9814543128013611e-01" nType="0">
        <Node pos="l" depth="1" NCoef="0" IVar="0" Cut="-2.7604062557220459e+00" cType="1" res="4.1101188398897648e-03" rms="4.1721555590629578e-01" purity="5.6440824270248413e-01" nType="0">
          <Node pos="l" depth="2" NCoef="0" IVar="2" Cut="8.9108914136886597e-02" cType="1" res="-5.0917095504701138e-03" rms="4.2363327741622925e-01" purity="4.3468666076660156e-01" nType="0">
            <Node pos="l" depth="3" NCoef="0" IVar="-1" Cut="0.0000000000000000e+00" cType="1" res="-7.9745247960090637e-02" rms="3.7526944279670715e-01" purity="5.0277394056320190e-01" nType="-99"/>
            <Node pos="r" depth="3" NCoef="0" IVar="-1" Cut="0.0000000000000000e+00" cType="1" res="1.5706848353147507e-02" rms="4.5238944888114929e-01" purity="3.8972339034080505e-01" nType="-99"/>
          </Node>
          <Node pos="r" depth="2" NCoef="0" IVar="2" Cut="2.7722772955894470e-01" cType="1" res="7.5878058560192585e-03" rms="4.1471105813980103e-01" purity="6.1343449354171753e-01" nType="0">
            <Node pos="l" depth="3" NCoef="0" IVar="-1" Cut="0.0000000000000000e+00" cType="1" res="2.7445282787084579e-02" rms="4.1532811522483826e-01" purity="6.0656410455703735e-01" nType="-99"/>
            <Node pos="r" depth="3" NCoef="0" IVar="-1" Cut="0.0000000000000000e+00" cType="1" res="-3.4136008471250534e-02" rms="4.0743663907051086e-01" purity="6.8833744525909424e-01" nType="-99"/>
          </Node>
        </Node>
        <Node pos="r" depth="1" NCoef="0" IVar="3" Cut="9.3371964991092682e-02" cType="1" res="-1.2172877788543701e-02" rms="3.7887132167816162e-01" purity="2.0727901160717010e-01" nType="0">
          <Node pos="l" depth="2" NCoef="0" IVar="-1" Cut="0.0000000000000000e+00" cType="1" res="3.4321583807468414e-02" rms="4.1377371549606323e-01" purity="3.4398034214973450e-01" nType="-99"/>
          <Node pos="r" depth="2" NCoef="0" IVar="4" Cut="7.6273702085018158e-02" cType="1" res="-1.6647631302475929e-02" rms="3.7157046794891357e-01" purity="1.8081648647785187e-01" nType="0">
            <Node pos="l" depth="3" NCoef="0" IVar="-1" Cut="0.0000000000000000e+00" cType="1" res="-1.3991984724998474e-01" rms="3.6382299661636353e-01" purity="1.6907051205635071e-01" nType="-99"/>
