<?xml version="1.0"?>
<MethodSetup Method="BDT::BDT">
  <GeneralInfo>
    <Info name="TMVA Release" value="4.2.1 [262657]"/>
    <Info name="ROOT Release" value="6.14/09 [396809]"/>
    <Info name="Creator" value="jkrupa"/>
    <Info name="Date" value="Sun Sep 15 00:24:20 2019"/>
    <Info name="Host" value="Linux cmsbuild20.cern.ch 3.10.0-957.5.1.el7.x86_64 #1 SMP Fri Feb 1 14:54:57 UTC 2019 x86_64 x86_64 x86_64 GNU/Linux"/>
    <Info name="Dir" value="/uscms_data/d3/jkrupa/pf_studies/CMSSW_10_6_2/src/CaloTrigNN/CaloNtupler/test"/>
    <Info name="Training events" value="169787"/>
    <Info name="TrainingTime" value="5.07449739e+01"/>
    <Info name="AnalysisType" value="Classification"/>
  </GeneralInfo>
  <Options>
    <Option name="V" modified="Yes">False</Option>
    <Option name="VerbosityLevel" modified="No">Default</Option>
    <Option name="VarTransform" modified="No">None</Option>
    <Option name="H" modified="Yes">False</Option>
    <Option name="CreateMVAPdfs" modified="No">False</Option>
    <Option name="IgnoreNegWeightsInTraining" modified="No">False</Option>
    <Option name="NTrees" modified="Yes">300</Option>
    <Option name="MaxDepth" modified="Yes">3</Option>
    <Option name="MinNodeSize" modified="Yes">2.5%</Option>
    <Option name="nCuts" modified="Yes">100</Option>
    <Option name="BoostType" modified="Yes">Grad</Option>
    <Option name="AdaBoostR2Loss" modified="No">quadratic</Option>
    <Option name="UseBaggedBoost" modified="Yes">True</Option>
    <Option name="Shrinkage" modified="No">1.000000e+00</Option>
    <Option name="AdaBoostBeta" modified="No">5.000000e-01</Option>
    <Option name="UseRandomisedTrees" modified="No">False</Option>
    <Option name="UseNvars" modified="No">3</Option>
    <Option name="UsePoissonNvars" modified="No">True</Option>
    <Option name="BaggedSampleFraction" modified="No">6.000000e-01</Option>
    <Option name="UseYesNoLeaf" modified="No">True</Option>
    <Option name="NegWeightTreatment" modified="No">pray</Option>
    <Option name="Css" modified="No">1.000000e+00</Option>
    <Option name="Cts_sb" modified="No">1.000000e+00</Option>
    <Option name="Ctb_ss" modified="No">1.000000e+00</Option>
    <Option name="Cbb" modified="No">1.000000e+00</Option>
    <Option name="NodePurityLimit" modified="No">5.000000e-01</Option>
    <Option name="SeparationType" modified="Yes">giniindex</Option>
    <Option name="RegressionLossFunctionBDTG" modified="No">huber</Option>
    <Option name="HuberQuantile" modified="No">7.000000e-01</Option>
    <Option name="DoBoostMonitor" modified="No">False</Option>
    <Option name="UseFisherCuts" modified="No">False</Option>
    <Option name="MinLinCorrForFisher" modified="No">8.000000e-01</Option>
    <Option name="UseExclusiveVars" modified="No">False</Option>
    <Option name="DoPreselection" modified="No">False</Option>
    <Option name="SigToBkgFraction" modified="No">1.000000e+00</Option>
    <Option name="PruneMethod" modified="Yes">nopruning</Option>
    <Option name="PruneStrength" modified="No">0.000000e+00</Option>
    <Option name="PruningValFraction" modified="No">5.000000e-01</Option>
    <Option name="SkipNormalization" modified="No">False</Option>
    <Option name="nEventsMin" modified="No">0</Option>
    <Option name="UseBaggedGrad" modified="No">False</Option>
    <Option name="GradBaggingFraction" modified="No">6.000000e-01</Option>
    <Option name="UseNTrainEvents" modified="No">0</Option>
    <Option name="NNodesMax" modified="No">0</Option>
  </Options>
  <Variables NVar="7">
    <Variable VarIndex="0" Expression="depthFrac0" Label="depthFrac0" Title="depthFrac0" Unit="" Internal="depthFrac0" Type="F" Min="0.00000000e+00" Max="1.00000000e+00"/>
    <Variable VarIndex="1" Expression="depthFrac1" Label="depthFrac1" Title="depthFrac1" Unit="" Internal="depthFrac1" Type="F" Min="0.00000000e+00" Max="1.00000000e+00"/>
    <Variable VarIndex="2" Expression="depthFrac2" Label="depthFrac2" Title="depthFrac2" Unit="" Internal="depthFrac2" Type="F" Min="0.00000000e+00" Max="1.00000000e+00"/>
    <Variable VarIndex="3" Expression="depthFrac3" Label="depthFrac3" Title="depthFrac3" Unit="" Internal="depthFrac3" Type="F" Min="0.00000000e+00" Max="9.49744761e-01"/>
    <Variable VarIndex="4" Expression="depthFrac4" Label="depthFrac4" Title="depthFrac4" Unit="" Internal="depthFrac4" Type="F" Min="0.00000000e+00" Max="9.61330593e-01"/>
    <Variable VarIndex="5" Expression="depthFrac5" Label="depthFrac5" Title="depthFrac5" Unit="" Internal="depthFrac5" Type="F" Min="0.00000000e+00" Max="9.08463538e-01"/>
    <Variable VarIndex="6" Expression="depthFrac6" Label="depthFrac6" Title="depthFrac6" Unit="" Internal="depthFrac6" Type="F" Min="0.00000000e+00" Max="7.52169311e-01"/>
  </Variables>
  <Spectators NSpec="2">
    <Spectator SpecIndex="0" Expression="eta" Label="eta" Title="F" Unit="" Internal="eta" Type="F" Min="-2.99867201e+00" Max="2.99894047e+00"/>
    <Spectator SpecIndex="1" Expression="phi" Label="phi" Title="F" Unit="" Internal="phi" Type="F" Min="-3.14158845e+00" Max="3.14153409e+00"/>
  </Spectators>
  <Classes NClass="2">
    <Class Name="Signal" Index="0"/>
    <Class Name="Background" Index="1"/>
  </Classes>
  <Transformations NTransformations="0"/>
  <MVAPdfs/>
  <Weights NTrees="300" AnalysisType="1">
    <BinaryTree type="DecisionTree" boostWeight="1.0000000000000000e+00" itree="0">
      <Node pos="s" depth="0" NCoef="0" IVar="6" Cut="2.2162869572639465e-02" cType="1" res="-1.1422121897339821e-03" rms="4.9999868869781494e-01" purity="4.9885782599449158e-01" nType="0">
        <Node pos="l" depth="1" NCoef="0" IVar="5" Cut="4.4973444193601608e-02" cType="1" res="2.0852771401405334e-01" rms="4.5444053411483765e-01" purity="7.0852774381637573e-01" nType="0">
          <Node pos="l" depth="2" NCoef="0" IVar="4" Cut="6.6626869142055511e-02" cType="1" res="2.3592722415924072e-01" rms="4.4083821773529053e-01" purity="7.3592722415924072e-01" nType="0">
            <Node pos="l" depth="3" NCoef="0" IVar="-1" Cut="0.0000000000000000e+00" cType="1" res="5.0660115480422974e-01" rms="4.3109026551246643e-01" purity="7.5330054759979248e-01" nType="-99"/>
            <Node pos="r" depth="3" NCoef="0" IVar="-1" Cut="0.0000000000000000e+00" cType="1" res="2.8943225741386414e-01" rms="4.7859925031661987e-01" purity="6.4471614360809326e-01" nType="-99"/>
          </Node>
          <Node pos="r" depth="2" NCoef="0" IVar="0" Cut="9.3016318976879120e-02" cType="1" res="3.6056194454431534e-02" rms="4.9869826436042786e-01" purity="5.3605622053146362e-01" nType="0">
            <Node pos="l" depth="3" NCoef="0" IVar="-1" Cut="0.0000000000000000e+00" cType="1" res="3.8881054520606995e-01" rms="4.6065887808799744e-01" purity="6.9440531730651855e-01" nType="-99"/>
            <Node pos="r" depth="3" NCoef="0" IVar="-1" Cut="0.0000000000000000e+00" cType="1" res="-1.1894097179174423e-01" rms="4.9645066261291504e-01" purity="4.4052952527999878e-01" nType="-99"/>
          </Node>
        </Node>
        <Node pos="r" depth="1" NCoef="0" IVar="6" Cut="5.8014266192913055e-02" cType="1" res="-2.3622240126132965e-01" rms="4.4068011641502380e-01" purity="2.6377761363983154e-01" nType="0">
          <Node pos="l" depth="2" NCoef="0" IVar="0" Cut="7.8387990593910217e-02" cType="1" res="-1.2611746788024902e-01" rms="4.8383301496505737e-01" purity="3.7388250231742859e-01" nType="0">
            <Node pos="l" depth="3" NCoef="0" IVar="-1" Cut="0.0000000000000000e+00" cType="1" res="1.2299747765064240e-01" rms="4.9620348215103149e-01" purity="5.6149870157241821e-01" nType="-99"/>
            <Node pos="r" depth="3" NCoef="0" IVar="-1" Cut="0.0000000000000000e+00" cType="1" res="-3.4877139329910278e-01" rms="4.6860390901565552e-01" purity="3.2561430335044861e-01" nType="-99"/>
          </Node>
          <Node pos="r" depth="2" NCoef="0" IVar="0" Cut="4.8277452588081360e-02" cType="1" res="-2.8551462292671204e-01" rms="4.1046485304832458e-01" purity="2.1448537707328796e-01" nType="0">
            <Node pos="l" depth="3" NCoef="0" IVar="-1" Cut="0.0000000000000000e+00" cType="1" res="-3.2244995236396790e-01" rms="4.7329324483871460e-01" purity="3.3877503871917725e-01" nType="-99"/>
            <Node pos="r" depth="3" NCoef="0" IVar="-1" Cut="0.0000000000000000e+00" cType="1" res="-5.9313738346099854e-01" rms="4.0255063772201538e-01" purity="2.0343132317066193e-01" nType="-99"/>
          </Node>
        </Node>
      </Node>
    </BinaryTree>
    <BinaryTree type="DecisionTree" boostWeight="1.0000000000000000e+00" itree="1">
      <Node pos="s" depth="0" NCoef="0" IVar="1" Cut="4.6534654498100281e-01" cType="1" res="-7.3631410486996174e-05" rms="4.3898910284042358e-01" purity="5.0186425447463989e-01" nType="0">
        <Node pos="l" depth="1" NCoef="0" IVar="3" Cut="3.1031265854835510e-01" cType="1" res="-2.0044799894094467e-02" rms="4.4251087307929993e-01" purity="4.1813212633132935e-01" nType="0">
          <Node pos="l" depth="2" NCoef="0" IVar="0" Cut="3.7623763084411621e-01" cType="1" res="-2.6073521003127098e-02" rms="4.4192901253700256e-01" purity="4.0663045644760132e-01" nType="0">
            <Node pos="l" depth="3" NCoef="0" IVar="-1" Cut="0.0000000000000000e+00" cType="1" res="-8.8224530220031738e-02" rms="4.4446253776550293e-01" purity="3.7148377299308777e-01" nType="-99"/>
            <Node pos="r" depth="3" NCoef="0" IVar="-1" Cut="0.0000000000000000e+00" cType="1" res="2.0650921761989594e-01" rms="3.9667695760726929e-01" purity="8.0382049083709717e-01" nType="-99"/>
          </Node>
          <Node pos="r" depth="2" NCoef="0" IVar="-1" Cut="0.0000000000000000e+00" cType="1" res="3.1157556176185608e-01" rms="4.2901194095611572e-01" purity="7.1414071321487427e-01" nType="-99"/>
        </Node>
        <Node pos="r" depth="1" NCoef="0" IVar="0" Cut="1.0580234229564667e-01" cType="1" res="6.2364153563976288e-02" rms="4.2173489928245544e-01" purity="7.6364409923553467e-01" nType="0">
          <Node pos="l" depth="2" NCoef="0" IVar="4" Cut="3.2875144388526678e-03" cType="1" res="1.1463318765163422e-01" rms="3.8801845908164978e-01" purity="8.1082814931869507e-01" nType="0">
            <Node pos="l" depth="3" NCoef="0" IVar="-1" Cut="0.0000000000000000e+00" cType="1" res="2.0018430054187775e-01" rms="3.9199006557464600e-01" purity="8.0961894989013672e-01" nType="-99"/>
            <Node pos="r" depth="3" NCoef="0" IVar="-1" Cut="0.0000000000000000e+00" cType="1" res="3.6176034808158875e-01" rms="3.8098451495170593e-01" purity="8.1198179721832275e-01" nType="-99"/>
          </Node>
          <Node pos="r" depth="2" NCoef="0" IVar="2" Cut="1.2982894480228424e-01" cType="1" res="4.2826198041439056e-02" rms="4.3204483389854431e-01" purity="7.4600684642791748e-01" nType="0">
            <Node pos="l" depth="3" NCoef="0" IVar="-1" Cut="0.0000000000000000e+00" cType="1" res="1.6416157782077789e-01" rms="4.1638222336769104e-01" purity="7.6625764369964600e-01" nType="-99"/>
            <Node pos="r" depth="3" NCoef="0" IVar="-1" Cut="0.0000000000000000e+00" cType="1" res="2.7456441894173622e-02" rms="4.5144182443618774e-01" purity="7.1724975109100342e-01" nType="-99"/>
          </Node>
        </Node>
      </Node>
    </BinaryTree>
    <BinaryTree type="DecisionTree" boostWeight="1.0000000000000000e+00" itree="2">
      <Node pos="s" depth="0" NCoef="0" IVar="2" Cut="3.8613861799240112e-01" cType="1" res="1.7353841103613377e-03" rms="4.3500298261642456e-01" purity="4.9929371476173401e-01" nType="0">
        <Node pos="l" depth="1" NCoef="0" IVar="4" Cut="2.7501282095909119e-01" cType="1" res="-5.2462182939052582e-03" rms="4.3507543206214905e-01" purity="4.8284614086151123e-01" nType="0">
          <Node pos="l" depth="2" NCoef="0" IVar="0" Cut="9.9009899422526360e-03" cType="1" res="-9.5511926338076591e-03" rms="4.3414136767387390e-01" purity="4.8017472028732300e-01" nType="0">
            <Node pos="l" depth="3" NCoef="0" IVar="-1" Cut="0.0000000000000000e+00" cType="1" res="-3.0769130587577820e-01" rms="4.8401555418968201e-01" purity="5.5835372209548950e-01" nType="-99"/>
            <Node pos="r" depth="3" NCoef="0" IVar="-1" Cut="0.0000000000000000e+00" cType="1" res="-1.4474389143288136e-02" rms="4.3165731430053711e-01" purity="4.7737771272659302e-01" nType="-99"/>
          </Node>
          <Node pos="r" depth="2" NCoef="0" IVar="-1" Cut="0.0000000000000000e+00" cType="1" res="3.0692672729492188e-01" rms="4.4291400909423828e-01" purity="5.6491446495056152e-01" nType="-99"/>
        </Node>
        <Node pos="r" depth="1" NCoef="0" IVar="0" Cut="7.4286788702011108e-02" cType="1" res="1.1515438556671143e-01" rms="4.1778939962387085e-01" purity="7.6649081707000732e-01" nType="0">
          <Node pos="l" depth="2" NCoef="0" IVar="-1" Cut="0.0000000000000000e+00" cType="1" res="4.6639963984489441e-01" rms="3.5006138682365417e-01" purity="8.5635733604431152e-01" nType="-99"/>
          <Node pos="r" depth="2" NCoef="0" IVar="-1" Cut="0.0000000000000000e+00" cType="1" res="9.6457585692405701e-02" rms="4.5777446031570435e-01" purity="6.8575417995452881e-01" nType="-99"/>
        </Node>
      </Node>
    </BinaryTree>
    <BinaryTree type="DecisionTree" boostWeight="1.0000000000000000e+00" itree="3">
      <Node pos="s" depth="0" NCoef="0" IVar="0" Cut="3.9603959769010544e-02" cType="1" res="3.8188928738236427e-03" rms="4.3293616175651550e-01" purity="5.0186049938201904e-01" nType="0">
        <Node pos="l" depth="1" NCoef="0" IVar="4" Cut="9.4832004979252815e-03" cType="1" res="6.6286616027355194e-02" rms="4.1471907496452332e-01" purity="6.9313603639602661e-01" nType="0">
          <Node pos="l" depth="2" NCoef="0" IVar="-1" Cut="0.0000000000000000e+00" cType="1" res="3.1087726354598999e-02" rms="4.5556572079658508e-01" purity="6.5173852443695068e-01" nType="-99"/>
          <Node pos="r" depth="2" NCoef="0" IVar="-1" Cut="0.0000000000000000e+00" cType="1" res="2.8833109140396118e-01" rms="3.7382149696350098e-01" purity="7.2604167461395264e-01" nType="-99"/>
        </Node>
        <Node pos="r" depth="1" NCoef="0" IVar="5" Cut="1.0075957328081131e-01" cType="1" res="-2.3848637938499451e-03" rms="4.3421337008476257e-01" purity="4.8286464810371399e-01" nType="0">
          <Node pos="l" depth="2" NCoef="0" IVar="5" Cut="9.9757057614624500e-04" cType="1" res="1.0307844728231430e-02" rms="4.4245979189872742e-01" purity="5.8998149633407593e-01" nType="0">
            <Node pos="l" depth="3" NCoef="0" IVar="-1" Cut="0.0000000000000000e+00" cType="1" res="-4.6498939394950867e-02" rms="4.3274384737014771e-01" purity="7.3448157310485840e-01" nType="-99"/>
            <Node pos="r" depth="3" NCoef="0" IVar="-1" Cut="0.0000000000000000e+00" cType="1" res="9.8546966910362244e-02" rms="4.5055863261222839e-01" purity="4.4110667705535889e-01" nType="-99"/>
          </Node>
          <Node pos="r" depth="2" NCoef="0" IVar="4" Cut="6.2440432608127594e-02" cType="1" res="-3.2263077795505524e-02" rms="4.1261544823646545e-01" purity="2.3071515560150146e-01" nType="0">
            <Node pos="l" depth="3" NCoef="0" IVar="-1" Cut="0.0000000000000000e+00" cType="1" res="9.4159692525863647e-02" rms="4.5236161351203918e-01" purity="3.1550827622413635e-01" nType="-99"/>
            <Node pos="r" depth="3" NCoef="0" IVar="-1" Cut="0.0000000000000000e+00" cType="1" res="-1.1003102362155914e-01" rms="4.0744593739509583e-01" purity="2.2158715128898621e-01" nType="-99"/>
          </Node>
        </Node>
      </Node>
    </BinaryTree>
    <BinaryTree type="DecisionTree" boostWeight="1.0000000000000000e+00" itree="4">
      <Node pos="s" depth="0" NCoef="0" IVar="3" Cut="6.5823897719383240e-02" cType="1" res="-5.4502855055034161e-03" rms="4.3082308769226074e-01" purity="4.9828985333442688e-01" nType="0">
        <Node pos="l" depth="1" NCoef="0" IVar="2" Cut="1.7821782827377319e-01" cType="1" res="1.7911488190293312e-02" rms="4.2558220028877258e-01" purity="6.6638350486755371e-01" nType="0">
          <Node pos="l" depth="2" NCoef="0" IVar="3" Cut="6.5170123707503080e-04" cType="1" res="3.1179582700133324e-02" rms="4.1792583465576172e-01" purity="6.8543350696563721e-01" nType="0">
            <Node pos="l" depth="3" NCoef="0" IVar="-1" Cut="0.0000000000000000e+00" cType="1" res="4.5884791761636734e-02" rms="4.1986486315727234e-01" purity="7.5103306770324707e-01" nType="-99"/>
            <Node pos="r" depth="3" NCoef="0" IVar="-1" Cut="0.0000000000000000e+00" cType="1" res="1.4353479444980621e-01" rms="4.1418334841728210e-01" purity="5.8867245912551880e-01" nType="-99"/>
          </Node>
          <Node pos="r" depth="2" NCoef="0" IVar="1" Cut="5.5645132064819336e-01" cType="1" res="-6.5300911664962769e-03" rms="4.3828684091567993e-01" purity="6.3129103183746338e-01" nType="0">
            <Node pos="l" depth="3" NCoef="0" IVar="-1" Cut="0.0000000000000000e+00" cType="1" res="-4.8472549766302109e-02" rms="4.4928723573684692e-01" purity="5.8607703447341919e-01" nType="-99"/>
            <Node pos="r" depth="3" NCoef="0" IVar="-1" Cut="0.0000000000000000e+00" cType="1" res="1.1539030820131302e-01" rms="3.8885200023651123e-01" purity="8.0787336826324463e-01" nType="-99"/>
          </Node>
        </Node>
        <Node pos="r" depth="1" NCoef="0" IVar="1" Cut="6.8983122706413269e-02" cType="1" res="-2.1108087152242661e-02" rms="4.3359634280204773e-01" purity="3.8562813401222229e-01" nType="0">
          <Node pos="l" depth="2" NCoef="0" IVar="-1" Cut="0.0000000000000000e+00" cType="1" res="2.1156807243824005e-01" rms="3.7162530422210693e-01" purity="6.2120145559310913e-01" nType="-99"/>
          <Node pos="r" depth="2" NCoef="0" IVar="6" Cut="2.4338101968169212e-02" cType="1" res="-2.5391610339283943e-02" rms="4.3584451079368591e-01" purity="3.7448298931121826e-01" nType="0">
            <Node pos="l" depth="3" NCoef="0" IVar="-1" Cut="0.0000000000000000e+00" cType="1" res="-1.3396018743515015e-01" rms="4.6048977971076965e-01" purity="6.1647206544876099e-01" nType="-99"/>
            <Node pos="r" depth="3" NCoef="0" IVar="-1" Cut="0.0000000000000000e+00" cType="1" res="-3.0357135459780693e-02" rms="4.2170506715774536e-01" purity="2.4841156601905823e-01" nType="-99"/>
          </Node>
        </Node>
      </Node>
    </BinaryTree>
    <BinaryTree type="DecisionTree" boostWeight="1.0000000000000000e+00" itree="5">
      <Node pos="s" depth="0" NCoef="0" IVar="6" Cut="1.2558959424495697e-01" cType="1" res="1.2261756928637624e-03" rms="4.3042409420013428e-01" purity="4.9856507778167725e-01" nType="0">
        <Node pos="l" depth="1" NCoef="0" IVar="4" Cut="1.3276480138301849e-01" cType="1" res="6.1567015945911407e-03" rms="4.3567284941673279e-01" purity="5.3441488742828369e-01" nType="0">
          <Node pos="l" depth="2" NCoef="0" IVar="4" Cut="1.3144782278686762e-03" cType="1" res="1.2106318026781082e-02" rms="4.3711623549461365e-01" purity="5.9073323011398315e-01" nType="0">
            <Node pos="l" depth="3" NCoef="0" IVar="-1" Cut="0.0000000000000000e+00" cType="1" res="-3.0133118852972984e-02" rms="4.3305543065071106e-01" purity="7.3101842403411865e-01" nType="-99"/>
            <Node pos="r" depth="3" NCoef="0" IVar="-1" Cut="0.0000000000000000e+00" cType="1" res="7.3898434638977051e-02" rms="4.3915268778800964e-01" purity="4.9567252397537231e-01" nType="-99"/>
          </Node>
          <Node pos="r" depth="2" NCoef="0" IVar="1" Cut="1.2274543195962906e-01" cType="1" res="-1.2796454131603241e-02" rms="4.3049472570419312e-01" purity="3.5500657558441162e-01" nType="0">
            <Node pos="l" depth="3" NCoef="0" IVar="-1" Cut="0.0000000000000000e+00" cType="1" res="1.2237122654914856e-01" rms="4.1080248355865479e-01" purity="5.3602033853530884e-01" nType="-99"/>
            <Node pos="r" depth="3" NCoef="0" IVar="-1" Cut="0.0000000000000000e+00" cType="1" res="-6.9200195372104645e-02" rms="4.3408170342445374e-01" purity="3.1101009249687195e-01" nType="-99"/>
          </Node>
        </Node>
        <Node pos="r" depth="1" NCoef="0" IVar="4" Cut="1.2632721662521362e-01" cType="1" res="-4.3091230094432831e-02" rms="3.7712323665618896e-01" purity="1.7633421719074249e-01" nType="0">
          <Node pos="l" depth="2" NCoef="0" IVar="-1" Cut="0.0000000000000000e+00" cType="1" res="-5.6277234107255936e-02" rms="3.9141622185707092e-01" purity="1.9654873013496399e-01" nType="-99"/>
          <Node pos="r" depth="2" NCoef="0" IVar="4" Cut="1.6964516043663025e-01" cType="1" res="-6.6957063972949982e-02" rms="3.6117002367973328e-01" purity="1.5679192543029785e-01" nType="0">
            <Node pos="l" depth="3" NCoef="0" IVar="-1" Cut="0.0000000000000000e+00" cType="1" res="-2.2960755228996277e-01" rms="3.3499118685722351e-01" purity="1.3006493449211121e-01" nType="-99"/>
            <Node pos="r" depth="3" NCoef="0" IVar="-1" Cut="0.0000000000000000e+00" cType="1" res="-1.8200802803039551e-01" rms="3.8531938195228577e-01" purity="1.8328620493412018e-01" nType="-99"/>
          </Node>
        </Node>
      </Node>
    </BinaryTree>
    <BinaryTree type="DecisionTree" boostWeight="1.0000000000000000e+00" itree="6">
      <Node pos="s" depth="0" NCoef="0" IVar="2" Cut="2.3762376606464386e-01" cType="1" res="5.9661926934495568e-04" rms="4.2896106839179993e-01" purity="5.0086730718612671e-01" nType="0">
        <Node pos="l" depth="1" NCoef="0" IVar="0" Cut="2.5742575526237488e-01" cType="1" res="-5.6780222803354263e-03" rms="4.2545124888420105e-01" purity="4.7135299444198608e-01" nType="0">
          <Node pos="l" depth="2" NCoef="0" IVar="3" Cut="1.0062769055366516e-01" cType="1" res="-1.1653768830001354e-02" rms="4.2714554071426392e-01" purity="4.0942052006721497e-01" nType="0">
            <Node pos="l" depth="3" NCoef="0" IVar="-1" Cut="0.0000000000000000e+00" cType="1" res="-2.8758721891790628e-03" rms="4.2943578958511353e-01" purity="5.0516563653945923e-01" nType="-99"/>
            <Node pos="r" depth="3" NCoef="0" IVar="-1" Cut="0.0000000000000000e+00" cType="1" res="-6.0751888900995255e-02" rms="4.2474508285522461e-01" purity="3.1961074471473694e-01" nType="-99"/>
          </Node>
          <Node pos="r" depth="2" NCoef="0" IVar="1" Cut="5.5124104022979736e-01" cType="1" res="2.0022485405206680e-02" rms="4.1711145639419556e-01" purity="7.3771244287490845e-01" nType="0">
            <Node pos="l" depth="3" NCoef="0" IVar="-1" Cut="0.0000000000000000e+00" cType="1" res="7.7008254826068878e-02" rms="4.1651630401611328e-01" purity="7.2768551111221313e-01" nType="-99"/>
            <Node pos="r" depth="3" NCoef="0" IVar="-1" Cut="0.0000000000000000e+00" cType="1" res="-2.3926643654704094e-02" rms="4.1796219348907471e-01" purity="7.7270150184631348e-01" nType="-99"/>
          </Node>
        </Node>
        <Node pos="r" depth="1" NCoef="0" IVar="0" Cut="1.2281464040279388e-01" cType="1" res="2.1191315725445747e-02" rms="4.3965563178062439e-01" purity="5.9773957729339600e-01" nType="0">
          <Node pos="l" depth="2" NCoef="0" IVar="5" Cut="6.6512599587440491e-02" cType="1" res="3.9592318236827850e-02" rms="4.1856083273887634e-01" purity="6.2758094072341919e-01" nType="0">
            <Node pos="l" depth="3" NCoef="0" IVar="-1" Cut="0.0000000000000000e+00" cType="1" res="1.5155132114887238e-01" rms="4.0363383293151855e-01" purity="7.4521690607070923e-01" nType="-99"/>
            <Node pos="r" depth="3" NCoef="0" IVar="-1" Cut="0.0000000000000000e+00" cType="1" res="3.3239983022212982e-02" rms="4.4618627429008484e-01" purity="3.8816520571708679e-01" nType="-99"/>
          </Node>
          <Node pos="r" depth="2" NCoef="0" IVar="3" Cut="1.0286039113998413e-01" cType="1" res="-5.5800075642764568e-03" rms="4.6736159920692444e-01" purity="5.5432385206222534e-01" nType="0">
            <Node pos="l" depth="3" NCoef="0" IVar="-1" Cut="0.0000000000000000e+00" cType="1" res="1.8219212070107460e-02" rms="4.6604102849960327e-01" purity="5.9496045112609863e-01" nType="-99"/>
            <Node pos="r" depth="3" NCoef="0" IVar="-1" Cut="0.0000000000000000e+00" cType="1" res="-8.7950818240642548e-02" rms="4.6899309754371643e-01" purity="4.5412790775299072e-01" nType="-99"/>
          </Node>
        </Node>
      </Node>
    </BinaryTree>
    <BinaryTree type="DecisionTree" boostWeight="1.0000000000000000e+00" itree="7">
      <Node pos="s" depth="0" NCoef="0" IVar="6" Cut="5.7407267391681671e-02" cType="1" res="4.2860515532083809e-04" rms="4.2924252152442932e-01" purity="4.9979531764984131e-01" nType="0">
        <Node pos="l" depth="1" NCoef="0" IVar="6" Cut="4.4901575893163681e-02" cType="1" res="-5.4194601252675056e-03" rms="4.3950086832046509e-01" purity="6.3829398155212402e-01" nType="0">
          <Node pos="l" depth="2" NCoef="0" IVar="6" Cut="2.2227754816412926e-02" cType="1" res="-1.8348130397498608e-03" rms="4.3802991509437561e-01" purity="6.6713833808898926e-01" nType="0">
            <Node pos="l" depth="3" NCoef="0" IVar="-1" Cut="0.0000000000000000e+00" cType="1" res="-1.9000349566340446e-02" rms="4.3166777491569519e-01" purity="7.0955228805541992e-01" nType="-99"/>
            <Node pos="r" depth="3" NCoef="0" IVar="-1" Cut="0.0000000000000000e+00" cType="1" res="6.8371824920177460e-02" rms="4.7317966818809509e-01" purity="4.1315361857414246e-01" nType="-99"/>
          </Node>
          <Node pos="r" depth="2" NCoef="0" IVar="1" Cut="2.7750682830810547e-01" cType="1" res="-4.5591555535793304e-02" rms="4.5372769236564636e-01" purity="3.1504330039024353e-01" nType="0">
            <Node pos="l" depth="3" NCoef="0" IVar="-1" Cut="0.0000000000000000e+00" cType="1" res="-1.7904962599277496e-01" rms="4.3875056505203247e-01" purity="2.9454705119132996e-01" nType="-99"/>
            <Node pos="r" depth="3" NCoef="0" IVar="-1" Cut="0.0000000000000000e+00" cType="1" res="-3.5350922495126724e-02" rms="4.6787145733833313e-01" purity="3.3770671486854553e-01" nType="-99"/>
          </Node>
        </Node>
        <Node pos="r" depth="1" NCoef="0" IVar="6" Cut="9.0445056557655334e-02" cType="1" res="1.2271699495613575e-02" rms="4.0742102265357971e-01" purity="2.1931754052639008e-01" nType="0">
          <Node pos="l" depth="2" NCoef="0" IVar="0" Cut="1.1351580172777176e-01" cType="1" res="3.2020360231399536e-02" rms="4.2976713180541992e-01" purity="2.5757798552513123e-01" nType="0">
            <Node pos="l" depth="3" NCoef="0" IVar="-1" Cut="0.0000000000000000e+00" cType="1" res="2.0197965204715729e-01" rms="4.4953912496566772e-01" purity="3.0643451213836670e-01" nType="-99"/>
            <Node pos="r" depth="3" NCoef="0" IVar="-1" Cut="0.0000000000000000e+00" cType="1" res="-1.8718526698648930e-03" rms="4.0791344642639160e-01" purity="2.1236024796962738e-01" nType="-99"/>
          </Node>
          <Node pos="r" depth="2" NCoef="0" IVar="2" Cut="7.4808456003665924e-02" cType="1" res="-1.2171249836683273e-03" rms="3.9085239171981812e-01" purity="1.9318470358848572e-01" nType="0">
            <Node pos="l" depth="3" NCoef="0" IVar="-1" Cut="0.0000000000000000e+00" cType="1" res="1.0866989195346832e-01" rms="4.0787869691848755e-01" purity="2.3208154737949371e-01" nType="-99"/>
            <Node pos="r" depth="3" NCoef="0" IVar="-1" Cut="0.0000000000000000e+00" cType="1" res="-2.4253858253359795e-02" rms="3.8739448785781860e-01" purity="1.8616183102130890e-01" nType="-99"/>
          </Node>
        </Node>
      </Node>
    </BinaryTree>
    <BinaryTree type="DecisionTree" boostWeight="1.0000000000000000e+00" itree="8">
      <Node pos="s" depth="0" NCoef="0" IVar="2" Cut="9.7218178212642670e-02" cType="1" res="-2.4829080794006586e-03" rms="4.2827039957046509e-01" purity="4.9733713269233704e-01" nType="0">
        <Node pos="l" depth="1" NCoef="0" IVar="4" Cut="2.1891686320304871e-01" cType="1" res="1.1772861704230309e-02" rms="4.1662031412124634e-01" purity="5.8757638931274414e-01" nType="0">
          <Node pos="l" depth="2" NCoef="0" IVar="3" Cut="5.4536066949367523e-02" cType="1" res="7.5108329765498638e-03" rms="4.1642737388610840e-01" purity="5.9536206722259521e-01" nType="0">
            <Node pos="l" depth="3" NCoef="0" IVar="-1" Cut="0.0000000000000000e+00" cType="1" res="3.9067383855581284e-02" rms="4.1757321357727051e-01" purity="7.3727589845657349e-01" nType="-99"/>
            <Node pos="r" depth="3" NCoef="0" IVar="-1" Cut="0.0000000000000000e+00" cType="1" res="-1.2099028564989567e-02" rms="4.1413077712059021e-01" purity="3.4339329600334167e-01" nType="-99"/>
          </Node>
          <Node pos="r" depth="2" NCoef="0" IVar="-1" Cut="0.0000000000000000e+00" cType="1" res="1.3755913078784943e-01" rms="4.1651621460914612e-01" purity="5.2205604314804077e-01" nType="-99"/>
        </Node>
        <Node pos="r" depth="1" NCoef="0" IVar="1" Cut="3.1833392381668091e-01" cType="1" res="-8.0051412805914879e-03" rms="4.3257278203964233e-01" purity="4.6238136291503906e-01" nType="0">
          <Node pos="l" depth="2" NCoef="0" IVar="4" Cut="2.3908242583274841e-01" cType="1" res="-1.7541015520691872e-02" rms="4.2103129625320435e-01" purity="3.3519995212554932e-01" nType="0">
            <Node pos="l" depth="3" NCoef="0" IVar="-1" Cut="0.0000000000000000e+00" cType="1" res="-4.2199756950139999e-02" rms="4.1973847150802612e-01" purity="3.3064109086990356e-01" nType="-99"/>
            <Node pos="r" depth="3" NCoef="0" IVar="-1" Cut="0.0000000000000000e+00" cType="1" res="-1.5375369787216187e-01" rms="4.3651658296585083e-01" purity="3.9863663911819458e-01" nType="-99"/>
          </Node>
          <Node pos="r" depth="2" NCoef="0" IVar="3" Cut="4.6254936605691910e-03" cType="1" res="3.5520500969141722e-03" rms="4.4588744640350342e-01" purity="6.1652135848999023e-01" nType="0">
            <Node pos="l" depth="3" NCoef="0" IVar="-1" Cut="0.0000000000000000e+00" cType="1" res="-6.6172525286674500e-02" rms="4.4627445936203003e-01" purity="7.1466314792633057e-01" nType="-99"/>
            <Node pos="r" depth="3" NCoef="0" IVar="-1" Cut="0.0000000000000000e+00" cType="1" res="2.8251197189092636e-02" rms="4.4548457860946655e-01" purity="5.9020829200744629e-01" nType="-99"/>
          </Node>
        </Node>
      </Node>
    </BinaryTree>
    <BinaryTree type="DecisionTree" boostWeight="1.0000000000000000e+00" itree="9">
      <Node pos="s" depth="0" NCoef="0" IVar="1" Cut="9.9009899422526360e-03" cType="1" res="1.6642801929265261e-03" rms="4.2802718281745911e-01" purity="4.9840921163558960e-01" nType="0">
        <Node pos="l" depth="1" NCoef="0" IVar="-1" Cut="0.0000000000000000e+00" cType="1" res="-7.8877605497837067e-02" rms="4.6057766675949097e-01" purity="6.2032580375671387e-01" nType="-99"/>
        <Node pos="r" depth="1" NCoef="0" IVar="1" Cut="1.5698765218257904e-01" cType="1" res="3.0872917268425226e-03" rms="4.2659017443656921e-01" purity="4.9345123767852783e-01" nType="0">
          <Node pos="l" depth="2" NCoef="0" IVar="0" Cut="1.3720239698886871e-01" cType="1" res="1.8534895032644272e-02" rms="4.0604773163795471e-01" purity="4.3708556890487671e-01" nType="0">
            <Node pos="l" depth="3" NCoef="0" IVar="-1" Cut="0.0000000000000000e+00" cType="1" res="8.8228493928909302e-02" rms="4.0674987435340881e-01" purity="4.4336906075477600e-01" nType="-99"/>
            <Node pos="r" depth="3" NCoef="0" IVar="-1" Cut="0.0000000000000000e+00" cType="1" res="-3.0292415991425514e-02" rms="4.0261003375053406e-01" purity="4.1811105608940125e-01" nType="-99"/>
          </Node>
          <Node pos="r" depth="2" NCoef="0" IVar="4" Cut="3.5143148154020309e-02" cType="1" res="1.3720619608648121e-04" rms="4.3033868074417114e-01" purity="5.0421553850173950e-01" nType="0">
            <Node pos="l" depth="3" NCoef="0" IVar="-1" Cut="0.0000000000000000e+00" cType="1" res="3.0853468924760818e-02" rms="4.2288482189178467e-01" purity="7.4245268106460571e-01" nType="-99"/>
            <Node pos="r" depth="3" NCoef="0" IVar="-1" Cut="0.0000000000000000e+00" cType="1" res="-1.8595315515995026e-02" rms="4.3487685918807983e-01" purity="3.5249322652816772e-01" nType="-99"/>
          </Node>
        </Node>
      </Node>
    </BinaryTree>
    <BinaryTree type="DecisionTree" boostWeight="1.0000000000000000e+00" itree="10">
      <Node pos="s" depth="0" NCoef="0" IVar="5" Cut="1.5075767040252686e-01" cType="1" res="2.6150327175855637e-03" rms="4.2672824859619141e-01" purity="5.0017416477203369e-01" nType="0">
        <Node pos="l" depth="1" NCoef="0" IVar="0" Cut="1.5841583907604218e-01" cType="1" res="5.5681709200143814e-03" rms="4.3109321594238281e-01" purity="5.4103374481201172e-01" nType="0">
          <Node pos="l" depth="2" NCoef="0" IVar="3" Cut="3.0090922117233276e-01" cType="1" res="1.2762708589434624e-02" rms="4.2967206239700317e-01" purity="5.0329059362411499e-01" nType="0">
            <Node pos="l" depth="3" NCoef="0" IVar="-1" Cut="0.0000000000000000e+00" cType="1" res="4.1116442531347275e-02" rms="4.3099617958068848e-01" purity="4.9170106649398804e-01" nType="-99"/>
            <Node pos="r" depth="3" NCoef="0" IVar="-1" Cut="0.0000000000000000e+00" cType="1" res="-6.6855862736701965e-02" rms="4.0345495939254761e-01" purity="7.1311432123184204e-01" nType="-99"/>
          </Node>
          <Node pos="r" depth="2" NCoef="0" IVar="4" Cut="3.3318165689706802e-02" cType="1" res="-4.5389551669359207e-03" rms="4.3287986516952515e-01" purity="5.9405648708343506e-01" nType="0">
            <Node pos="l" depth="3" NCoef="0" IVar="-1" Cut="0.0000000000000000e+00" cType="1" res="1.2963035143911839e-02" rms="4.2493996024131775e-01" purity="7.4826914072036743e-01" nType="-99"/>
            <Node pos="r" depth="3" NCoef="0" IVar="-1" Cut="0.0000000000000000e+00" cType="1" res="-4.6525754034519196e-02" rms="4.4391313195228577e-01" purity="3.6815145611763000e-01" nType="-99"/>
          </Node>
        </Node>
        <Node pos="r" depth="1" NCoef="0" IVar="3" Cut="1.4514683187007904e-01" cType="1" res="-1.5869643539190292e-02" rms="3.9782351255416870e-01" purity="2.4442051351070404e-01" nType="0">
          <Node pos="l" depth="2" NCoef="0" IVar="2" Cut="1.3424316048622131e-01" cType="1" res="-4.6201432123780251e-03" rms="3.9828205108642578e-01" purity="2.4117855727672577e-01" nType="0">
            <Node pos="l" depth="3" NCoef="0" IVar="-1" Cut="0.0000000000000000e+00" cType="1" res="3.3913630992174149e-02" rms="3.9846986532211304e-01" purity="2.6531803607940674e-01" nType="-99"/>
            <Node pos="r" depth="3" NCoef="0" IVar="-1" Cut="0.0000000000000000e+00" cType="1" res="-6.9630466401576996e-02" rms="3.9733800292015076e-01" purity="2.1319758892059326e-01" nType="-99"/>
          </Node>
          <Node pos="r" depth="2" NCoef="0" IVar="-1" Cut="0.0000000000000000e+00" cType="1" res="-1.2094298750162125e-01" rms="3.9573571085929871e-01" purity="2.5143715739250183e-01" nType="-99"/>
        </Node>
      </Node>
    </BinaryTree>
    <BinaryTree type="DecisionTree" boostWeight="1.0000000000000000e+00" itree="11">
      <Node pos="s" depth="0" NCoef="0" IVar="4" Cut="2.7602562308311462e-01" cType="1" res="-7.4700830737128854e-04" rms="4.2713436484336853e-01" purity="5.0062346458435059e-01" nType="0">
        <Node pos="l" depth="1" NCoef="0" IVar="1" Cut="3.0693069100379944e-01" cType="1" res="1.0804958874359727e-03" rms="4.2701694369316101e-01" purity="4.9903267621994019e-01" nType="0">
          <Node pos="l" depth="2" NCoef="0" IVar="0" Cut="3.9603959769010544e-02" cType="1" res="9.3756811693310738e-03" rms="4.1890409588813782e-01" purity="3.7108206748962402e-01" nType="0">
            <Node pos="l" depth="3" NCoef="0" IVar="-1" Cut="0.0000000000000000e+00" cType="1" res="-3.8475710898637772e-02" rms="4.3236050009727478e-01" purity="6.1346352100372314e-01" nType="-99"/>
            <Node pos="r" depth="3" NCoef="0" IVar="-1" Cut="0.0000000000000000e+00" cType="1" res="3.9255488663911819e-02" rms="4.1686674952507019e-01" purity="3.3710914850234985e-01" nType="-99"/>
          </Node>
          <Node pos="r" depth="2" NCoef="0" IVar="5" Cut="6.1584379523992538e-02" cType="1" res="-7.3240608908236027e-03" rms="4.3492114543914795e-01" purity="6.2867027521133423e-01" nType="0">
            <Node pos="l" depth="3" NCoef="0" IVar="-1" Cut="0.0000000000000000e+00" cType="1" res="-6.9125513546168804e-03" rms="4.3040245771408081e-01" purity="7.0900702476501465e-01" nType="-99"/>
            <Node pos="r" depth="3" NCoef="0" IVar="-1" Cut="0.0000000000000000e+00" cType="1" res="-6.4014129340648651e-02" rms="4.5136576890945435e-01" purity="3.2019245624542236e-01" nType="-99"/>
          </Node>
        </Node>
        <Node pos="r" depth="1" NCoef="0" IVar="-1" Cut="0.0000000000000000e+00" cType="1" res="-1.5609110891819000e-01" rms="4.2686015367507935e-01" purity="5.5037492513656616e-01" nType="-99"/>
      </Node>
    </BinaryTree>
    <BinaryTree type="DecisionTree" boostWeight="1.0000000000000000e+00" itree="12">
      <Node pos="s" depth="0" NCoef="0" IVar="1" Cut="4.6534654498100281e-01" cType="1" res="-1.1609720531851053e-03" rms="4.2664781212806702e-01" purity="5.0023245811462402e-01" nType="0">
        <Node pos="l" depth="1" NCoef="0" IVar="0" Cut="2.1782177686691284e-01" cType="1" res="2.2476229351013899e-03" rms="4.2960378527641296e-01" purity="4.1792124509811401e-01" nType="0">
          <Node pos="l" depth="2" NCoef="0" IVar="2" Cut="2.3762376606464386e-01" cType="1" res="-1.3731934595853090e-03" rms="4.2929860949516296e-01" purity="3.6908400058746338e-01" nType="0">
            <Node pos="l" depth="3" NCoef="0" IVar="-1" Cut="0.0000000000000000e+00" cType="1" res="9.2665161937475204e-03" rms="4.2497116327285767e-01" purity="3.0284962058067322e-01" nType="-99"/>
            <Node pos="r" depth="3" NCoef="0" IVar="-1" Cut="0.0000000000000000e+00" cType="1" res="-3.5784203559160233e-02" rms="4.4031155109405518e-01" purity="5.4438793659210205e-01" nType="-99"/>
          </Node>
          <Node pos="r" depth="2" NCoef="0" IVar="1" Cut="3.4093561768531799e-01" cType="1" res="1.8743047490715981e-02" rms="4.3060627579689026e-01" purity="6.4041024446487427e-01" nType="0">
            <Node pos="l" depth="3" NCoef="0" IVar="-1" Cut="0.0000000000000000e+00" cType="1" res="1.5105962753295898e-02" rms="4.2795848846435547e-01" purity="6.0249143838882446e-01" nType="-99"/>
            <Node pos="r" depth="3" NCoef="0" IVar="-1" Cut="0.0000000000000000e+00" cType="1" res="1.0594519972801208e-01" rms="4.3407765030860901e-01" purity="7.0388889312744141e-01" nType="-99"/>
          </Node>
        </Node>
        <Node pos="r" depth="1" NCoef="0" IVar="1" Cut="5.2357965707778931e-01" cType="1" res="-1.1978497728705406e-02" rms="4.1694352030754089e-01" purity="7.6145559549331665e-01" nType="0">
          <Node pos="l" depth="2" NCoef="0" IVar="0" Cut="1.6928374767303467e-01" cType="1" res="-3.1082639470696449e-02" rms="4.4995388388633728e-01" purity="6.8882405757904053e-01" nType="0">
            <Node pos="l" depth="3" NCoef="0" IVar="-1" Cut="0.0000000000000000e+00" cType="1" res="-1.1957143992185593e-01" rms="4.5615625381469727e-01" purity="6.6505193710327148e-01" nType="-99"/>
            <Node pos="r" depth="3" NCoef="0" IVar="-1" Cut="0.0000000000000000e+00" cType="1" res="-5.6311305612325668e-02" rms="4.4448706507682800e-01" purity="7.0853978395462036e-01" nType="-99"/>
          </Node>
          <Node pos="r" depth="2" NCoef="0" IVar="2" Cut="5.4781798273324966e-02" cType="1" res="-5.7034422643482685e-03" rms="4.0531846880912781e-01" purity="7.8531259298324585e-01" nType="0">
            <Node pos="l" depth="3" NCoef="0" IVar="-1" Cut="0.0000000000000000e+00" cType="1" res="-7.1215830743312836e-02" rms="4.1670611500740051e-01" purity="7.7262413501739502e-01" nType="-99"/>
            <Node pos="r" depth="3" NCoef="0" IVar="-1" Cut="0.0000000000000000e+00" cType="1" res="6.2679774127900600e-03" rms="3.9985489845275879e-01" purity="7.9101604223251343e-01" nType="-99"/>
          </Node>
        </Node>
      </Node>
    </BinaryTree>
    <BinaryTree type="DecisionTree" boostWeight="1.0000000000000000e+00" itree="13">
      <Node pos="s" depth="0" NCoef="0" IVar="0" Cut="2.0792078971862793e-01" cType="1" res="-1.7613871023058891e-03" rms="4.2623803019523621e-01" purity="4.9938699603080750e-01" nType="0">
        <Node pos="l" depth="1" NCoef="0" IVar="0" Cut="2.4703035131096840e-02" cType="1" res="1.6374157276004553e-03" rms="4.2480173707008362e-01" purity="4.5033919811248779e-01" nType="0">
          <Node pos="l" depth="2" NCoef="0" IVar="0" Cut="7.3355255881324410e-04" cType="1" res="2.2353105247020721e-02" rms="4.1441962122917175e-01" purity="6.9274234771728516e-01" nType="0">
            <Node pos="l" depth="3" NCoef="0" IVar="-1" Cut="0.0000000000000000e+00" cType="1" res="-1.0248778853565454e-03" rms="4.9005320668220520e-01" purity="5.5123877525329590e-01" nType="-99"/>
            <Node pos="r" depth="3" NCoef="0" IVar="-1" Cut="0.0000000000000000e+00" cType="1" res="1.8368782103061676e-01" rms="3.0691933631896973e-01" purity="8.5059463977813721e-01" nType="-99"/>
          </Node>
          <Node pos="r" depth="2" NCoef="0" IVar="6" Cut="1.8657360970973969e-01" cType="1" res="-1.7813672457123175e-05" rms="4.2557686567306519e-01" purity="4.3097072839736938e-01" nType="0">
            <Node pos="l" depth="3" NCoef="0" IVar="-1" Cut="0.0000000000000000e+00" cType="1" res="3.0824611894786358e-03" rms="4.2766126990318298e-01" purity="4.4084122776985168e-01" nType="-99"/>
            <Node pos="r" depth="3" NCoef="0" IVar="-1" Cut="0.0000000000000000e+00" cType="1" res="-9.9162764847278595e-02" rms="3.6432585120201111e-01" purity="1.6755005717277527e-01" nType="-99"/>
          </Node>
        </Node>
        <Node pos="r" depth="1" NCoef="0" IVar="1" Cut="4.3114438652992249e-01" cType="1" res="-1.2772431597113609e-02" rms="4.3067410588264465e-01" purity="6.5828615427017212e-01" nType="0">
          <Node pos="l" depth="2" NCoef="0" IVar="1" Cut="1.7073936760425568e-01" cType="1" res="-2.1576493978500366e-02" rms="4.3524190783500671e-01" purity="5.8228039741516113e-01" nType="0">
            <Node pos="l" depth="3" NCoef="0" IVar="-1" Cut="0.0000000000000000e+00" cType="1" res="1.7405822873115540e-03" rms="3.9657974243164062e-01" purity="6.8280744552612305e-01" nType="-99"/>
            <Node pos="r" depth="3" NCoef="0" IVar="-1" Cut="0.0000000000000000e+00" cType="1" res="-7.6952643692493439e-02" rms="4.4692280888557434e-01" purity="5.4940700531005859e-01" nType="-99"/>
          </Node>
          <Node pos="r" depth="2" NCoef="0" IVar="0" Cut="3.4723883867263794e-01" cType="1" res="-1.5197286847978830e-03" rms="4.2449858784675598e-01" purity="7.5543105602264404e-01" nType="0">
            <Node pos="l" depth="3" NCoef="0" IVar="-1" Cut="0.0000000000000000e+00" cType="1" res="-2.8683925047516823e-02" rms="4.3792834877967834e-01" purity="7.3146677017211914e-01" nType="-99"/>
            <Node pos="r" depth="3" NCoef="0" IVar="-1" Cut="0.0000000000000000e+00" cType="1" res="6.4761772751808167e-02" rms="3.8830441236495972e-01" purity="8.1483697891235352e-01" nType="-99"/>
          </Node>
        </Node>
      </Node>
    </BinaryTree>
    <BinaryTree type="DecisionTree" boostWeight="1.0000000000000000e+00" itree="14">
      <Node pos="s" depth="0" NCoef="0" IVar="6" Cut="7.4472211301326752e-02" cType="1" res="-2.0308913371991366e-04" rms="4.2556110024452209e-01" purity="4.9918323755264282e-01" nType="0">
        <Node pos="l" depth="1" NCoef="0" IVar="4" Cut="2.4747124314308167e-01" cType="1" res="3.4350615460425615e-03" rms="4.3721008300781250e-01" purity="6.0379695892333984e-01" nType="0">
          <Node pos="l" depth="2" NCoef="0" IVar="4" Cut="2.4493588134646416e-03" cType="1" res="1.5900253783911467e-03" rms="4.3761518597602844e-01" purity="6.0284179449081421e-01" nType="0">
            <Node pos="l" depth="3" NCoef="0" IVar="-1" Cut="0.0000000000000000e+00" cType="1" res="-1.8509062007069588e-02" rms="4.3157356977462769e-01" purity="7.3491549491882324e-01" nType="-99"/>
            <Node pos="r" depth="3" NCoef="0" IVar="-1" Cut="0.0000000000000000e+00" cType="1" res="1.8076516687870026e-02" rms="4.4132918119430542e-01" purity="5.1894438266754150e-01" nType="-99"/>
          </Node>
          <Node pos="r" depth="2" NCoef="0" IVar="-1" Cut="0.0000000000000000e+00" cType="1" res="1.2629362940788269e-01" rms="4.2527401447296143e-01" purity="6.2625372409820557e-01" nType="-99"/>
        </Node>
        <Node pos="r" depth="1" NCoef="0" IVar="3" Cut="1.4374037086963654e-01" cType="1" res="-1.0770602151751518e-02" rms="3.8956305384635925e-01" purity="1.9531825184822083e-01" nType="0">
          <Node pos="l" depth="2" NCoef="0" IVar="5" Cut="7.4120573699474335e-02" cType="1" res="7.3484698077663779e-04" rms="3.9398038387298584e-01" purity="2.0080251991748810e-01" nType="0">
            <Node pos="l" depth="3" NCoef="0" IVar="-1" Cut="0.0000000000000000e+00" cType="1" res="9.5682293176651001e-02" rms="4.3850269913673401e-01" purity="2.7255713939666748e-01" nType="-99"/>
            <Node pos="r" depth="3" NCoef="0" IVar="-1" Cut="0.0000000000000000e+00" cType="1" res="-2.0451134070754051e-02" rms="3.8379991054534912e-01" purity="1.8598942458629608e-01" nType="-99"/>
          </Node>
          <Node pos="r" depth="2" NCoef="0" IVar="6" Cut="1.2817648053169250e-01" cType="1" res="-3.3176690340042114e-02" rms="3.7981459498405457e-01" purity="1.8463802337646484e-01" nType="0">
            <Node pos="l" depth="3" NCoef="0" IVar="-1" Cut="0.0000000000000000e+00" cType="1" res="-1.2436721473932266e-01" rms="3.8788515329360962e-01" purity="1.9878642261028290e-01" nType="-99"/>
            <Node pos="r" depth="3" NCoef="0" IVar="-1" Cut="0.0000000000000000e+00" cType="1" res="-6.1479341238737106e-02" rms="3.6256787180900574e-01" purity="1.5635271370410919e-01" nType="-99"/>
          </Node>
        </Node>
      </Node>
    </BinaryTree>
    <BinaryTree type="DecisionTree" boostWeight="1.0000000000000000e+00" itree="15">
      <Node pos="s" depth="0" NCoef="0" IVar="4" Cut="2.0939874649047852e-01" cType="1" res="3.3957241103053093e-03" rms="4.2469397187232971e-01" purity="5.0181734561920166e-01" nType="0">
        <Node pos="l" depth="1" NCoef="0" IVar="4" Cut="4.9757640808820724e-02" cType="1" res="5.6495205499231815e-03" rms="4.2466896772384644e-01" purity="5.1069301366806030e-01" nType="0">
          <Node pos="l" depth="2" NCoef="0" IVar="0" Cut="1.1881188303232193e-01" cType="1" res="1.2006540782749653e-02" rms="4.2215719819068909e-01" purity="7.2143572568893433e-01" nType="0">
            <Node pos="l" depth="3" NCoef="0" IVar="-1" Cut="0.0000000000000000e+00" cType="1" res="-7.1174730546772480e-03" rms="4.1299983859062195e-01" purity="7.2257155179977417e-01" nType="-99"/>
            <Node pos="r" depth="3" NCoef="0" IVar="-1" Cut="0.0000000000000000e+00" cType="1" res="5.0680208951234818e-02" rms="4.2616024613380432e-01" purity="7.2091066837310791e-01" nType="-99"/>
          </Node>
          <Node pos="r" depth="2" NCoef="0" IVar="6" Cut="5.4490707814693451e-02" cType="1" res="3.5266147460788488e-04" rms="4.2667821049690247e-01" purity="3.3509585261344910e-01" nType="0">
            <Node pos="l" depth="3" NCoef="0" IVar="-1" Cut="0.0000000000000000e+00" cType="1" res="-2.4950603023171425e-02" rms="4.5529994368553162e-01" purity="4.8632454872131348e-01" nType="-99"/>
            <Node pos="r" depth="3" NCoef="0" IVar="-1" Cut="0.0000000000000000e+00" cType="1" res="3.0180407688021660e-02" rms="4.0124243497848511e-01" purity="2.0995378494262695e-01" nType="-99"/>
          </Node>
        </Node>
        <Node pos="r" depth="1" NCoef="0" IVar="0" Cut="9.5849588513374329e-02" cType="1" res="-2.1819822490215302e-02" rms="4.2415800690650940e-01" purity="4.0251660346984863e-01" nType="0">
          <Node pos="l" depth="2" NCoef="0" IVar="4" Cut="2.6152887940406799e-01" cType="1" res="-9.7359512001276016e-03" rms="4.2371141910552979e-01" purity="4.7705787420272827e-01" nType="0">
            <Node pos="l" depth="3" NCoef="0" IVar="-1" Cut="0.0000000000000000e+00" cType="1" res="1.7056136857718229e-03" rms="4.3037313222885132e-01" purity="3.7111142277717590e-01" nType="-99"/>
            <Node pos="r" depth="3" NCoef="0" IVar="-1" Cut="0.0000000000000000e+00" cType="1" res="-5.8809764683246613e-02" rms="4.1685870289802551e-01" purity="5.8048248291015625e-01" nType="-99"/>
          </Node>
          <Node pos="r" depth="2" NCoef="0" IVar="-1" Cut="0.0000000000000000e+00" cType="1" res="-1.1098768562078476e-01" rms="4.2414128780364990e-01" purity="2.7937871217727661e-01" nType="-99"/>
        </Node>
      </Node>
    </BinaryTree>
    <BinaryTree type="DecisionTree" boostWeight="1.0000000000000000e+00" itree="16">
      <Node pos="s" depth="0" NCoef="0" IVar="4" Cut="1.3325373828411102e-01" cType="1" res="-2.2338170092552900e-03" rms="4.2607498168945312e-01" purity="4.9942776560783386e-01" nType="0">
        <Node pos="l" depth="1" NCoef="0" IVar="4" Cut="1.3193219201639295e-03" cType="1" res="-6.6227954812347889e-03" rms="4.2903563380241394e-01" purity="5.6082618236541748e-01" nType="0">
          <Node pos="l" depth="2" NCoef="0" IVar="3" Cut="9.0334430336952209e-02" cType="1" res="-1.4331383630633354e-02" rms="4.3118903040885925e-01" purity="7.3085093498229980e-01" nType="0">
            <Node pos="l" depth="3" NCoef="0" IVar="-1" Cut="0.0000000000000000e+00" cType="1" res="-2.8888123109936714e-02" rms="4.2569631338119507e-01" purity="7.4382454156875610e-01" nType="-99"/>
            <Node pos="r" depth="3" NCoef="0" IVar="-1" Cut="0.0000000000000000e+00" cType="1" res="-1.3498367369174957e-01" rms="4.7955465316772461e-01" purity="6.0428613424301147e-01" nType="-99"/>
          </Node>
          <Node pos="r" depth="2" NCoef="0" IVar="4" Cut="1.3259775936603546e-02" cType="1" res="-1.9731172360479832e-03" rms="4.2766433954238892e-01" purity="4.5827043056488037e-01" nType="0">
            <Node pos="l" depth="3" NCoef="0" IVar="-1" Cut="0.0000000000000000e+00" cType="1" res="1.3428732752799988e-01" rms="3.5098472237586975e-01" purity="8.3862638473510742e-01" nType="-99"/>
            <Node pos="r" depth="3" NCoef="0" IVar="-1" Cut="0.0000000000000000e+00" cType="1" res="-1.2460310943424702e-02" rms="4.3201175332069397e-01" purity="4.3377542495727539e-01" nType="-99"/>
          </Node>
        </Node>
        <Node pos="r" depth="1" NCoef="0" IVar="3" Cut="2.5713953375816345e-01" cType="1" res="1.0167214088141918e-02" rms="4.1734683513641357e-01" purity="3.2594695687294006e-01" nType="0">
          <Node pos="l" depth="2" NCoef="0" IVar="6" Cut="4.8725809901952744e-03" cType="1" res="4.6686828136444092e-03" rms="4.1751313209533691e-01" purity="2.8907901048660278e-01" nType="0">
            <Node pos="l" depth="3" NCoef="0" IVar="-1" Cut="0.0000000000000000e+00" cType="1" res="5.8393988758325577e-02" rms="4.5643022656440735e-01" purity="5.6781357526779175e-01" nType="-99"/>
            <Node pos="r" depth="3" NCoef="0" IVar="-1" Cut="0.0000000000000000e+00" cType="1" res="4.4345096684992313e-03" rms="4.1071537137031555e-01" purity="2.4354989826679230e-01" nType="-99"/>
          </Node>
          <Node pos="r" depth="2" NCoef="0" IVar="-1" Cut="0.0000000000000000e+00" cType="1" res="1.6990017890930176e-01" rms="4.1262269020080566e-01" purity="6.5518367290496826e-01" nType="-99"/>
        </Node>
      </Node>
    </BinaryTree>
    <BinaryTree type="DecisionTree" boostWeight="1.0000000000000000e+00" itree="17">
      <Node pos="s" depth="0" NCoef="0" IVar="3" Cut="3.1103104352951050e-01" cType="1" res="-5.1882219850085676e-05" rms="4.2694532871246338e-01" purity="4.9888852238655090e-01" nType="0">
        <Node pos="l" depth="1" NCoef="0" IVar="3" Cut="8.6169257760047913e-02" cType="1" res="1.0614633793011308e-03" rms="4.2744243144989014e-01" purity="4.9294650554656982e-01" nType="0">
          <Node pos="l" depth="2" NCoef="0" IVar="1" Cut="1.7821782827377319e-01" cType="1" res="-5.8857938274741173e-03" rms="4.2440390586853027e-01" purity="6.1391329765319824e-01" nType="0">
            <Node pos="l" depth="3" NCoef="0" IVar="-1" Cut="0.0000000000000000e+00" cType="1" res="5.7831358164548874e-02" rms="4.2673775553703308e-01" purity="5.9289234876632690e-01" nType="-99"/>
            <Node pos="r" depth="3" NCoef="0" IVar="-1" Cut="0.0000000000000000e+00" cType="1" res="-3.1925257295370102e-02" rms="4.2375144362449646e-01" purity="6.1796891689300537e-01" nType="-99"/>
          </Node>
          <Node pos="r" depth="2" NCoef="0" IVar="0" Cut="2.1650297939777374e-01" cType="1" res="8.1411786377429962e-03" rms="4.3040150403976440e-01" purity="3.6967337131500244e-01" nType="0">
            <Node pos="l" depth="3" NCoef="0" IVar="-1" Cut="0.0000000000000000e+00" cType="1" res="1.6234794631600380e-02" rms="4.2771476507186890e-01" purity="3.5935506224632263e-01" nType="-99"/>
            <Node pos="r" depth="3" NCoef="0" IVar="-1" Cut="0.0000000000000000e+00" cType="1" res="8.7056487798690796e-02" rms="4.5886045694351196e-01" purity="4.8658296465873718e-01" nType="-99"/>
          </Node>
        </Node>
        <Node pos="r" depth="1" NCoef="0" IVar="-1" Cut="0.0000000000000000e+00" cType="1" res="-1.2475928664207458e-01" rms="4.0713727474212646e-01" purity="7.0794802904129028e-01" nType="-99"/>
      </Node>
    </BinaryTree>
    <BinaryTree type="DecisionTree" boostWeight="1.0000000000000000e+00" itree="18">
      <Node pos="s" depth="0" NCoef="0" IVar="1" Cut="3.0693069100379944e-01" cType="1" res="1.5123910270631313e-03" rms="4.2482268810272217e-01" purity="5.0096774101257324e-01" nType="0">
        <Node pos="l" depth="1" NCoef="0" IVar="5" Cut="2.4328052997589111e-01" cType="1" res="-6.3229938969016075e-03" rms="4.1535252332687378e-01" purity="3.7932837009429932e-01" nType="0">
          <Node pos="l" depth="2" NCoef="0" IVar="2" Cut="3.4026363492012024e-01" cType="1" res="-8.2220211625099182e-03" rms="4.1467648744583130e-01" purity="3.8040420413017273e-01" nType="0">
            <Node pos="l" depth="3" NCoef="0" IVar="-1" Cut="0.0000000000000000e+00" cType="1" res="-2.9294559732079506e-02" rms="4.1446730494499207e-01" purity="3.3822479844093323e-01" nType="-99"/>
            <Node pos="r" depth="3" NCoef="0" IVar="-1" Cut="0.0000000000000000e+00" cType="1" res="1.7500037327408791e-02" rms="4.1606214642524719e-01" purity="7.1479105949401855e-01" nType="-99"/>
          </Node>
          <Node pos="r" depth="2" NCoef="0" IVar="-1" Cut="0.0000000000000000e+00" cType="1" res="8.4832265973091125e-02" rms="4.2634263634681702e-01" purity="3.5899165272712708e-01" nType="-99"/>
        </Node>
        <Node pos="r" depth="1" NCoef="0" IVar="4" Cut="8.1666730344295502e-02" cType="1" res="9.8682390525937080e-03" rms="4.3453899025917053e-01" purity="6.3068699836730957e-01" nType="0">
          <Node pos="l" depth="2" NCoef="0" IVar="2" Cut="1.6583006083965302e-01" cType="1" res="1.3943086378276348e-02" rms="4.2706027626991272e-01" purity="6.9781440496444702e-01" nType="0">
            <Node pos="l" depth="3" NCoef="0" IVar="-1" Cut="0.0000000000000000e+00" cType="1" res="2.0631799474358559e-02" rms="4.1933241486549377e-01" purity="7.0836430788040161e-01" nType="-99"/>
            <Node pos="r" depth="3" NCoef="0" IVar="-1" Cut="0.0000000000000000e+00" cType="1" res="5.6722581386566162e-02" rms="4.3541884422302246e-01" purity="6.8601143360137939e-01" nType="-99"/>
          </Node>
          <Node pos="r" depth="2" NCoef="0" IVar="6" Cut="2.6991611812263727e-03" cType="1" res="-4.2574531398713589e-03" rms="4.5924320816993713e-01" purity="3.9798614382743835e-01" nType="0">
            <Node pos="l" depth="3" NCoef="0" IVar="-1" Cut="0.0000000000000000e+00" cType="1" res="-6.6868834197521210e-02" rms="4.7091633081436157e-01" purity="5.5183619260787964e-01" nType="-99"/>
            <Node pos="r" depth="3" NCoef="0" IVar="-1" Cut="0.0000000000000000e+00" cType="1" res="1.7126120626926422e-02" rms="4.5357975363731384e-01" purity="3.3039191365242004e-01" nType="-99"/>
          </Node>
        </Node>
      </Node>
    </BinaryTree>
    <BinaryTree type="DecisionTree" boostWeight="1.0000000000000000e+00" itree="19">
      <Node pos="s" depth="0" NCoef="0" IVar="0" Cut="1.3861386477947235e-01" cType="1" res="-3.1026934739202261e-03" rms="4.2611217498779297e-01" purity="4.9694585800170898e-01" nType="0">
        <Node pos="l" depth="1" NCoef="0" IVar="3" Cut="2.7100327610969543e-01" cType="1" res="1.1185299372300506e-03" rms="4.2131841182708740e-01" purity="4.6240633726119995e-01" nType="0">
          <Node pos="l" depth="2" NCoef="0" IVar="2" Cut="3.8613861799240112e-01" cType="1" res="-8.1360695185139775e-04" rms="4.2205396294593811e-01" purity="4.4747865200042725e-01" nType="0">
            <Node pos="l" depth="3" NCoef="0" IVar="-1" Cut="0.0000000000000000e+00" cType="1" res="3.6809663288295269e-03" rms="4.2501145601272583e-01" purity="4.1552403569221497e-01" nType="-99"/>
            <Node pos="r" depth="3" NCoef="0" IVar="-1" Cut="0.0000000000000000e+00" cType="1" res="-8.6956612765789032e-02" rms="3.8818752765655518e-01" purity="7.9035907983779907e-01" nType="-99"/>
          </Node>
          <Node pos="r" depth="2" NCoef="0" IVar="-1" Cut="0.0000000000000000e+00" cType="1" res="7.7064521610736847e-02" rms="4.1052478551864624e-01" purity="6.6131651401519775e-01" nType="-99"/>
        </Node>
        <Node pos="r" depth="1" NCoef="0" IVar="1" Cut="6.3948971033096313e-01" cType="1" res="-8.1220986321568489e-03" rms="4.3168938159942627e-01" purity="5.3801643848419189e-01" nType="0">
          <Node pos="l" depth="2" NCoef="0" IVar="5" Cut="6.4707887358963490e-03" cType="1" res="-1.0241624899208546e-02" rms="4.3388566374778748e-01" purity="5.1036232709884644e-01" nType="0">
            <Node pos="l" depth="3" NCoef="0" IVar="-1" Cut="0.0000000000000000e+00" cType="1" res="-4.9829233437776566e-02" rms="4.3973377346992493e-01" purity="7.0988816022872925e-01" nType="-99"/>
            <Node pos="r" depth="3" NCoef="0" IVar="-1" Cut="0.0000000000000000e+00" cType="1" res="-7.9877199605107307e-03" rms="4.2832627892494202e-01" purity="3.2760113477706909e-01" nType="-99"/>
          </Node>
          <Node pos="r" depth="2" NCoef="0" IVar="-1" Cut="0.0000000000000000e+00" cType="1" res="3.0926883220672607e-02" rms="4.1115552186965942e-01" purity="7.8402447700500488e-01" nType="-99"/>
        </Node>
      </Node>
    </BinaryTree>
    <BinaryTree type="DecisionTree" boostWeight="1.0000000000000000e+00" itree="20">
      <Node pos="s" depth="0" NCoef="0" IVar="3" Cut="2.7443915605545044e-02" cType="1" res="3.0282784719020128e-03" rms="4.2466238141059875e-01" purity="4.9989470839500427e-01" nType="0">
        <Node pos="l" depth="1" NCoef="0" IVar="2" Cut="3.3663365244865417e-01" cType="1" res="1.4838417991995811e-02" rms="4.1833630204200745e-01" purity="7.4108475446701050e-01" nType="0">
          <Node pos="l" depth="2" NCoef="0" IVar="3" Cut="2.7167124790139496e-04" cType="1" res="1.2163583189249039e-02" rms="4.1853737831115723e-01" purity="7.3859733343124390e-01" nType="0">
            <Node pos="l" depth="3" NCoef="0" IVar="-1" Cut="0.0000000000000000e+00" cType="1" res="1.9326871261000633e-02" rms="4.2659452557563782e-01" purity="7.3691284656524658e-01" nType="-99"/>
            <Node pos="r" depth="3" NCoef="0" IVar="-1" Cut="0.0000000000000000e+00" cType="1" res="1.0277552157640457e-01" rms="3.8496682047843933e-01" purity="7.4515068531036377e-01" nType="-99"/>
          </Node>
          <Node pos="r" depth="2" NCoef="0" IVar="-1" Cut="0.0000000000000000e+00" cType="1" res="1.0181359201669693e-01" rms="4.1592177748680115e-01" purity="7.6227855682373047e-01" nType="-99"/>
        </Node>
        <Node pos="r" depth="1" NCoef="0" IVar="3" Cut="6.2949538230895996e-02" cType="1" res="-1.1774832382798195e-03" rms="4.2681363224983215e-01" purity="4.1400343179702759e-01" nType="0">
          <Node pos="l" depth="2" NCoef="0" IVar="1" Cut="3.4211659431457520e-01" cType="1" res="-1.4195390976965427e-02" rms="4.2651450634002686e-01" purity="5.3449201583862305e-01" nType="0">
            <Node pos="l" depth="3" NCoef="0" IVar="-1" Cut="0.0000000000000000e+00" cType="1" res="4.4967760331928730e-03" rms="4.1950607299804688e-01" purity="3.5442888736724854e-01" nType="-99"/>
            <Node pos="r" depth="3" NCoef="0" IVar="-1" Cut="0.0000000000000000e+00" cType="1" res="-6.8033590912818909e-02" rms="4.3035590648651123e-01" purity="6.4161235094070435e-01" nType="-99"/>
          </Node>
          <Node pos="r" depth="2" NCoef="0" IVar="5" Cut="3.6147892475128174e-02" cType="1" res="1.4550345949828625e-03" rms="4.2682585120201111e-01" purity="3.8963788747787476e-01" nType="0">
            <Node pos="l" depth="3" NCoef="0" IVar="-1" Cut="0.0000000000000000e+00" cType="1" res="3.2736107707023621e-02" rms="4.4314354658126831e-01" purity="6.6168463230133057e-01" nType="-99"/>
            <Node pos="r" depth="3" NCoef="0" IVar="-1" Cut="0.0000000000000000e+00" cType="1" res="-7.9189343377947807e-03" rms="4.2051744461059570e-01" purity="2.8842681646347046e-01" nType="-99"/>
          </Node>
        </Node>
      </Node>
    </BinaryTree>
    <BinaryTree type="DecisionTree" boostWeight="1.0000000000000000e+00" itree="21">
      <Node pos="s" depth="0" NCoef="0" IVar="3" Cut="2.5293639302253723e-01" cType="1" res="7.0585485082119703e-04" rms="4.2517447471618652e-01" purity="4.9874368309974670e-01" nType="0">
        <Node pos="l" depth="1" NCoef="0" IVar="0" Cut="3.9603959769010544e-02" cType="1" res="2.4400711990892887e-03" rms="4.2502859234809875e-01" purity="4.9368596076965332e-01" nType="0">
          <Node pos="l" depth="2" NCoef="0" IVar="2" Cut="2.0284213125705719e-01" cType="1" res="-1.8092976883053780e-02" rms="4.1362491250038147e-01" purity="6.5280735492706299e-01" nType="0">
            <Node pos="l" depth="3" NCoef="0" IVar="-1" Cut="0.0000000000000000e+00" cType="1" res="-7.5559347867965698e-02" rms="4.5276343822479248e-01" purity="5.6242835521697998e-01" nType="-99"/>
            <Node pos="r" depth="3" NCoef="0" IVar="-1" Cut="0.0000000000000000e+00" cType="1" res="2.3829456418752670e-02" rms="3.3383059501647949e-01" purity="8.0936068296432495e-01" nType="-99"/>
          </Node>
          <Node pos="r" depth="2" NCoef="0" IVar="5" Cut="9.8826862871646881e-02" cType="1" res="4.2117713019251823e-03" rms="4.2595186829566956e-01" purity="4.7995612025260925e-01" nType="0">
            <Node pos="l" depth="3" NCoef="0" IVar="-1" Cut="0.0000000000000000e+00" cType="1" res="-2.6120799593627453e-03" rms="4.3396118283271790e-01" purity="5.9212756156921387e-01" nType="-99"/>
            <Node pos="r" depth="3" NCoef="0" IVar="-1" Cut="0.0000000000000000e+00" cType="1" res="5.2379988133907318e-02" rms="4.0705841779708862e-01" purity="2.2683718800544739e-01" nType="-99"/>
          </Node>
        </Node>
        <Node pos="r" depth="1" NCoef="0" IVar="5" Cut="6.3575573265552521e-02" cType="1" res="-2.7481792494654655e-02" rms="4.2655095458030701e-01" purity="5.8095127344131470e-01" nType="0">
          <Node pos="l" depth="2" NCoef="0" IVar="-1" Cut="0.0000000000000000e+00" cType="1" res="-2.3892626166343689e-02" rms="4.2095136642456055e-01" purity="6.8975907564163208e-01" nType="-99"/>
          <Node pos="r" depth="2" NCoef="0" IVar="-1" Cut="0.0000000000000000e+00" cType="1" res="-1.3963094353675842e-01" rms="4.3221902847290039e-01" purity="4.4568270444869995e-01" nType="-99"/>
        </Node>
      </Node>
    </BinaryTree>
    <BinaryTree type="DecisionTree" boostWeight="1.0000000000000000e+00" itree="22">
      <Node pos="s" depth="0" NCoef="0" IVar="5" Cut="1.2518818676471710e-01" cType="1" res="-3.1489762477576733e-03" rms="4.2523527145385742e-01" purity="4.9756833910942078e-01" nType="0">
        <Node pos="l" depth="1" NCoef="0" IVar="0" Cut="5.9405941516160965e-02" cType="1" res="7.7291473280638456e-04" rms="4.3202310800552368e-01" purity="5.6613594293594360e-01" nType="0">
          <Node pos="l" depth="2" NCoef="0" IVar="3" Cut="1.2725082039833069e-01" cType="1" res="1.7884178087115288e-02" rms="4.0199035406112671e-01" purity="7.0212423801422119e-01" nType="0">
            <Node pos="l" depth="3" NCoef="0" IVar="-1" Cut="0.0000000000000000e+00" cType="1" res="1.5322506427764893e-02" rms="4.2069602012634277e-01" purity="6.8762201070785522e-01" nType="-99"/>
            <Node pos="r" depth="3" NCoef="0" IVar="-1" Cut="0.0000000000000000e+00" cType="1" res="1.2000981718301773e-01" rms="3.7149205803871155e-01" purity="7.2380608320236206e-01" nType="-99"/>
          </Node>
          <Node pos="r" depth="2" NCoef="0" IVar="0" Cut="1.0597161203622818e-01" cType="1" res="-2.1405201405286789e-03" rms="4.3686422705650330e-01" purity="5.4298204183578491e-01" nType="0">
            <Node pos="l" depth="3" NCoef="0" IVar="-1" Cut="0.0000000000000000e+00" cType="1" res="-3.7867192178964615e-02" rms="4.3674683570861816e-01" purity="5.0544059276580811e-01" nType="-99"/>
            <Node pos="r" depth="3" NCoef="0" IVar="-1" Cut="0.0000000000000000e+00" cType="1" res="3.1795240938663483e-03" rms="4.3684217333793640e-01" purity="5.5388909578323364e-01" nType="-99"/>
          </Node>
        </Node>
        <Node pos="r" depth="1" NCoef="0" IVar="1" Cut="1.8755882978439331e-01" cType="1" res="-1.8082352355122566e-02" rms="3.9797827601432800e-01" purity="2.3648357391357422e-01" nType="0">
          <Node pos="l" depth="2" NCoef="0" IVar="2" Cut="1.4287960529327393e-01" cType="1" res="-6.7739724181592464e-03" rms="3.9675360918045044e-01" purity="2.6484474539756775e-01" nType="0">
            <Node pos="l" depth="3" NCoef="0" IVar="-1" Cut="0.0000000000000000e+00" cType="1" res="2.5756701827049255e-02" rms="3.9417243003845215e-01" purity="2.9517087340354919e-01" nType="-99"/>
            <Node pos="r" depth="3" NCoef="0" IVar="-1" Cut="0.0000000000000000e+00" cType="1" res="-7.5761869549751282e-02" rms="3.9906257390975952e-01" purity="2.2918379306793213e-01" nType="-99"/>
          </Node>
          <Node pos="r" depth="2" NCoef="0" IVar="5" Cut="1.7967297136783600e-01" cType="1" res="-2.9149102047085762e-02" rms="3.9886286854743958e-01" purity="2.0872841775417328e-01" nType="0">
            <Node pos="l" depth="3" NCoef="0" IVar="-1" Cut="0.0000000000000000e+00" cType="1" res="-5.6588120758533478e-02" rms="4.0334522724151611e-01" purity="2.1301141381263733e-01" nType="-99"/>
            <Node pos="r" depth="3" NCoef="0" IVar="-1" Cut="0.0000000000000000e+00" cType="1" res="-1.6207526624202728e-01" rms="3.8602998852729797e-01" purity="1.9793331623077393e-01" nType="-99"/>
          </Node>
        </Node>
      </Node>
    </BinaryTree>
    <BinaryTree type="DecisionTree" boostWeight="1.0000000000000000e+00" itree="23">
      <Node pos="s" depth="0" NCoef="0" IVar="1" Cut="9.9009899422526360e-03" cType="1" res="2.4168719537556171e-03" rms="4.2327579855918884e-01" purity="4.9841389060020447e-01" nType="0">
        <Node pos="l" depth="1" NCoef="0" IVar="-1" Cut="0.0000000000000000e+00" cType="1" res="6.0371499508619308e-02" rms="4.5353585481643677e-01" purity="6.3667458295822144e-01" nType="-99"/>
        <Node pos="r" depth="1" NCoef="0" IVar="0" Cut="4.8007744550704956e-01" cType="1" res="1.4394038589671254e-03" rms="4.2194432020187378e-01" purity="4.9267444014549255e-01" nType="0">
          <Node pos="l" depth="2" NCoef="0" IVar="0" Cut="2.5188809633255005e-01" cType="1" res="2.2113099694252014e-03" rms="4.2284813523292542e-01" purity="4.8030823469161987e-01" nType="0">
            <Node pos="l" depth="3" NCoef="0" IVar="-1" Cut="0.0000000000000000e+00" cType="1" res="1.9163530087098479e-03" rms="4.2176088690757751e-01" purity="4.4955015182495117e-01" nType="-99"/>
            <Node pos="r" depth="3" NCoef="0" IVar="-1" Cut="0.0000000000000000e+00" cType="1" res="3.4877307713031769e-02" rms="4.3020075559616089e-01" purity="6.9486874341964722e-01" nType="-99"/>
          </Node>
          <Node pos="r" depth="2" NCoef="0" IVar="-1" Cut="0.0000000000000000e+00" cType="1" res="-6.0312218964099884e-02" rms="3.9831092953681946e-01" purity="8.0042594671249390e-01" nType="-99"/>
        </Node>
      </Node>
    </BinaryTree>
    <BinaryTree type="DecisionTree" boostWeight="1.0000000000000000e+00" itree="24">
      <Node pos="s" depth="0" NCoef="0" IVar="1" Cut="2.6732674241065979e-01" cType="1" res="5.5428897030651569e-04" rms="4.2624861001968384e-01" purity="5.0086450576782227e-01" nType="0">
        <Node pos="l" depth="1" NCoef="0" IVar="0" Cut="2.5742575526237488e-01" cType="1" res="6.9481348618865013e-03" rms="4.1548645496368408e-01" purity="3.8733065128326416e-01" nType="0">
          <Node pos="l" depth="2" NCoef="0" IVar="3" Cut="1.2224437296390533e-01" cType="1" res="9.3363150954246521e-03" rms="4.1569152474403381e-01" purity="3.5282891988754272e-01" nType="0">
            <Node pos="l" depth="3" NCoef="0" IVar="-1" Cut="0.0000000000000000e+00" cType="1" res="5.6574627757072449e-02" rms="4.2273664474487305e-01" purity="3.5216009616851807e-01" nType="-99"/>
            <Node pos="r" depth="3" NCoef="0" IVar="-1" Cut="0.0000000000000000e+00" cType="1" res="6.9701448082923889e-03" rms="4.1038906574249268e-01" purity="3.5331130027770996e-01" nType="-99"/>
          </Node>
          <Node pos="r" depth="2" NCoef="0" IVar="-1" Cut="0.0000000000000000e+00" cType="1" res="-4.0442895144224167e-02" rms="4.1312465071678162e-01" purity="6.8656551837921143e-01" nType="-99"/>
        </Node>
        <Node pos="r" depth="1" NCoef="0" IVar="2" Cut="2.2731722891330719e-01" cType="1" res="-4.2744474485516548e-03" rms="4.3413719534873962e-01" purity="5.8660721778869629e-01" nType="0">
          <Node pos="l" depth="2" NCoef="0" IVar="0" Cut="6.5232239663600922e-02" cType="1" res="-1.1903913691639900e-03" rms="4.3032020330429077e-01" purity="5.6496626138687134e-01" nType="0">
            <Node pos="l" depth="3" NCoef="0" IVar="-1" Cut="0.0000000000000000e+00" cType="1" res="-7.2190254926681519e-02" rms="4.1653046011924744e-01" purity="6.2929421663284302e-01" nType="-99"/>
            <Node pos="r" depth="3" NCoef="0" IVar="-1" Cut="0.0000000000000000e+00" cType="1" res="1.6939465422183275e-03" rms="4.3136855959892273e-01" purity="5.5975019931793213e-01" nType="-99"/>
          </Node>
          <Node pos="r" depth="2" NCoef="0" IVar="4" Cut="7.0289500057697296e-02" cType="1" res="-1.3238620944321156e-02" rms="4.4492450356483459e-01" purity="6.4950919151306152e-01" nType="0">
            <Node pos="l" depth="3" NCoef="0" IVar="-1" Cut="0.0000000000000000e+00" cType="1" res="-5.7478219270706177e-02" rms="4.4110253453254700e-01" purity="6.8456768989562988e-01" nType="-99"/>
            <Node pos="r" depth="3" NCoef="0" IVar="-1" Cut="0.0000000000000000e+00" cType="1" res="3.4199390560388565e-02" rms="4.5796588063240051e-01" purity="5.1722872257232666e-01" nType="-99"/>
          </Node>
        </Node>
      </Node>
    </BinaryTree>
    <BinaryTree type="DecisionTree" boostWeight="1.0000000000000000e+00" itree="25">
      <Node pos="s" depth="0" NCoef="0" IVar="4" Cut="1.1421749740839005e-01" cType="1" res="-1.9767258781939745e-03" rms="4.2549756169319153e-01" purity="4.9823036789894104e-01" nType="0">
        <Node pos="l" depth="1" NCoef="0" IVar="1" Cut="1.9801979884505272e-02" cType="1" res="1.9159802468493581e-03" rms="4.2974406480789185e-01" purity="5.8898472785949707e-01" nType="0">
          <Node pos="l" depth="2" NCoef="0" IVar="-1" Cut="0.0000000000000000e+00" cType="1" res="-4.9517128616571426e-02" rms="4.6109974384307861e-01" purity="6.3679325580596924e-01" nType="-99"/>
          <Node pos="r" depth="2" NCoef="0" IVar="0" Cut="5.1432549953460693e-01" cType="1" res="3.3195617143064737e-03" rms="4.2769914865493774e-01" purity="5.8604186773300171e-01" nType="0">
            <Node pos="l" depth="3" NCoef="0" IVar="-1" Cut="0.0000000000000000e+00" cType="1" res="5.6923525407910347e-03" rms="4.2999875545501709e-01" purity="5.7324856519699097e-01" nType="-99"/>
            <Node pos="r" depth="3" NCoef="0" IVar="-1" Cut="0.0000000000000000e+00" cType="1" res="8.3873122930526733e-02" rms="3.8193517923355103e-01" purity="8.2252109050750732e-01" nType="-99"/>
          </Node>
        </Node>
        <Node pos="r" depth="1" NCoef="0" IVar="2" Cut="5.1824074238538742e-02" cType="1" res="-9.8233614116907120e-03" rms="4.1669571399688721e-01" purity="3.1529417634010315e-01" nType="0">
          <Node pos="l" depth="2" NCoef="0" IVar="-1" Cut="0.0000000000000000e+00" cType="1" res="8.6967714130878448e-02" rms="3.8590994477272034e-01" purity="4.9233528971672058e-01" nType="-99"/>
          <Node pos="r" depth="2" NCoef="0" IVar="1" Cut="1.1919938772916794e-01" cType="1" res="-1.2957254424691200e-02" rms="4.1901364922523499e-01" purity="3.0050185322761536e-01" nType="0">
            <Node pos="l" depth="3" NCoef="0" IVar="-1" Cut="0.0000000000000000e+00" cType="1" res="-1.1207749694585800e-01" rms="4.0134483575820923e-01" purity="3.7776535749435425e-01" nType="-99"/>
            <Node pos="r" depth="3" NCoef="0" IVar="-1" Cut="0.0000000000000000e+00" cType="1" res="-2.2551542147994041e-02" rms="4.2249917984008789e-01" purity="2.8408569097518921e-01" nType="-99"/>
          </Node>
        </Node>
      </Node>
    </BinaryTree>
    <BinaryTree type="DecisionTree" boostWeight="1.0000000000000000e+00" itree="26">
      <Node pos="s" depth="0" NCoef="0" IVar="4" Cut="1.3325373828411102e-01" cType="1" res="6.6468678414821625e-04" rms="4.2629534006118774e-01" purity="4.9924206733703613e-01" nType="0">
        <Node pos="l" depth="1" NCoef="0" IVar="1" Cut="1.1881188303232193e-01" cType="1" res="-3.5551344044506550e-03" rms="4.2825034260749817e-01" purity="5.5693441629409790e-01" nType="0">
          <Node pos="l" depth="2" NCoef="0" IVar="0" Cut="9.9009899422526360e-03" cType="1" res="1.5247944742441177e-02" rms="4.2167779803276062e-01" purity="6.2114262580871582e-01" nType="0">
            <Node pos="l" depth="3" NCoef="0" IVar="-1" Cut="0.0000000000000000e+00" cType="1" res="-8.4283910691738129e-03" rms="4.8599812388420105e-01" purity="5.6976616382598877e-01" nType="-99"/>
            <Node pos="r" depth="3" NCoef="0" IVar="-1" Cut="0.0000000000000000e+00" cType="1" res="9.3613989651203156e-02" rms="3.7440365552902222e-01" purity="6.5392011404037476e-01" nType="-99"/>
          </Node>
          <Node pos="r" depth="2" NCoef="0" IVar="0" Cut="1.1338769644498825e-01" cType="1" res="-5.6194337084889412e-03" rms="4.2891556024551392e-01" purity="5.4988527297973633e-01" nType="0">
            <Node pos="l" depth="3" NCoef="0" IVar="-1" Cut="0.0000000000000000e+00" cType="1" res="7.6179699972271919e-03" rms="4.1585734486579895e-01" purity="5.5619806051254272e-01" nType="-99"/>
            <Node pos="r" depth="3" NCoef="0" IVar="-1" Cut="0.0000000000000000e+00" cType="1" res="-2.5784164667129517e-02" rms="4.3492227792739868e-01" purity="5.4688918590545654e-01" nType="-99"/>
          </Node>
        </Node>
        <Node pos="r" depth="1" NCoef="0" IVar="5" Cut="1.9813409447669983e-01" cType="1" res="1.2802276760339737e-02" rms="4.2038539052009583e-01" purity="3.3330017328262329e-01" nType="0">
          <Node pos="l" depth="2" NCoef="0" IVar="3" Cut="1.8474839627742767e-01" cType="1" res="1.7182750627398491e-02" rms="4.2313933372497559e-01" purity="3.3912664651870728e-01" nType="0">
            <Node pos="l" depth="3" NCoef="0" IVar="-1" Cut="0.0000000000000000e+00" cType="1" res="2.8962440788745880e-02" rms="4.2025294899940491e-01" purity="2.8708970546722412e-01" nType="-99"/>
            <Node pos="r" depth="3" NCoef="0" IVar="-1" Cut="0.0000000000000000e+00" cType="1" res="1.0982108116149902e-01" rms="4.3008771538734436e-01" purity="4.7782909870147705e-01" nType="-99"/>
          </Node>
          <Node pos="r" depth="2" NCoef="0" IVar="-1" Cut="0.0000000000000000e+00" cType="1" res="-5.9133570641279221e-02" rms="3.9804357290267944e-01" purity="2.9040151834487915e-01" nType="-99"/>
        </Node>
      </Node>
    </BinaryTree>
    <BinaryTree type="DecisionTree" boostWeight="1.0000000000000000e+00" itree="27">
      <Node pos="s" depth="0" NCoef="0" IVar="4" Cut="1.6180811822414398e-01" cType="1" res="4.1645564488135278e-04" rms="4.2548474669456482e-01" purity="5.0008130073547363e-01" nType="0">
        <Node pos="l" depth="1" NCoef="0" IVar="0" Cut="3.4653463959693909e-01" cType="1" res="3.8290519732981920e-03" rms="4.2733010649681091e-01" purity="5.3391909599304199e-01" nType="0">
          <Node pos="l" depth="2" NCoef="0" IVar="1" Cut="7.8217822313308716e-01" cType="1" res="5.2602039650082588e-03" rms="4.3024030327796936e-01" purity="5.0341397523880005e-01" nType="0">
            <Node pos="l" depth="3" NCoef="0" IVar="-1" Cut="0.0000000000000000e+00" cType="1" res="1.2327089905738831e-02" rms="4.3180918693542480e-01" purity="4.9145597219467163e-01" nType="-99"/>
            <Node pos="r" depth="3" NCoef="0" IVar="-1" Cut="0.0000000000000000e+00" cType="1" res="8.0773212015628815e-02" rms="3.8609054684638977e-01" purity="8.1807243824005127e-01" nType="-99"/>
          </Node>
          <Node pos="r" depth="2" NCoef="0" IVar="2" Cut="5.2734483033418655e-02" cType="1" res="-8.1288963556289673e-03" rms="4.0199261903762817e-01" purity="7.8880381584167480e-01" nType="0">
            <Node pos="l" depth="3" NCoef="0" IVar="-1" Cut="0.0000000000000000e+00" cType="1" res="3.9636404253542423e-03" rms="3.8620287179946899e-01" purity="8.1519019603729248e-01" nType="-99"/>
            <Node pos="r" depth="3" NCoef="0" IVar="-1" Cut="0.0000000000000000e+00" cType="1" res="-7.4498653411865234e-02" rms="4.2846822738647461e-01" purity="7.4126070737838745e-01" nType="-99"/>
          </Node>
        </Node>
        <Node pos="r" depth="1" NCoef="0" IVar="5" Cut="1.9141966104507446e-01" cType="1" res="-1.5676336362957954e-02" rms="4.1629564762115479e-01" purity="3.4051209688186646e-01" nType="0">
          <Node pos="l" depth="2" NCoef="0" IVar="2" Cut="1.8323248624801636e-01" cType="1" res="-2.2808155044913292e-02" rms="4.1593667864799500e-01" purity="3.3719772100448608e-01" nType="0">
            <Node pos="l" depth="3" NCoef="0" IVar="-1" Cut="0.0000000000000000e+00" cType="1" res="-4.3469868600368500e-02" rms="4.0949770808219910e-01" purity="3.2144629955291748e-01" nType="-99"/>
            <Node pos="r" depth="3" NCoef="0" IVar="-1" Cut="0.0000000000000000e+00" cType="1" res="-1.1387479305267334e-01" rms="4.3066459894180298e-01" purity="3.7585911154747009e-01" nType="-99"/>
          </Node>
          <Node pos="r" depth="2" NCoef="0" IVar="-1" Cut="0.0000000000000000e+00" cType="1" res="7.5580611824989319e-02" rms="4.1599103808403015e-01" purity="3.5954228043556213e-01" nType="-99"/>
        </Node>
      </Node>
    </BinaryTree>
    <BinaryTree type="DecisionTree" boostWeight="1.0000000000000000e+00" itree="28">
      <Node pos="s" depth="0" NCoef="0" IVar="4" Cut="1.6121441125869751e-01" cType="1" res="3.2029274734668434e-04" rms="4.2542245984077454e-01" purity="4.9949261546134949e-01" nType="0">
        <Node pos="l" depth="1" NCoef="0" IVar="0" Cut="1.2871287763118744e-01" cType="1" res="-1.9715391099452972e-03" rms="4.2684337496757507e-01" purity="5.3091162443161011e-01" nType="0">
          <Node pos="l" depth="2" NCoef="0" IVar="2" Cut="2.4752475321292877e-01" cType="1" res="-5.9832660481333733e-03" rms="4.2142942547798157e-01" purity="5.0372356176376343e-01" nType="0">
            <Node pos="l" depth="3" NCoef="0" IVar="-1" Cut="0.0000000000000000e+00" cType="1" res="-3.4403086174279451e-03" rms="4.2503762245178223e-01" purity="4.3866094946861267e-01" nType="-99"/>
            <Node pos="r" depth="3" NCoef="0" IVar="-1" Cut="0.0000000000000000e+00" cType="1" res="-4.8638433218002319e-02" rms="4.1359877586364746e-01" purity="6.3986676931381226e-01" nType="-99"/>
          </Node>
          <Node pos="r" depth="2" NCoef="0" IVar="2" Cut="2.0452871918678284e-01" cType="1" res="1.2394371442496777e-03" rms="4.3110078573226929e-01" purity="5.5267298221588135e-01" nType="0">
            <Node pos="l" depth="3" NCoef="0" IVar="-1" Cut="0.0000000000000000e+00" cType="1" res="-9.6329879015684128e-03" rms="4.1923350095748901e-01" purity="5.5962330102920532e-01" nType="-99"/>
            <Node pos="r" depth="3" NCoef="0" IVar="-1" Cut="0.0000000000000000e+00" cType="1" res="3.2182153314352036e-02" rms="4.6116331219673157e-01" purity="5.3405660390853882e-01" nType="-99"/>
          </Node>
        </Node>
        <Node pos="r" depth="1" NCoef="0" IVar="6" Cut="8.4057770669460297e-02" cType="1" res="1.1306353844702244e-02" rms="4.1836991906166077e-01" purity="3.4888312220573425e-01" nType="0">
          <Node pos="l" depth="2" NCoef="0" IVar="3" Cut="2.0014408230781555e-01" cType="1" res="2.3589545860886574e-02" rms="4.3862885236740112e-01" purity="4.5055922865867615e-01" nType="0">
            <Node pos="l" depth="3" NCoef="0" IVar="-1" Cut="0.0000000000000000e+00" cType="1" res="8.3528794348239899e-02" rms="4.4544443488121033e-01" purity="3.9289095997810364e-01" nType="-99"/>
            <Node pos="r" depth="3" NCoef="0" IVar="-1" Cut="0.0000000000000000e+00" cType="1" res="9.7107235342264175e-03" rms="4.1928920149803162e-01" purity="6.0396599769592285e-01" nType="-99"/>
          </Node>
          <Node pos="r" depth="2" NCoef="0" IVar="0" Cut="9.7188808023929596e-02" cType="1" res="-7.9079549759626389e-03" rms="3.8375696539878845e-01" purity="1.8983359634876251e-01" nType="0">
            <Node pos="l" depth="3" NCoef="0" IVar="-1" Cut="0.0000000000000000e+00" cType="1" res="2.1316627040505409e-02" rms="4.0511101484298706e-01" purity="2.2402603924274445e-01" nType="-99"/>
            <Node pos="r" depth="3" NCoef="0" IVar="-1" Cut="0.0000000000000000e+00" cType="1" res="-1.0790452361106873e-01" rms="3.4857115149497986e-01" purity="1.3907258212566376e-01" nType="-99"/>
          </Node>
        </Node>
      </Node>
    </BinaryTree>
    <BinaryTree type="DecisionTree" boostWeight="1.0000000000000000e+00" itree="29">
      <Node pos="s" depth="0" NCoef="0" IVar="4" Cut="2.7602562308311462e-01" cType="1" res="3.1549765844829381e-04" rms="4.2500862479209900e-01" purity="5.0021094083786011e-01" nType="0">
        <Node pos="l" depth="1" NCoef="0" IVar="0" Cut="4.9504950642585754e-02" cType="1" res="1.2702682288363576e-03" rms="4.2520362138748169e-01" purity="4.9843561649322510e-01" nType="0">
          <Node pos="l" depth="2" NCoef="0" IVar="6" Cut="5.4422695189714432e-02" cType="1" res="-1.1686303652822971e-02" rms="4.1076105833053589e-01" purity="6.4071506261825562e-01" nType="0">
            <Node pos="l" depth="3" NCoef="0" IVar="-1" Cut="0.0000000000000000e+00" cType="1" res="7.0425919257104397e-03" rms="4.0300691127777100e-01" purity="7.4502378702163696e-01" nType="-99"/>
            <Node pos="r" depth="3" NCoef="0" IVar="-1" Cut="0.0000000000000000e+00" cType="1" res="-1.4125432074069977e-01" rms="4.3149626255035400e-01" purity="3.0908414721488953e-01" nType="-99"/>
          </Node>
          <Node pos="r" depth="2" NCoef="0" IVar="3" Cut="2.0053949952125549e-01" cType="1" res="2.8865647036582232e-03" rms="4.2694345116615295e-01" purity="4.8068666458129883e-01" nType="0">
            <Node pos="l" depth="3" NCoef="0" IVar="-1" Cut="0.0000000000000000e+00" cType="1" res="1.2729408219456673e-02" rms="4.2507901787757874e-01" purity="4.8895874619483948e-01" nType="-99"/>
            <Node pos="r" depth="3" NCoef="0" IVar="-1" Cut="0.0000000000000000e+00" cType="1" res="-3.0452506616711617e-02" rms="4.4342866539955139e-01" purity="4.0474629402160645e-01" nType="-99"/>
          </Node>
        </Node>
        <Node pos="r" depth="1" NCoef="0" IVar="-1" Cut="0.0000000000000000e+00" cType="1" res="-8.8698662817478180e-02" rms="4.1740447282791138e-01" purity="5.5810534954071045e-01" nType="-99"/>
      </Node>
    </BinaryTree>
    <BinaryTree type="DecisionTree" boostWeight="1.0000000000000000e+00" itree="30">
      <Node pos="s" depth="0" NCoef="0" IVar="5" Cut="2.2486720979213715e-01" cType="1" res="1.0497657349333167e-03" rms="4.2371428012847900e-01" purity="5.0069481134414673e-01" nType="0">
        <Node pos="l" depth="1" NCoef="0" IVar="0" Cut="5.9405941516160965e-02" cType="1" res="2.0664385519921780e-03" rms="4.2420700192451477e-01" purity="5.0817304849624634e-01" nType="0">
          <Node pos="l" depth="2" NCoef="0" IVar="2" Cut="8.9108914136886597e-02" cType="1" res="1.1194411665201187e-02" rms="4.0541121363639832e-01" purity="6.3858669996261597e-01" nType="0">
            <Node pos="l" depth="3" NCoef="0" IVar="-1" Cut="0.0000000000000000e+00" cType="1" res="-3.0518131330609322e-02" rms="4.5401448011398315e-01" purity="6.0026264190673828e-01" nType="-99"/>
            <Node pos="r" depth="3" NCoef="0" IVar="-1" Cut="0.0000000000000000e+00" cType="1" res="7.5860597193241119e-02" rms="3.8081201910972595e-01" purity="6.5599316358566284e-01" nType="-99"/>
          </Node>
          <Node pos="r" depth="2" NCoef="0" IVar="4" Cut="7.8910179436206818e-03" cType="1" res="4.5523888547904789e-04" rms="4.2741861939430237e-01" purity="4.8515346646308899e-01" nType="0">
            <Node pos="l" depth="3" NCoef="0" IVar="-1" Cut="0.0000000000000000e+00" cType="1" res="2.2142650559544563e-02" rms="4.1660970449447632e-01" purity="7.6127684116363525e-01" nType="-99"/>
            <Node pos="r" depth="3" NCoef="0" IVar="-1" Cut="0.0000000000000000e+00" cType="1" res="-7.2381538338959217e-03" rms="4.3179416656494141e-01" purity="3.7040767073631287e-01" nType="-99"/>
          </Node>
        </Node>
        <Node pos="r" depth="1" NCoef="0" IVar="-1" Cut="0.0000000000000000e+00" cType="1" res="-7.1414716541767120e-02" rms="4.0984061360359192e-01" purity="3.0663260817527771e-01" nType="-99"/>
      </Node>
    </BinaryTree>
    <BinaryTree type="DecisionTree" boostWeight="1.0000000000000000e+00" itree="31">
      <Node pos="s" depth="0" NCoef="0" IVar="6" Cut="5.9100985527038574e-02" cType="1" res="-3.0664643272757530e-03" rms="4.2498835921287537e-01" purity="4.9767094850540161e-01" nType="0">
        <Node pos="l" depth="1" NCoef="0" IVar="0" Cut="9.9009899422526360e-03" cType="1" res="-7.0787128061056137e-03" rms="4.3586251139640808e-01" purity="6.3269525766372681e-01" nType="0">
          <Node pos="l" depth="2" NCoef="0" IVar="-1" Cut="0.0000000000000000e+00" cType="1" res="5.3465865552425385e-02" rms="4.5586723089218140e-01" purity="6.3859415054321289e-01" nType="-99"/>
          <Node pos="r" depth="2" NCoef="0" IVar="0" Cut="8.8339723646640778e-02" cType="1" res="-8.7152170017361641e-03" rms="4.3469008803367615e-01" purity="6.3237494230270386e-01" nType="0">
            <Node pos="l" depth="3" NCoef="0" IVar="-1" Cut="0.0000000000000000e+00" cType="1" res="-6.9932021200656891e-02" rms="4.0606829524040222e-01" purity="7.1356952190399170e-01" nType="-99"/>
            <Node pos="r" depth="3" NCoef="0" IVar="-1" Cut="0.0000000000000000e+00" cType="1" res="-1.2803265824913979e-02" rms="4.4268459081649780e-01" purity="6.0848516225814819e-01" nType="-99"/>
          </Node>
        </Node>
        <Node pos="r" depth="1" NCoef="0" IVar="3" Cut="1.5081807971000671e-01" cType="1" res="5.3332727402448654e-03" rms="4.0114000439643860e-01" purity="2.1499444544315338e-01" nType="0">
          <Node pos="l" depth="2" NCoef="0" IVar="2" Cut="7.5667440891265869e-02" cType="1" res="-1.3342001475393772e-03" rms="3.9783638715744019e-01" purity="2.0893611013889313e-01" nType="0">
            <Node pos="l" depth="3" NCoef="0" IVar="-1" Cut="0.0000000000000000e+00" cType="1" res="-7.6265469193458557e-02" rms="3.8595217466354370e-01" purity="2.2664380073547363e-01" nType="-99"/>
            <Node pos="r" depth="3" NCoef="0" IVar="-1" Cut="0.0000000000000000e+00" cType="1" res="6.4324298873543739e-03" rms="3.9930468797683716e-01" purity="2.0653469860553741e-01" nType="-99"/>
          </Node>
          <Node pos="r" depth="2" NCoef="0" IVar="5" Cut="9.7088858485221863e-02" cType="1" res="2.0285133272409439e-02" rms="4.0805536508560181e-01" purity="2.2858032584190369e-01" nType="0">
            <Node pos="l" depth="3" NCoef="0" IVar="-1" Cut="0.0000000000000000e+00" cType="1" res="2.1845076233148575e-02" rms="4.1899672150611877e-01" purity="2.4889770150184631e-01" nType="-99"/>
            <Node pos="r" depth="3" NCoef="0" IVar="-1" Cut="0.0000000000000000e+00" cType="1" res="9.6659146249294281e-02" rms="4.0191340446472168e-01" purity="2.1771876513957977e-01" nType="-99"/>
          </Node>
        </Node>
      </Node>
    </BinaryTree>
    <BinaryTree type="DecisionTree" boostWeight="1.0000000000000000e+00" itree="32">
      <Node pos="s" depth="0" NCoef="0" IVar="6" Cut="6.8028368055820465e-02" cType="1" res="1.2287804856896400e-03" rms="4.2438143491744995e-01" purity="4.9913865327835083e-01" nType="0">
        <Node pos="l" depth="1" NCoef="0" IVar="5" Cut="4.4973444193601608e-02" cType="1" res="4.3054372072219849e-03" rms="4.3650138378143311e-01" purity="6.1802071332931519e-01" nType="0">
          <Node pos="l" depth="2" NCoef="0" IVar="6" Cut="2.2203460335731506e-02" cType="1" res="-2.2555014584213495e-03" rms="4.2741119861602783e-01" purity="7.2166073322296143e-01" nType="0">
            <Node pos="l" depth="3" NCoef="0" IVar="-1" Cut="0.0000000000000000e+00" cType="1" res="-1.8528699874877930e-02" rms="4.2387363314628601e-01" purity="7.3796683549880981e-01" nType="-99"/>
            <Node pos="r" depth="3" NCoef="0" IVar="-1" Cut="0.0000000000000000e+00" cType="1" res="1.4411921799182892e-01" rms="4.7287297248840332e-01" purity="4.7604200243949890e-01" nType="-99"/>
          </Node>
          <Node pos="r" depth="2" NCoef="0" IVar="6" Cut="2.5594666600227356e-02" cType="1" res="1.8319725990295410e-02" rms="4.5499402284622192e-01" purity="3.9664366841316223e-01" nType="0">
            <Node pos="l" depth="3" NCoef="0" IVar="-1" Cut="0.0000000000000000e+00" cType="1" res="1.0643387585878372e-01" rms="4.5967602729797363e-01" purity="5.2965253591537476e-01" nType="-99"/>
            <Node pos="r" depth="3" NCoef="0" IVar="-1" Cut="0.0000000000000000e+00" cType="1" res="1.3115799985826015e-02" rms="4.5197281241416931e-01" purity="3.2726433873176575e-01" nType="-99"/>
          </Node>
        </Node>
        <Node pos="r" depth="1" NCoef="0" IVar="2" Cut="2.1082383394241333e-01" cType="1" res="-6.4740069210529327e-03" rms="3.9229336380958557e-01" purity="2.0150284469127655e-01" nType="0">
          <Node pos="l" depth="2" NCoef="0" IVar="3" Cut="1.7823806405067444e-01" cType="1" res="-1.1508722091093659e-03" rms="3.8914066553115845e-01" purity="1.9726775586605072e-01" nType="0">
            <Node pos="l" depth="3" NCoef="0" IVar="-1" Cut="0.0000000000000000e+00" cType="1" res="1.1960566975176334e-02" rms="3.8713926076889038e-01" purity="1.9519110023975372e-01" nType="-99"/>
            <Node pos="r" depth="3" NCoef="0" IVar="-1" Cut="0.0000000000000000e+00" cType="1" res="-6.1734441667795181e-02" rms="3.9645665884017944e-01" purity="2.0552372932434082e-01" nType="-99"/>
          </Node>
          <Node pos="r" depth="2" NCoef="0" IVar="6" Cut="1.0054887831211090e-01" cType="1" res="-2.9694627970457077e-02" rms="4.0494215488433838e-01" purity="2.1997718513011932e-01" nType="0">
            <Node pos="l" depth="3" NCoef="0" IVar="-1" Cut="0.0000000000000000e+00" cType="1" res="-9.2647776007652283e-02" rms="4.2082998156547546e-01" purity="2.4440976977348328e-01" nType="-99"/>
            <Node pos="r" depth="3" NCoef="0" IVar="-1" Cut="0.0000000000000000e+00" cType="1" res="-7.3729112744331360e-02" rms="3.8620749115943909e-01" purity="1.9249911606311798e-01" nType="-99"/>
          </Node>
        </Node>
      </Node>
    </BinaryTree>
    <BinaryTree type="DecisionTree" boostWeight="1.0000000000000000e+00" itree="33">
      <Node pos="s" depth="0" NCoef="0" IVar="6" Cut="7.4831202626228333e-02" cType="1" res="2.5696267839521170e-03" rms="4.2614388465881348e-01" purity="5.0294947624206543e-01" nType="0">
        <Node pos="l" depth="1" NCoef="0" IVar="5" Cut="2.6984065771102905e-02" cType="1" res="-4.6006712364032865e-04" rms="4.3572831153869629e-01" purity="6.0430252552032471e-01" nType="0">
          <Node pos="l" depth="2" NCoef="0" IVar="5" Cut="2.6708224322646856e-04" cType="1" res="3.4455598797649145e-03" rms="4.2455440759658813e-01" purity="7.3406404256820679e-01" nType="0">
            <Node pos="l" depth="3" NCoef="0" IVar="-1" Cut="0.0000000000000000e+00" cType="1" res="-7.8171235509216785e-04" rms="4.2854219675064087e-01" purity="7.2876226902008057e-01" nType="-99"/>
            <Node pos="r" depth="3" NCoef="0" IVar="-1" Cut="0.0000000000000000e+00" cType="1" res="6.6760182380676270e-02" rms="4.0335425734519958e-01" purity="7.6075816154479980e-01" nType="-99"/>
          </Node>
          <Node pos="r" depth="2" NCoef="0" IVar="1" Cut="1.7930589616298676e-01" cType="1" res="-6.2546553090214729e-03" rms="4.5173537731170654e-01" purity="4.1178175806999207e-01" nType="0">
            <Node pos="l" depth="3" NCoef="0" IVar="-1" Cut="0.0000000000000000e+00" cType="1" res="4.7986272722482681e-02" rms="4.2676723003387451e-01" purity="5.2779412269592285e-01" nType="-99"/>
            <Node pos="r" depth="3" NCoef="0" IVar="-1" Cut="0.0000000000000000e+00" cType="1" res="-3.0131883919239044e-02" rms="4.5782631635665894e-01" purity="3.8154104351997375e-01" nType="-99"/>
          </Node>
        </Node>
        <Node pos="r" depth="1" NCoef="0" IVar="3" Cut="2.0175422728061676e-01" cType="1" res="1.1438910849392414e-02" rms="3.9662420749664307e-01" purity="2.0624317228794098e-01" nType="0">
          <Node pos="l" depth="2" NCoef="0" IVar="0" Cut="1.1465895175933838e-01" cType="1" res="7.6709077693521976e-03" rms="3.9265409111976624e-01" purity="1.9894219934940338e-01" nType="0">
            <Node pos="l" depth="3" NCoef="0" IVar="-1" Cut="0.0000000000000000e+00" cType="1" res="5.8796931058168411e-02" rms="4.0048578381538391e-01" purity="2.1462067961692810e-01" nType="-99"/>
            <Node pos="r" depth="3" NCoef="0" IVar="-1" Cut="0.0000000000000000e+00" cType="1" res="-1.2016232125461102e-02" rms="3.8316762447357178e-01" purity="1.8095679581165314e-01" nType="-99"/>
          </Node>
          <Node pos="r" depth="2" NCoef="0" IVar="-1" Cut="0.0000000000000000e+00" cType="1" res="1.2967588007450104e-01" rms="4.2476558685302734e-01" purity="2.6230469346046448e-01" nType="-99"/>
        </Node>
      </Node>
    </BinaryTree>
    <BinaryTree type="DecisionTree" boostWeight="1.0000000000000000e+00" itree="34">
      <Node pos="s" depth="0" NCoef="0" IVar="5" Cut="1.7989376559853554e-02" cType="1" res="-3.2638271804898977e-03" rms="4.2354500293731689e-01" purity="5.0031930208206177e-01" nType="0">
        <Node pos="l" depth="1" NCoef="0" IVar="1" Cut="2.5742575526237488e-01" cType="1" res="3.9210580289363861e-03" rms="4.2317837476730347e-01" purity="7.3686856031417847e-01" nType="0">
          <Node pos="l" depth="2" NCoef="0" IVar="0" Cut="5.9405941516160965e-02" cType="1" res="-9.9012991413474083e-03" rms="4.3164786696434021e-01" purity="6.9847851991653442e-01" nType="0">
            <Node pos="l" depth="3" NCoef="0" IVar="-1" Cut="0.0000000000000000e+00" cType="1" res="-5.2831731736660004e-02" rms="4.4796380400657654e-01" purity="6.5350604057312012e-01" nType="-99"/>
            <Node pos="r" depth="3" NCoef="0" IVar="-1" Cut="0.0000000000000000e+00" cType="1" res="-7.3684439994394779e-03" rms="4.1956552863121033e-01" purity="7.3029953241348267e-01" nType="-99"/>
          </Node>
          <Node pos="r" depth="2" NCoef="0" IVar="0" Cut="8.8196739554405212e-02" cType="1" res="7.8614391386508942e-03" rms="4.2064952850341797e-01" purity="7.4781250953674316e-01" nType="0">
            <Node pos="l" depth="3" NCoef="0" IVar="-1" Cut="0.0000000000000000e+00" cType="1" res="1.0223204642534256e-01" rms="3.6582323908805847e-01" purity="8.3426141738891602e-01" nType="-99"/>
            <Node pos="r" depth="3" NCoef="0" IVar="-1" Cut="0.0000000000000000e+00" cType="1" res="8.3049973472952843e-03" rms="4.3156227469444275e-01" purity="7.2891187667846680e-01" nType="-99"/>
          </Node>
        </Node>
        <Node pos="r" depth="1" NCoef="0" IVar="4" Cut="2.5618037581443787e-01" cType="1" res="-8.5787316784262657e-03" rms="4.2373761534690857e-01" purity="3.2533574104309082e-01" nType="0">
          <Node pos="l" depth="2" NCoef="0" IVar="1" Cut="1.6137531399726868e-01" cType="1" res="-1.0434631258249283e-02" rms="4.2337733507156372e-01" purity="3.1241208314895630e-01" nType="0">
            <Node pos="l" depth="3" NCoef="0" IVar="-1" Cut="0.0000000000000000e+00" cType="1" res="-8.0395489931106567e-02" rms="3.9418500661849976e-01" purity="2.9978945851325989e-01" nType="-99"/>
            <Node pos="r" depth="3" NCoef="0" IVar="-1" Cut="0.0000000000000000e+00" cType="1" res="-1.7804959788918495e-02" rms="4.3051910400390625e-01" purity="3.1567853689193726e-01" nType="-99"/>
          </Node>
          <Node pos="r" depth="2" NCoef="0" IVar="-1" Cut="0.0000000000000000e+00" cType="1" res="5.6916151195764542e-02" rms="4.2822661995887756e-01" purity="5.2398049831390381e-01" nType="-99"/>
        </Node>
      </Node>
    </BinaryTree>
    <BinaryTree type="DecisionTree" boostWeight="1.0000000000000000e+00" itree="35">
      <Node pos="s" depth="0" NCoef="0" IVar="1" Cut="4.8514851927757263e-01" cType="1" res="3.3112782984972000e-03" rms="4.2495256662368774e-01" purity="5.0369942188262939e-01" nType="0">
        <Node pos="l" depth="1" NCoef="0" IVar="5" Cut="2.2486720979213715e-01" cType="1" res="5.9490054845809937e-03" rms="4.2895796895027161e-01" purity="4.2698836326599121e-01" nType="0">
          <Node pos="l" depth="2" NCoef="0" IVar="4" Cut="1.4277186989784241e-01" cType="1" res="4.8854909837245941e-03" rms="4.2934003472328186e-01" purity="4.3163156509399414e-01" nType="0">
            <Node pos="l" depth="3" NCoef="0" IVar="-1" Cut="0.0000000000000000e+00" cType="1" res="2.0824450999498367e-02" rms="4.3487742543220520e-01" purity="4.7325250506401062e-01" nType="-99"/>
            <Node pos="r" depth="3" NCoef="0" IVar="-1" Cut="0.0000000000000000e+00" cType="1" res="-6.4439098350703716e-03" rms="4.1478136181831360e-01" purity="3.2534989714622498e-01" nType="-99"/>
          </Node>
          <Node pos="r" depth="2" NCoef="0" IVar="-1" Cut="0.0000000000000000e+00" cType="1" res="8.0990828573703766e-02" rms="4.2061603069305420e-01" purity="3.3346298336982727e-01" nType="-99"/>
        </Node>
        <Node pos="r" depth="1" NCoef="0" IVar="4" Cut="9.1154212132096291e-03" cType="1" res="-5.9550656005740166e-03" rms="4.1043761372566223e-01" purity="7.7318572998046875e-01" nType="0">
          <Node pos="l" depth="2" NCoef="0" IVar="0" Cut="3.2088172435760498e-01" cType="1" res="5.7530344929546118e-04" rms="4.0713256597518921e-01" purity="7.8179866075515747e-01" nType="0">
            <Node pos="l" depth="3" NCoef="0" IVar="-1" Cut="0.0000000000000000e+00" cType="1" res="-1.0823657736182213e-02" rms="4.1015803813934326e-01" purity="7.7625679969787598e-01" nType="-99"/>
            <Node pos="r" depth="3" NCoef="0" IVar="-1" Cut="0.0000000000000000e+00" cType="1" res="6.0865249484777451e-02" rms="3.9195963740348816e-01" purity="8.0792361497879028e-01" nType="-99"/>
          </Node>
          <Node pos="r" depth="2" NCoef="0" IVar="0" Cut="1.0674770921468735e-01" cType="1" res="-2.0643619820475578e-02" rms="4.1740289330482483e-01" purity="7.5381296873092651e-01" nType="0">
            <Node pos="l" depth="3" NCoef="0" IVar="-1" Cut="0.0000000000000000e+00" cType="1" res="-1.7878396809101105e-01" rms="3.8739475607872009e-01" purity="7.9370528459548950e-01" nType="-99"/>
            <Node pos="r" depth="3" NCoef="0" IVar="-1" Cut="0.0000000000000000e+00" cType="1" res="-1.2306067161262035e-02" rms="4.3645504117012024e-01" purity="7.2587966918945312e-01" nType="-99"/>
          </Node>
        </Node>
      </Node>
    </BinaryTree>
    <BinaryTree type="DecisionTree" boostWeight="1.0000000000000000e+00" itree="36">
