<?xml version="1.0"?>
<MethodSetup Method="BDT::BDT">
  <GeneralInfo>
    <Info name="TMVA Release" value="4.2.1 [262657]"/>
    <Info name="ROOT Release" value="6.12/07 [396295]"/>
    <Info name="Creator" value="jkrupa"/>
    <Info name="Date" value="Wed Jul 31 10:28:24 2019"/>
    <Info name="Host" value="Linux cmsbuild87.cern.ch 2.6.32-696.30.1.el6.x86_64 #1 SMP Tue May 22 06:09:36 CEST 2018 x86_64 x86_64 x86_64 GNU/Linux"/>
    <Info name="Dir" value="/uscms_data/d3/jkrupa/pf_studies/CMSSW_10_5_0_pre2/src/CaloTrigNN/CaloNtupler/test"/>
    <Info name="Training events" value="281096"/>
    <Info name="TrainingTime" value="1.87230060e+02"/>
    <Info name="AnalysisType" value="Classification"/>
  </GeneralInfo>
  <Options>
    <Option name="V" modified="Yes">False</Option>
    <Option name="VerbosityLevel" modified="No">Default</Option>
    <Option name="VarTransform" modified="No">None</Option>
    <Option name="H" modified="Yes">False</Option>
    <Option name="CreateMVAPdfs" modified="No">False</Option>
    <Option name="IgnoreNegWeightsInTraining" modified="No">False</Option>
    <Option name="NTrees" modified="Yes">300</Option>
    <Option name="MaxDepth" modified="Yes">3</Option>
    <Option name="MinNodeSize" modified="Yes">2.5%</Option>
    <Option name="nCuts" modified="Yes">100</Option>
    <Option name="BoostType" modified="Yes">Grad</Option>
    <Option name="AdaBoostR2Loss" modified="No">quadratic</Option>
    <Option name="UseBaggedBoost" modified="Yes">True</Option>
    <Option name="Shrinkage" modified="No">1.000000e+00</Option>
    <Option name="AdaBoostBeta" modified="No">5.000000e-01</Option>
    <Option name="UseRandomisedTrees" modified="No">False</Option>
    <Option name="UseNvars" modified="No">3</Option>
    <Option name="UsePoissonNvars" modified="No">True</Option>
    <Option name="BaggedSampleFraction" modified="No">6.000000e-01</Option>
    <Option name="UseYesNoLeaf" modified="No">True</Option>
    <Option name="NegWeightTreatment" modified="No">pray</Option>
    <Option name="Css" modified="No">1.000000e+00</Option>
    <Option name="Cts_sb" modified="No">1.000000e+00</Option>
    <Option name="Ctb_ss" modified="No">1.000000e+00</Option>
    <Option name="Cbb" modified="No">1.000000e+00</Option>
    <Option name="NodePurityLimit" modified="No">5.000000e-01</Option>
    <Option name="SeparationType" modified="Yes">giniindex</Option>
    <Option name="RegressionLossFunctionBDTG" modified="No">huber</Option>
    <Option name="HuberQuantile" modified="No">7.000000e-01</Option>
    <Option name="DoBoostMonitor" modified="No">False</Option>
    <Option name="UseFisherCuts" modified="No">False</Option>
    <Option name="MinLinCorrForFisher" modified="No">8.000000e-01</Option>
    <Option name="UseExclusiveVars" modified="No">False</Option>
    <Option name="DoPreselection" modified="No">False</Option>
    <Option name="SigToBkgFraction" modified="No">1.000000e+00</Option>
    <Option name="PruneMethod" modified="Yes">nopruning</Option>
    <Option name="PruneStrength" modified="No">0.000000e+00</Option>
    <Option name="PruningValFraction" modified="No">5.000000e-01</Option>
    <Option name="SkipNormalization" modified="No">False</Option>
    <Option name="nEventsMin" modified="No">0</Option>
    <Option name="UseBaggedGrad" modified="No">False</Option>
    <Option name="GradBaggingFraction" modified="No">6.000000e-01</Option>
    <Option name="UseNTrainEvents" modified="No">0</Option>
    <Option name="NNodesMax" modified="No">0</Option>
  </Options>
  <Variables NVar="9">
    <Variable VarIndex="0" Expression="eta" Label="eta" Title="eta" Unit="" Internal="eta" Type="F" Min="-2.99921203e+00" Max="2.99970245e+00"/>
    <Variable VarIndex="1" Expression="phi" Label="phi" Title="phi" Unit="" Internal="phi" Type="F" Min="-3.14158154e+00" Max="3.14157009e+00"/>
    <Variable VarIndex="2" Expression="depthFrac0" Label="depthFrac0" Title="depthFrac0" Unit="" Internal="depthFrac0" Type="F" Min="0.00000000e+00" Max="1.00000000e+00"/>
    <Variable VarIndex="3" Expression="depthFrac1" Label="depthFrac1" Title="depthFrac1" Unit="" Internal="depthFrac1" Type="F" Min="0.00000000e+00" Max="1.00000000e+00"/>
    <Variable VarIndex="4" Expression="depthFrac2" Label="depthFrac2" Title="depthFrac2" Unit="" Internal="depthFrac2" Type="F" Min="0.00000000e+00" Max="9.96562541e-01"/>
    <Variable VarIndex="5" Expression="depthFrac3" Label="depthFrac3" Title="depthFrac3" Unit="" Internal="depthFrac3" Type="F" Min="0.00000000e+00" Max="9.81786728e-01"/>
    <Variable VarIndex="6" Expression="depthFrac4" Label="depthFrac4" Title="depthFrac4" Unit="" Internal="depthFrac4" Type="F" Min="0.00000000e+00" Max="9.76122499e-01"/>
    <Variable VarIndex="7" Expression="depthFrac5" Label="depthFrac5" Title="depthFrac5" Unit="" Internal="depthFrac5" Type="F" Min="0.00000000e+00" Max="9.82230246e-01"/>
    <Variable VarIndex="8" Expression="depthFrac6" Label="depthFrac6" Title="depthFrac6" Unit="" Internal="depthFrac6" Type="F" Min="0.00000000e+00" Max="8.68900537e-01"/>
  </Variables>
  <Spectators NSpec="0"/>
  <Classes NClass="2">
    <Class Name="Signal" Index="0"/>
    <Class Name="Background" Index="1"/>
  </Classes>
  <Transformations NTransformations="0"/>
  <MVAPdfs/>
  <Weights NTrees="300" AnalysisType="1">
    <BinaryTree type="DecisionTree" boostWeight="1.0000000000000000e+00" itree="0">
      <Node pos="s" depth="0" NCoef="0" IVar="8" Cut="2.4310443550348282e-02" cType="1" res="1.5610164264217019e-03" rms="4.9999755620956421e-01" purity="5.0156104564666748e-01" nType="0">
        <Node pos="l" depth="1" NCoef="0" IVar="0" Cut="-2.6992020606994629e+00" cType="1" res="2.4783045053482056e-01" rms="4.3425807356834412e-01" purity="7.4783051013946533e-01" nType="0">
          <Node pos="l" depth="2" NCoef="0" IVar="-1" Cut="0.0000000000000000e+00" cType="1" res="-5.5883616209030151e-01" rms="4.1463905572891235e-01" purity="2.2058191895484924e-01" nType="-99"/>
          <Node pos="r" depth="2" NCoef="0" IVar="0" Cut="2.6551525592803955e+00" cType="1" res="2.9300773143768311e-01" rms="4.0514993667602539e-01" purity="7.9300773143768311e-01" nType="0">
            <Node pos="l" depth="3" NCoef="0" IVar="-1" Cut="0.0000000000000000e+00" cType="1" res="6.9885331392288208e-01" rms="3.5763248801231384e-01" purity="8.4942662715911865e-01" nType="-99"/>
            <Node pos="r" depth="3" NCoef="0" IVar="-1" Cut="0.0000000000000000e+00" cType="1" res="-3.7429094314575195e-01" rms="4.6365565061569214e-01" purity="3.1285452842712402e-01" nType="-99"/>
          </Node>
        </Node>
        <Node pos="r" depth="1" NCoef="0" IVar="2" Cut="3.5414099693298340e-02" cType="1" res="-3.7114861607551575e-01" rms="3.3503538370132446e-01" purity="1.2885139882564545e-01" nType="0">
          <Node pos="l" depth="2" NCoef="0" IVar="-1" Cut="0.0000000000000000e+00" cType="1" res="-1.6827484592795372e-02" rms="4.9992918968200684e-01" purity="4.9158626794815063e-01" nType="-99"/>
          <Node pos="r" depth="2" NCoef="0" IVar="8" Cut="4.7128096222877502e-02" cType="1" res="-3.9941784739494324e-01" rms="3.0077463388442993e-01" purity="1.0058215260505676e-01" nType="0">
            <Node pos="l" depth="3" NCoef="0" IVar="-1" Cut="0.0000000000000000e+00" cType="1" res="-5.1903694868087769e-01" rms="4.2737591266632080e-01" purity="2.4048151075839996e-01" nType="-99"/>
            <Node pos="r" depth="3" NCoef="0" IVar="-1" Cut="0.0000000000000000e+00" cType="1" res="-8.7830704450607300e-01" rms="2.3904851078987122e-01" purity="6.0846485197544098e-02" nType="-99"/>
          </Node>
        </Node>
      </Node>
    </BinaryTree>
    <BinaryTree type="DecisionTree" boostWeight="1.0000000000000000e+00" itree="1">
      <Node pos="s" depth="0" NCoef="0" IVar="0" Cut="-2.7616312503814697e+00" cType="1" res="-6.2158266082406044e-03" rms="3.5496178269386292e-01" purity="4.9968147277832031e-01" nType="0">
        <Node pos="l" depth="1" NCoef="0" IVar="0" Cut="-2.7992827892303467e+00" cType="1" res="-1.3965032994747162e-01" rms="2.2838009893894196e-01" purity="5.6614618748426437e-02" nType="0">
          <Node pos="l" depth="2" NCoef="0" IVar="7" Cut="5.7322613894939423e-02" cType="1" res="-1.5760515630245209e-01" rms="1.8919196724891663e-01" purity="3.5812746733427048e-02" nType="0">
            <Node pos="l" depth="3" NCoef="0" IVar="-1" Cut="0.0000000000000000e+00" cType="1" res="-3.7770074605941772e-01" rms="2.8383865952491760e-01" purity="9.1351076960563660e-02" nType="-99"/>
            <Node pos="r" depth="3" NCoef="0" IVar="-1" Cut="0.0000000000000000e+00" cType="1" res="-5.7699739933013916e-01" rms="1.4776603877544403e-01" purity="1.8979784101247787e-02" nType="-99"/>
          </Node>
          <Node pos="r" depth="2" NCoef="0" IVar="-1" Cut="0.0000000000000000e+00" cType="1" res="-2.8323122859001160e-01" rms="3.0812016129493713e-01" purity="1.1543274670839310e-01" nType="-99"/>
        </Node>
        <Node pos="r" depth="1" NCoef="0" IVar="0" Cut="2.7715308666229248e+00" cType="1" res="2.0915227010846138e-02" rms="3.6966934800148010e-01" purity="5.8976960182189941e-01" nType="0">
          <Node pos="l" depth="2" NCoef="0" IVar="4" Cut="9.8669558763504028e-02" cType="1" res="6.1570037156343460e-02" rms="3.8435557484626770e-01" purity="7.1889060735702515e-01" nType="0">
            <Node pos="l" depth="3" NCoef="0" IVar="-1" Cut="0.0000000000000000e+00" cType="1" res="1.0924842208623886e-03" rms="4.1534078121185303e-01" purity="6.8558937311172485e-01" nType="-99"/>
            <Node pos="r" depth="3" NCoef="0" IVar="-1" Cut="0.0000000000000000e+00" cType="1" res="2.6608031988143921e-01" rms="3.6829882860183716e-01" purity="7.3229014873504639e-01" nType="-99"/>
          </Node>
          <Node pos="r" depth="2" NCoef="0" IVar="0" Cut="2.7986507415771484e+00" cType="1" res="-1.4347277581691742e-01" rms="2.4118867516517639e-01" purity="6.7668043076992035e-02" nType="0">
            <Node pos="l" depth="3" NCoef="0" IVar="-1" Cut="0.0000000000000000e+00" cType="1" res="-2.4441204965114594e-01" rms="3.3047193288803101e-01" purity="1.4443349838256836e-01" nType="-99"/>
            <Node pos="r" depth="3" NCoef="0" IVar="-1" Cut="0.0000000000000000e+00" cType="1" res="-5.1369029283523560e-01" rms="2.0646823942661285e-01" purity="4.6341549605131149e-02" nType="-99"/>
          </Node>
        </Node>
      </Node>
    </BinaryTree>
    <BinaryTree type="DecisionTree" boostWeight="1.0000000000000000e+00" itree="2">
      <Node pos="s" depth="0" NCoef="0" IVar="3" Cut="3.4653463959693909e-01" cType="1" res="-7.6504875905811787e-03" rms="3.3974739909172058e-01" purity="5.0029790401458740e-01" nType="0">
        <Node pos="l" depth="1" NCoef="0" IVar="2" Cut="4.9504950642585754e-02" cType="1" res="-3.7897404283285141e-02" rms="3.2648903131484985e-01" purity="3.3170163631439209e-01" nType="0">
          <Node pos="l" depth="2" NCoef="0" IVar="2" Cut="4.9003341700881720e-04" cType="1" res="3.7218600511550903e-02" rms="3.7745955586433411e-01" purity="6.5767562389373779e-01" nType="0">
            <Node pos="l" depth="3" NCoef="0" IVar="-1" Cut="0.0000000000000000e+00" cType="1" res="-3.3233696222305298e-01" rms="4.3150654435157776e-01" purity="6.2798196077346802e-01" nType="-99"/>
            <Node pos="r" depth="3" NCoef="0" IVar="-1" Cut="0.0000000000000000e+00" cType="1" res="2.7695915102958679e-01" rms="3.4797951579093933e-01" purity="6.6667318344116211e-01" nType="-99"/>
          </Node>
          <Node pos="r" depth="2" NCoef="0" IVar="3" Cut="2.8134110569953918e-01" cType="1" res="-6.3612386584281921e-02" rms="3.0285137891769409e-01" purity="2.2010868787765503e-01" nType="0">
            <Node pos="l" depth="3" NCoef="0" IVar="-1" Cut="0.0000000000000000e+00" cType="1" res="-3.4522980451583862e-01" rms="2.9292303323745728e-01" purity="1.8606072664260864e-01" nType="-99"/>
            <Node pos="r" depth="3" NCoef="0" IVar="-1" Cut="0.0000000000000000e+00" cType="1" res="-1.3689866662025452e-01" rms="3.2693433761596680e-01" purity="3.1507658958435059e-01" nType="-99"/>
          </Node>
        </Node>
        <Node pos="r" depth="1" NCoef="0" IVar="6" Cut="4.7707306221127510e-03" cType="1" res="2.8102893382310867e-02" rms="3.5143965482711792e-01" purity="6.9958728551864624e-01" nType="0">
          <Node pos="l" depth="2" NCoef="0" IVar="5" Cut="4.9576900899410248e-02" cType="1" res="-1.6019395552575588e-03" rms="3.8285356760025024e-01" purity="7.6173400878906250e-01" nType="0">
            <Node pos="l" depth="3" NCoef="0" IVar="-1" Cut="0.0000000000000000e+00" cType="1" res="4.3129071593284607e-02" rms="3.7914204597473145e-01" purity="7.7723538875579834e-01" nType="-99"/>
            <Node pos="r" depth="3" NCoef="0" IVar="-1" Cut="0.0000000000000000e+00" cType="1" res="-3.1905949115753174e-01" rms="3.9524775743484497e-01" purity="6.6927176713943481e-01" nType="-99"/>
          </Node>
          <Node pos="r" depth="2" NCoef="0" IVar="0" Cut="-2.5820875167846680e+00" cType="1" res="4.7556918114423752e-02" rms="3.2779055833816528e-01" purity="6.5888673067092896e-01" nType="0">
            <Node pos="l" depth="3" NCoef="0" IVar="-1" Cut="0.0000000000000000e+00" cType="1" res="-1.0877244919538498e-01" rms="3.5836416482925415e-01" purity="2.0467995107173920e-01" nType="-99"/>
            <Node pos="r" depth="3" NCoef="0" IVar="-1" Cut="0.0000000000000000e+00" cType="1" res="2.4915331602096558e-01" rms="3.1848540902137756e-01" purity="7.5730210542678833e-01" nType="-99"/>
          </Node>
        </Node>
      </Node>
    </BinaryTree>
    <BinaryTree type="DecisionTree" boostWeight="1.0000000000000000e+00" itree="3">
      <Node pos="s" depth="0" NCoef="0" IVar="2" Cut="1.9801979884505272e-02" cType="1" res="-8.5276569006964564e-04" rms="3.3257901668548584e-01" purity="4.9910223484039307e-01" nType="0">
        <Node pos="l" depth="1" NCoef="0" IVar="7" Cut="9.7250519320368767e-03" cType="1" res="6.5482221543788910e-02" rms="3.2101345062255859e-01" purity="8.1944739818572998e-01" nType="0">
          <Node pos="l" depth="2" NCoef="0" IVar="0" Cut="1.7551347017288208e+00" cType="1" res="3.4686300903558731e-02" rms="3.6400946974754333e-01" purity="7.6094907522201538e-01" nType="0">
            <Node pos="l" depth="3" NCoef="0" IVar="-1" Cut="0.0000000000000000e+00" cType="1" res="4.8845596611499786e-03" rms="3.8616958260536194e-01" purity="7.3021268844604492e-01" nType="-99"/>
            <Node pos="r" depth="3" NCoef="0" IVar="-1" Cut="0.0000000000000000e+00" cType="1" res="2.0987105369567871e-01" rms="3.3931887149810791e-01" purity="7.8942698240280151e-01" nType="-99"/>
          </Node>
          <Node pos="r" depth="2" NCoef="0" IVar="-1" Cut="0.0000000000000000e+00" cType="1" res="4.2094373703002930e-01" rms="2.5032854080200195e-01" purity="8.9417785406112671e-01" nType="-99"/>
        </Node>
        <Node pos="r" depth="1" NCoef="0" IVar="7" Cut="8.3492077887058258e-02" cType="1" res="-8.3304764702916145e-03" rms="3.3302998542785645e-01" purity="4.6299085021018982e-01" nType="0">
          <Node pos="l" depth="2" NCoef="0" IVar="7" Cut="8.2662829663604498e-04" cType="1" res="6.1571770347654819e-03" rms="3.6107617616653442e-01" purity="6.2789338827133179e-01" nType="0">
            <Node pos="l" depth="3" NCoef="0" IVar="-1" Cut="0.0000000000000000e+00" cType="1" res="-7.5348772108554840e-02" rms="3.8662213087081909e-01" purity="7.4196988344192505e-01" nType="-99"/>
            <Node pos="r" depth="3" NCoef="0" IVar="-1" Cut="0.0000000000000000e+00" cType="1" res="1.3578954339027405e-01" rms="3.3333992958068848e-01" purity="5.2018433809280396e-01" nType="-99"/>
          </Node>
          <Node pos="r" depth="2" NCoef="0" IVar="2" Cut="4.5592173933982849e-02" cType="1" res="-3.8300368934869766e-02" rms="2.6326051354408264e-01" purity="1.2186498939990997e-01" nType="0">
            <Node pos="l" depth="3" NCoef="0" IVar="-1" Cut="0.0000000000000000e+00" cType="1" res="-3.1867867708206177e-01" rms="3.8965886831283569e-01" purity="3.2963520288467407e-01" nType="-99"/>
            <Node pos="r" depth="3" NCoef="0" IVar="-1" Cut="0.0000000000000000e+00" cType="1" res="-1.9805265963077545e-01" rms="2.4283073842525482e-01" purity="9.7416929900646210e-02" nType="-99"/>
          </Node>
        </Node>
      </Node>
    </BinaryTree>
    <BinaryTree type="DecisionTree" boostWeight="1.0000000000000000e+00" itree="4">
      <Node pos="s" depth="0" NCoef="0" IVar="0" Cut="2.5840351581573486e+00" cType="1" res="8.5789372678846121e-04" rms="3.2797753810882568e-01" purity="5.0017362833023071e-01" nType="0">
        <Node pos="l" depth="1" NCoef="0" IVar="0" Cut="-2.5556635856628418e+00" cType="1" res="1.1056114919483662e-02" rms="3.3590704202651978e-01" purity="6.1623829603195190e-01" nType="0">
          <Node pos="l" depth="2" NCoef="0" IVar="0" Cut="-2.7001321315765381e+00" cType="1" res="-2.8380943462252617e-02" rms="2.9281052947044373e-01" purity="1.3301785290241241e-01" nType="0">
            <Node pos="l" depth="3" NCoef="0" IVar="-1" Cut="0.0000000000000000e+00" cType="1" res="-1.1074931919574738e-01" rms="2.5482815504074097e-01" purity="8.4493555128574371e-02" nType="-99"/>
            <Node pos="r" depth="3" NCoef="0" IVar="-1" Cut="0.0000000000000000e+00" cType="1" res="-3.2576823234558105e-01" rms="4.4273337721824646e-01" purity="4.0096771717071533e-01" nType="-99"/>
          </Node>
          <Node pos="r" depth="2" NCoef="0" IVar="8" Cut="2.4897245690226555e-02" cType="1" res="3.0084053054451942e-02" rms="3.5326245427131653e-01" purity="8.4938669204711914e-01" nType="0">
            <Node pos="l" depth="3" NCoef="0" IVar="-1" Cut="0.0000000000000000e+00" cType="1" res="3.6979962140321732e-02" rms="3.3654990792274475e-01" purity="8.6125326156616211e-01" nType="-99"/>
            <Node pos="r" depth="3" NCoef="0" IVar="-1" Cut="0.0000000000000000e+00" cType="1" res="9.3174678087234497e-01" rms="4.3757551908493042e-01" purity="6.9138824939727783e-01" nType="-99"/>
          </Node>
        </Node>
        <Node pos="r" depth="1" NCoef="0" IVar="8" Cut="3.9172962307929993e-02" cType="1" res="-2.9661661013960838e-02" rms="3.0095267295837402e-01" purity="1.5283446013927460e-01" nType="0">
          <Node pos="l" depth="2" NCoef="0" IVar="2" Cut="8.9108914136886597e-02" cType="1" res="2.6278053410351276e-03" rms="4.1199043393135071e-01" purity="3.2661232352256775e-01" nType="0">
            <Node pos="l" depth="3" NCoef="0" IVar="-1" Cut="0.0000000000000000e+00" cType="1" res="2.7464163303375244e-01" rms="4.3297073245048523e-01" purity="4.6940046548843384e-01" nType="-99"/>
            <Node pos="r" depth="3" NCoef="0" IVar="-1" Cut="0.0000000000000000e+00" cType="1" res="-1.1044779419898987e-01" rms="3.9689850807189941e-01" purity="2.6548919081687927e-01" nType="-99"/>
          </Node>
          <Node pos="r" depth="2" NCoef="0" IVar="3" Cut="3.3667671680450439e-01" cType="1" res="-4.8150744289159775e-02" rms="2.1048575639724731e-01" purity="5.3328521549701691e-02" nType="0">
            <Node pos="l" depth="3" NCoef="0" IVar="-1" Cut="0.0000000000000000e+00" cType="1" res="-3.0899658799171448e-01" rms="1.9819097220897675e-01" purity="4.8095639795064926e-02" nType="-99"/>
            <Node pos="r" depth="3" NCoef="0" IVar="-1" Cut="0.0000000000000000e+00" cType="1" res="-3.8099962472915649e-01" rms="2.5844308733940125e-01" purity="7.9731650650501251e-02" nType="-99"/>
          </Node>
        </Node>
      </Node>
    </BinaryTree>
    <BinaryTree type="DecisionTree" boostWeight="1.0000000000000000e+00" itree="5">
      <Node pos="s" depth="0" NCoef="0" IVar="8" Cut="6.8823806941509247e-02" cType="1" res="-3.6108333151787519e-03" rms="3.2149109244346619e-01" purity="4.9980729818344116e-01" nType="0">
        <Node pos="l" depth="1" NCoef="0" IVar="8" Cut="6.8133516469970345e-04" cType="1" res="3.2369897235184908e-03" rms="3.4900334477424622e-01" purity="6.3148611783981323e-01" nType="0">
          <Node pos="l" depth="2" NCoef="0" IVar="6" Cut="1.9329158589243889e-02" cType="1" res="-7.7559719793498516e-03" rms="3.5836756229400635e-01" purity="7.6531124114990234e-01" nType="0">
            <Node pos="l" depth="3" NCoef="0" IVar="-1" Cut="0.0000000000000000e+00" cType="1" res="1.7991025000810623e-02" rms="3.8183382153511047e-01" purity="7.6681745052337646e-01" nType="-99"/>
            <Node pos="r" depth="3" NCoef="0" IVar="-1" Cut="0.0000000000000000e+00" cType="1" res="-1.4101500809192657e-01" rms="3.1949251890182495e-01" purity="7.6307791471481323e-01" nType="-99"/>
          </Node>
          <Node pos="r" depth="2" NCoef="0" IVar="8" Cut="1.0140972211956978e-02" cType="1" res="2.3689063265919685e-02" rms="3.2990384101867676e-01" purity="3.8250851631164551e-01" nType="0">
            <Node pos="l" depth="3" NCoef="0" IVar="-1" Cut="0.0000000000000000e+00" cType="1" res="4.6738111972808838e-01" rms="2.9188799858093262e-01" purity="8.4491819143295288e-01" nType="-99"/>
            <Node pos="r" depth="3" NCoef="0" IVar="-1" Cut="0.0000000000000000e+00" cType="1" res="4.7983910888433456e-02" rms="3.3471548557281494e-01" purity="2.9601404070854187e-01" nType="-99"/>
          </Node>
        </Node>
        <Node pos="r" depth="1" NCoef="0" IVar="2" Cut="4.9595724791288376e-02" cType="1" res="-2.6248751208186150e-02" rms="2.0422159135341644e-01" purity="6.4496122300624847e-02" nType="0">
          <Node pos="l" depth="2" NCoef="0" IVar="-1" Cut="0.0000000000000000e+00" cType="1" res="-4.1598707437515259e-01" rms="3.1543275713920593e-01" purity="2.0574301481246948e-01" nType="-99"/>
          <Node pos="r" depth="2" NCoef="0" IVar="7" Cut="8.1404641270637512e-02" cType="1" res="-1.4186845161020756e-02" rms="1.7709791660308838e-01" purity="4.1784539818763733e-02" nType="0">
            <Node pos="l" depth="3" NCoef="0" IVar="-1" Cut="0.0000000000000000e+00" cType="1" res="-2.4574753642082214e-01" rms="2.2139286994934082e-01" purity="6.9703705608844757e-02" nType="-99"/>
            <Node pos="r" depth="3" NCoef="0" IVar="-1" Cut="0.0000000000000000e+00" cType="1" res="-1.1024337261915207e-01" rms="1.5718503296375275e-01" purity="3.1566254794597626e-02" nType="-99"/>
          </Node>
        </Node>
      </Node>
    </BinaryTree>
    <BinaryTree type="DecisionTree" boostWeight="1.0000000000000000e+00" itree="6">
      <Node pos="s" depth="0" NCoef="0" IVar="3" Cut="6.9306932389736176e-02" cType="1" res="1.7522089183330536e-03" rms="3.1920835375785828e-01" purity="5.0155562162399292e-01" nType="0">
        <Node pos="l" depth="1" NCoef="0" IVar="6" Cut="9.5509728416800499e-03" cType="1" res="2.8539534658193588e-02" rms="3.4863969683647156e-01" purity="6.7836642265319824e-01" nType="0">
          <Node pos="l" depth="2" NCoef="0" IVar="-1" Cut="0.0000000000000000e+00" cType="1" res="-5.6507043540477753e-02" rms="4.3378987908363342e-01" purity="6.7835599184036255e-01" nType="-99"/>
          <Node pos="r" depth="2" NCoef="0" IVar="3" Cut="3.4310217946767807e-02" cType="1" res="6.6843062639236450e-02" rms="2.5825563073158264e-01" purity="6.7837446928024292e-01" nType="0">
            <Node pos="l" depth="3" NCoef="0" IVar="-1" Cut="0.0000000000000000e+00" cType="1" res="5.6575089693069458e-01" rms="2.1699513494968414e-01" purity="8.7398689985275269e-01" nType="-99"/>
            <Node pos="r" depth="3" NCoef="0" IVar="-1" Cut="0.0000000000000000e+00" cType="1" res="2.4038599431514740e-01" rms="2.9314863681793213e-01" purity="4.7237005829811096e-01" nType="-99"/>
          </Node>
        </Node>
        <Node pos="r" depth="1" NCoef="0" IVar="5" Cut="2.5700753927230835e-01" cType="1" res="-9.8939088638871908e-04" rms="3.1591346859931946e-01" purity="4.8345956206321716e-01" nType="0">
          <Node pos="l" depth="2" NCoef="0" IVar="7" Cut="4.0786620229482651e-02" cType="1" res="1.1003129184246063e-03" rms="3.1368190050125122e-01" purity="4.8623219132423401e-01" nType="0">
            <Node pos="l" depth="3" NCoef="0" IVar="-1" Cut="0.0000000000000000e+00" cType="1" res="4.1811894625425339e-02" rms="3.4811377525329590e-01" purity="7.4820983409881592e-01" nType="-99"/>
            <Node pos="r" depth="3" NCoef="0" IVar="-1" Cut="0.0000000000000000e+00" cType="1" res="-6.3067689538002014e-02" rms="2.6828950643539429e-01" purity="1.8465805053710938e-01" nType="-99"/>
          </Node>
          <Node pos="r" depth="2" NCoef="0" IVar="-1" Cut="0.0000000000000000e+00" cType="1" res="-1.9192899763584137e-01" rms="3.5387691855430603e-01" purity="4.2989802360534668e-01" nType="-99"/>
        </Node>
      </Node>
    </BinaryTree>
    <BinaryTree type="DecisionTree" boostWeight="1.0000000000000000e+00" itree="7">
      <Node pos="s" depth="0" NCoef="0" IVar="0" Cut="-1.6925177574157715e+00" cType="1" res="2.7591863181442022e-04" rms="3.1861954927444458e-01" purity="4.9989643692970276e-01" nType="0">
        <Node pos="l" depth="1" NCoef="0" IVar="6" Cut="9.5509728416800499e-03" cType="1" res="-8.4704477339982986e-03" rms="3.2457628846168518e-01" purity="4.5161968469619751e-01" nType="0">
          <Node pos="l" depth="2" NCoef="0" IVar="0" Cut="-2.4283618927001953e+00" cType="1" res="-3.1968675553798676e-02" rms="4.1107857227325439e-01" purity="7.0230388641357422e-01" nType="0">
            <Node pos="l" depth="3" NCoef="0" IVar="-1" Cut="0.0000000000000000e+00" cType="1" res="3.5027187317609787e-02" rms="4.1831359267234802e-01" purity="4.4085508584976196e-01" nType="-99"/>
            <Node pos="r" depth="3" NCoef="0" IVar="-1" Cut="0.0000000000000000e+00" cType="1" res="-1.5884877741336823e-01" rms="4.0814825892448425e-01" purity="7.7838701009750366e-01" nType="-99"/>
          </Node>
          <Node pos="r" depth="2" NCoef="0" IVar="0" Cut="-2.8191297054290771e+00" cType="1" res="-2.0195609249640256e-04" rms="2.8756755590438843e-01" purity="3.6340963840484619e-01" nType="0">
            <Node pos="l" depth="3" NCoef="0" IVar="-1" Cut="0.0000000000000000e+00" cType="1" res="-3.0022194981575012e-01" rms="1.3258244097232819e-01" purity="1.7972379922866821e-02" nType="-99"/>
            <Node pos="r" depth="3" NCoef="0" IVar="-1" Cut="0.0000000000000000e+00" cType="1" res="3.6203056573867798e-02" rms="3.2441905140876770e-01" purity="4.8400145769119263e-01" nType="-99"/>
          </Node>
        </Node>
        <Node pos="r" depth="1" NCoef="0" IVar="0" Cut="2.4978504180908203e+00" cType="1" res="7.5221313163638115e-03" rms="3.1341400742530823e-01" purity="5.3989285230636597e-01" nType="0">
          <Node pos="l" depth="2" NCoef="0" IVar="7" Cut="5.7857818901538849e-02" cType="1" res="2.1268643438816071e-02" rms="3.2123798131942749e-01" purity="8.7828922271728516e-01" nType="0">
            <Node pos="l" depth="3" NCoef="0" IVar="-1" Cut="0.0000000000000000e+00" cType="1" res="7.0655100047588348e-02" rms="3.2044628262519836e-01" purity="8.7819314002990723e-01" nType="-99"/>
            <Node pos="r" depth="3" NCoef="0" IVar="-1" Cut="0.0000000000000000e+00" cType="1" res="2.9142490029335022e-01" rms="3.2411053776741028e-01" purity="8.7908017635345459e-01" nType="-99"/>
          </Node>
          <Node pos="r" depth="2" NCoef="0" IVar="0" Cut="2.6220724582672119e+00" cType="1" res="-6.6585307940840721e-03" rms="3.0448311567306519e-01" purity="1.9080901145935059e-01" nType="0">
            <Node pos="l" depth="3" NCoef="0" IVar="-1" Cut="0.0000000000000000e+00" cType="1" res="-2.3560023307800293e-01" rms="4.3545022606849670e-01" purity="6.3360983133316040e-01" nType="-99"/>
            <Node pos="r" depth="3" NCoef="0" IVar="-1" Cut="0.0000000000000000e+00" cType="1" res="-3.9961016736924648e-03" rms="2.8578636050224304e-01" purity="1.4205464720726013e-01" nType="-99"/>
          </Node>
        </Node>
      </Node>
    </BinaryTree>
    <BinaryTree type="DecisionTree" boostWeight="1.0000000000000000e+00" itree="8">
      <Node pos="s" depth="0" NCoef="0" IVar="4" Cut="1.9733911380171776e-02" cType="1" res="1.1661320459097624e-03" rms="3.1676650047302246e-01" purity="5.0046420097351074e-01" nType="0">
        <Node pos="l" depth="1" NCoef="0" IVar="2" Cut="1.9801979884505272e-02" cType="1" res="1.6260469332337379e-02" rms="4.1385281085968018e-01" purity="6.9102275371551514e-01" nType="0">
          <Node pos="l" depth="2" NCoef="0" IVar="-1" Cut="0.0000000000000000e+00" cType="1" res="-3.8769856095314026e-02" rms="3.9763844013214111e-01" purity="6.8293321132659912e-01" nType="-99"/>
          <Node pos="r" depth="2" NCoef="0" IVar="0" Cut="1.8502194881439209e+00" cType="1" res="3.5332079976797104e-02" rms="4.2308461666107178e-01" purity="6.9633710384368896e-01" nType="0">
            <Node pos="l" depth="3" NCoef="0" IVar="-1" Cut="0.0000000000000000e+00" cType="1" res="5.6964766234159470e-02" rms="4.3544092774391174e-01" purity="6.7928159236907959e-01" nType="-99"/>
            <Node pos="r" depth="3" NCoef="0" IVar="-1" Cut="0.0000000000000000e+00" cType="1" res="1.8496884405612946e-01" rms="4.0636447072029114e-01" purity="7.1749567985534668e-01" nType="-99"/>
          </Node>
        </Node>
        <Node pos="r" depth="1" NCoef="0" IVar="3" Cut="7.2383737564086914e-01" cType="1" res="-5.2289513405412436e-04" rms="3.0393320322036743e-01" purity="4.7914099693298340e-01" nType="0">
          <Node pos="l" depth="2" NCoef="0" IVar="3" Cut="5.0166481733322144e-01" cType="1" res="6.9842935772612691e-04" rms="3.0076676607131958e-01" purity="4.6743881702423096e-01" nType="0">
            <Node pos="l" depth="3" NCoef="0" IVar="-1" Cut="0.0000000000000000e+00" cType="1" res="-1.5518262051045895e-02" rms="2.9650250077247620e-01" purity="3.8317981362342834e-01" nType="-99"/>
            <Node pos="r" depth="3" NCoef="0" IVar="-1" Cut="0.0000000000000000e+00" cType="1" res="6.8585418164730072e-02" rms="3.1750625371932983e-01" purity="8.1711030006408691e-01" nType="-99"/>
          </Node>
          <Node pos="r" depth="2" NCoef="0" IVar="-1" Cut="0.0000000000000000e+00" cType="1" res="-1.5090824663639069e-01" rms="3.8092517852783203e-01" purity="8.0889338254928589e-01" nType="-99"/>
        </Node>
      </Node>
    </BinaryTree>
    <BinaryTree type="DecisionTree" boostWeight="1.0000000000000000e+00" itree="9">
      <Node pos="s" depth="0" NCoef="0" IVar="3" Cut="3.4653463959693909e-01" cType="1" res="1.3488677795976400e-03" rms="3.1597688794136047e-01" purity="5.0076580047607422e-01" nType="0">
        <Node pos="l" depth="1" NCoef="0" IVar="0" Cut="2.8193535804748535e+00" cType="1" res="6.9967224262654781e-03" rms="2.9737886786460876e-01" purity="3.3267474174499512e-01" nType="0">
          <Node pos="l" depth="2" NCoef="0" IVar="0" Cut="-2.4218304157257080e+00" cType="1" res="1.0125865228474140e-02" rms="3.1554293632507324e-01" purity="3.8277170062065125e-01" nType="0">
            <Node pos="l" depth="3" NCoef="0" IVar="-1" Cut="0.0000000000000000e+00" cType="1" res="-1.3806806877255440e-02" rms="2.6749151945114136e-01" purity="1.3519251346588135e-01" nType="-99"/>
            <Node pos="r" depth="3" NCoef="0" IVar="-1" Cut="0.0000000000000000e+00" cType="1" res="8.2004427909851074e-02" rms="3.4548020362854004e-01" purity="5.5916035175323486e-01" nType="-99"/>
          </Node>
          <Node pos="r" depth="2" NCoef="0" IVar="6" Cut="1.5738117694854736e-01" cType="1" res="-1.2480055913329124e-02" rms="1.3673943281173706e-01" purity="2.0855424925684929e-02" nType="0">
            <Node pos="l" depth="3" NCoef="0" IVar="-1" Cut="0.0000000000000000e+00" cType="1" res="-1.2754476070404053e-01" rms="1.3928611576557159e-01" purity="2.3113092407584190e-02" nType="-99"/>
            <Node pos="r" depth="3" NCoef="0" IVar="-1" Cut="0.0000000000000000e+00" cType="1" res="-3.6211276054382324e-01" rms="1.3167278468608856e-01" purity="1.7003165557980537e-02" nType="-99"/>
          </Node>
        </Node>
        <Node pos="r" depth="1" NCoef="0" IVar="6" Cut="1.2435276061296463e-01" cType="1" res="-5.3061745129525661e-03" rms="3.3645349740982056e-01" purity="6.9883263111114502e-01" nType="0">
          <Node pos="l" depth="2" NCoef="0" IVar="0" Cut="-2.6872866153717041e+00" cType="1" res="-1.4191063819453120e-03" rms="3.3619645237922668e-01" purity="7.1688669919967651e-01" nType="0">
            <Node pos="l" depth="3" NCoef="0" IVar="-1" Cut="0.0000000000000000e+00" cType="1" res="1.9242787361145020e-01" rms="3.4521302580833435e-01" purity="1.7436951398849487e-01" nType="-99"/>
            <Node pos="r" depth="3" NCoef="0" IVar="-1" Cut="0.0000000000000000e+00" cType="1" res="-2.9112333431839943e-02" rms="3.3478960394859314e-01" purity="7.8199839591979980e-01" nType="-99"/>
          </Node>
          <Node pos="r" depth="2" NCoef="0" IVar="-1" Cut="0.0000000000000000e+00" cType="1" res="-3.0253177881240845e-01" rms="3.3548128604888916e-01" purity="4.5295941829681396e-01" nType="-99"/>
        </Node>
      </Node>
    </BinaryTree>
    <BinaryTree type="DecisionTree" boostWeight="1.0000000000000000e+00" itree="10">
      <Node pos="s" depth="0" NCoef="0" IVar="5" Cut="4.8603303730487823e-02" cType="1" res="-1.5064431354403496e-03" rms="3.1551319360733032e-01" purity="4.9966743588447571e-01" nType="0">
        <Node pos="l" depth="1" NCoef="0" IVar="6" Cut="2.8993736952543259e-02" cType="1" res="-9.8608583211898804e-03" rms="3.6922287940979004e-01" purity="6.8180131912231445e-01" nType="0">
          <Node pos="l" depth="2" NCoef="0" IVar="6" Cut="2.8693708009086549e-04" cType="1" res="-3.2971207983791828e-03" rms="3.8200497627258301e-01" purity="7.6244008541107178e-01" nType="0">
            <Node pos="l" depth="3" NCoef="0" IVar="-1" Cut="0.0000000000000000e+00" cType="1" res="-3.5096876323223114e-02" rms="4.0085399150848389e-01" purity="7.4111908674240112e-01" nType="-99"/>
            <Node pos="r" depth="3" NCoef="0" IVar="-1" Cut="0.0000000000000000e+00" cType="1" res="1.5366530418395996e-01" rms="2.8038010001182556e-01" purity="8.5806393623352051e-01" nType="-99"/>
          </Node>
          <Node pos="r" depth="2" NCoef="0" IVar="7" Cut="8.2936011254787445e-02" cType="1" res="-3.2053057104349136e-02" rms="3.2128146290779114e-01" purity="4.0915933251380920e-01" nType="0">
            <Node pos="l" depth="3" NCoef="0" IVar="-1" Cut="0.0000000000000000e+00" cType="1" res="-3.1643816828727722e-01" rms="3.5175400972366333e-01" purity="5.4134637117385864e-01" nType="-99"/>
            <Node pos="r" depth="3" NCoef="0" IVar="-1" Cut="0.0000000000000000e+00" cType="1" res="8.8594220578670502e-02" rms="2.6708135008811951e-01" purity="2.2414961457252502e-01" nType="-99"/>
          </Node>
        </Node>
        <Node pos="r" depth="1" NCoef="0" IVar="4" Cut="1.7943400144577026e-01" cType="1" res="2.6142951101064682e-03" rms="2.8523194789886475e-01" purity="4.0983149409294128e-01" nType="0">
          <Node pos="l" depth="2" NCoef="0" IVar="6" Cut="1.2119223922491074e-01" cType="1" res="-5.7768062688410282e-03" rms="2.7209836244583130e-01" purity="3.0327132344245911e-01" nType="0">
            <Node pos="l" depth="3" NCoef="0" IVar="-1" Cut="0.0000000000000000e+00" cType="1" res="-7.8197792172431946e-02" rms="2.9136690497398376e-01" purity="3.7872686982154846e-01" nType="-99"/>
            <Node pos="r" depth="3" NCoef="0" IVar="-1" Cut="0.0000000000000000e+00" cType="1" res="1.4413562603294849e-02" rms="2.5061672925949097e-01" purity="2.2600404918193817e-01" nType="-99"/>
          </Node>
          <Node pos="r" depth="2" NCoef="0" IVar="3" Cut="2.1722222864627838e-01" cType="1" res="1.1162533424794674e-02" rms="2.9777389764785767e-01" purity="5.1838725805282593e-01" nType="0">
            <Node pos="l" depth="3" NCoef="0" IVar="-1" Cut="0.0000000000000000e+00" cType="1" res="-4.9337856471538544e-02" rms="2.7792894840240479e-01" purity="3.7863540649414062e-01" nType="-99"/>
            <Node pos="r" depth="3" NCoef="0" IVar="-1" Cut="0.0000000000000000e+00" cType="1" res="1.1023851484060287e-01" rms="3.0775952339172363e-01" purity="5.9570455551147461e-01" nType="-99"/>
          </Node>
        </Node>
      </Node>
    </BinaryTree>
    <BinaryTree type="DecisionTree" boostWeight="1.0000000000000000e+00" itree="11">
      <Node pos="s" depth="0" NCoef="0" IVar="4" Cut="9.8669558763504028e-02" cType="1" res="7.9293304588645697e-04" rms="3.1714874505996704e-01" purity="5.0122344493865967e-01" nType="0">
        <Node pos="l" depth="1" NCoef="0" IVar="2" Cut="1.8811881542205811e-01" cType="1" res="8.6274547502398491e-03" rms="3.5096079111099243e-01" purity="5.0547498464584351e-01" nType="0">
          <Node pos="l" depth="2" NCoef="0" IVar="6" Cut="2.4803777039051056e-01" cType="1" res="1.8695812905207276e-03" rms="3.3639746904373169e-01" purity="4.3606340885162354e-01" nType="0">
            <Node pos="l" depth="3" NCoef="0" IVar="-1" Cut="0.0000000000000000e+00" cType="1" res="-2.0959144458174706e-02" rms="3.4596961736679077e-01" purity="4.1842842102050781e-01" nType="-99"/>
            <Node pos="r" depth="3" NCoef="0" IVar="-1" Cut="0.0000000000000000e+00" cType="1" res="2.5947824120521545e-01" rms="2.7899664640426636e-01" purity="5.2769476175308228e-01" nType="-99"/>
          </Node>
          <Node pos="r" depth="2" NCoef="0" IVar="4" Cut="9.7686366643756628e-04" cType="1" res="2.0396340638399124e-02" rms="3.7468424439430237e-01" purity="6.2635564804077148e-01" nType="0">
            <Node pos="l" depth="3" NCoef="0" IVar="-1" Cut="0.0000000000000000e+00" cType="1" res="-3.1302401330322027e-03" rms="4.3615633249282837e-01" purity="7.1270012855529785e-01" nType="-99"/>
            <Node pos="r" depth="3" NCoef="0" IVar="-1" Cut="0.0000000000000000e+00" cType="1" res="1.4681892096996307e-01" rms="3.2496845722198486e-01" purity="5.6702220439910889e-01" nType="-99"/>
          </Node>
        </Node>
        <Node pos="r" depth="1" NCoef="0" IVar="3" Cut="4.2101889848709106e-01" cType="1" res="-2.0655828993767500e-03" rms="3.0382639169692993e-01" purity="4.9967217445373535e-01" nType="0">
          <Node pos="l" depth="2" NCoef="0" IVar="6" Cut="2.9390567913651466e-02" cType="1" res="-6.3903359696269035e-03" rms="2.9674410820007324e-01" purity="3.5846763849258423e-01" nType="0">
            <Node pos="l" depth="3" NCoef="0" IVar="-1" Cut="0.0000000000000000e+00" cType="1" res="-2.1164759993553162e-01" rms="3.8314357399940491e-01" purity="6.5256619453430176e-01" nType="-99"/>
            <Node pos="r" depth="3" NCoef="0" IVar="-1" Cut="0.0000000000000000e+00" cType="1" res="-7.5890257721766829e-04" rms="2.8044307231903076e-01" purity="3.1283149123191833e-01" nType="-99"/>
          </Node>
          <Node pos="r" depth="2" NCoef="0" IVar="2" Cut="7.4998937547206879e-02" cType="1" res="6.8072169087827206e-03" rms="3.1767874956130981e-01" purity="7.8937184810638428e-01" nType="0">
            <Node pos="l" depth="3" NCoef="0" IVar="-1" Cut="0.0000000000000000e+00" cType="1" res="1.4948770403862000e-01" rms="3.0095186829566956e-01" purity="8.7427520751953125e-01" nType="-99"/>
            <Node pos="r" depth="3" NCoef="0" IVar="-1" Cut="0.0000000000000000e+00" cType="1" res="-7.2040391387417912e-04" rms="3.2312074303627014e-01" purity="7.5924342870712280e-01" nType="-99"/>
          </Node>
        </Node>
      </Node>
    </BinaryTree>
    <BinaryTree type="DecisionTree" boostWeight="1.0000000000000000e+00" itree="12">
      <Node pos="s" depth="0" NCoef="0" IVar="2" Cut="2.9702970758080482e-02" cType="1" res="-1.9786017946898937e-03" rms="3.1461802124977112e-01" purity="4.9778813123703003e-01" nType="0">
        <Node pos="l" depth="1" NCoef="0" IVar="4" Cut="2.6521757245063782e-01" cType="1" res="1.0754159651696682e-02" rms="3.0702063441276550e-01" purity="8.0805629491806030e-01" nType="0">
          <Node pos="l" depth="2" NCoef="0" IVar="0" Cut="2.0997142791748047e+00" cType="1" res="-2.2879906464368105e-03" rms="3.4438514709472656e-01" purity="7.3478192090988159e-01" nType="0">
            <Node pos="l" depth="3" NCoef="0" IVar="-1" Cut="0.0000000000000000e+00" cType="1" res="4.9568232148885727e-02" rms="3.4634160995483398e-01" purity="7.5843864679336548e-01" nType="-99"/>
            <Node pos="r" depth="3" NCoef="0" IVar="-1" Cut="0.0000000000000000e+00" cType="1" res="-1.4037337899208069e-01" rms="3.3808180689811707e-01" purity="6.8472933769226074e-01" nType="-99"/>
          </Node>
          <Node pos="r" depth="2" NCoef="0" IVar="-1" Cut="0.0000000000000000e+00" cType="1" res="2.6467239856719971e-01" rms="2.3131826519966125e-01" purity="9.2851960659027100e-01" nType="-99"/>
        </Node>
        <Node pos="r" depth="1" NCoef="0" IVar="8" Cut="7.9426914453506470e-03" cType="1" res="-3.9013924542814493e-03" rms="3.1570482254028320e-01" purity="4.5093417167663574e-01" nType="0">
          <Node pos="l" depth="2" NCoef="0" IVar="7" Cut="2.7686517685651779e-02" cType="1" res="-9.7148045897483826e-03" rms="3.6051729321479797e-01" purity="7.5034540891647339e-01" nType="0">
            <Node pos="l" depth="3" NCoef="0" IVar="-1" Cut="0.0000000000000000e+00" cType="1" res="-1.6074085608124733e-02" rms="3.6171889305114746e-01" purity="7.7608126401901245e-01" nType="-99"/>
            <Node pos="r" depth="3" NCoef="0" IVar="-1" Cut="0.0000000000000000e+00" cType="1" res="-1.9331587851047516e-01" rms="3.5163906216621399e-01" purity="6.0183066129684448e-01" nType="-99"/>
          </Node>
          <Node pos="r" depth="2" NCoef="0" IVar="2" Cut="6.5374031662940979e-02" cType="1" res="1.7418094212189317e-03" rms="2.6493191719055176e-01" purity="1.6028933227062225e-01" nType="0">
            <Node pos="l" depth="3" NCoef="0" IVar="-1" Cut="0.0000000000000000e+00" cType="1" res="1.1396640539169312e-01" rms="3.1044080853462219e-01" purity="2.2593587636947632e-01" nType="-99"/>
            <Node pos="r" depth="3" NCoef="0" IVar="-1" Cut="0.0000000000000000e+00" cType="1" res="-1.1496570892632008e-02" rms="2.5409930944442749e-01" purity="1.4633911848068237e-01" nType="-99"/>
          </Node>
        </Node>
      </Node>
    </BinaryTree>
    <BinaryTree type="DecisionTree" boostWeight="1.0000000000000000e+00" itree="13">
      <Node pos="s" depth="0" NCoef="0" IVar="2" Cut="4.9504950642585754e-02" cType="1" res="2.3088229354470968e-03" rms="3.1484198570251465e-01" purity="4.9925056099891663e-01" nType="0">
        <Node pos="l" depth="1" NCoef="0" IVar="8" Cut="4.8620887100696564e-02" cType="1" res="-8.3660753443837166e-03" rms="3.2336232066154480e-01" purity="7.0810812711715698e-01" nType="0">
          <Node pos="l" depth="2" NCoef="0" IVar="0" Cut="-1.7989724874496460e+00" cType="1" res="-1.3944476377218962e-03" rms="3.2409250736236572e-01" purity="8.2246929407119751e-01" nType="0">
            <Node pos="l" depth="3" NCoef="0" IVar="-1" Cut="0.0000000000000000e+00" cType="1" res="6.4334765076637268e-02" rms="3.4489479660987854e-01" purity="7.8521847724914551e-01" nType="-99"/>
            <Node pos="r" depth="3" NCoef="0" IVar="-1" Cut="0.0000000000000000e+00" cType="1" res="-5.8419492095708847e-02" rms="3.1094297766685486e-01" purity="8.4424173831939697e-01" nType="-99"/>
          </Node>
          <Node pos="r" depth="2" NCoef="0" IVar="-1" Cut="0.0000000000000000e+00" cType="1" res="-1.9280140101909637e-01" rms="3.1895723938941956e-01" purity="2.5490009784698486e-01" nType="-99"/>
        </Node>
        <Node pos="r" depth="1" NCoef="0" IVar="1" Cut="1.3997128009796143e+00" cType="1" res="4.9364650622010231e-03" rms="3.1265318393707275e-01" purity="4.4783991575241089e-01" nType="0">
          <Node pos="l" depth="2" NCoef="0" IVar="0" Cut="-2.1087923049926758e+00" cType="1" res="1.4845684636384249e-03" rms="3.1089872121810913e-01" purity="4.4009518623352051e-01" nType="0">
            <Node pos="l" depth="3" NCoef="0" IVar="-1" Cut="0.0000000000000000e+00" cType="1" res="-2.8718156740069389e-02" rms="3.0273717641830444e-01" purity="2.8660902380943298e-01" nType="-99"/>
            <Node pos="r" depth="3" NCoef="0" IVar="-1" Cut="0.0000000000000000e+00" cType="1" res="2.5919212028384209e-02" rms="3.1560423970222473e-01" purity="5.3156960010528564e-01" nType="-99"/>
          </Node>
          <Node pos="r" depth="2" NCoef="0" IVar="7" Cut="6.7477196455001831e-02" cType="1" res="1.4281550422310829e-02" rms="3.1716576218605042e-01" purity="4.6880674362182617e-01" nType="0">
            <Node pos="l" depth="3" NCoef="0" IVar="-1" Cut="0.0000000000000000e+00" cType="1" res="8.4474094212055206e-02" rms="3.5314977169036865e-01" purity="6.7768663167953491e-01" nType="-99"/>
            <Node pos="r" depth="3" NCoef="0" IVar="-1" Cut="0.0000000000000000e+00" cType="1" res="3.7304308265447617e-02" rms="2.4458210170269012e-01" purity="1.1718673259019852e-01" nType="-99"/>
          </Node>
        </Node>
      </Node>
    </BinaryTree>
    <BinaryTree type="DecisionTree" boostWeight="1.0000000000000000e+00" itree="14">
      <Node pos="s" depth="0" NCoef="0" IVar="2" Cut="4.7524753212928772e-01" cType="1" res="3.7027677171863616e-04" rms="3.1237083673477173e-01" purity="4.9995183944702148e-01" nType="0">
        <Node pos="l" depth="1" NCoef="0" IVar="6" Cut="9.5399143174290657e-03" cType="1" res="1.1364629026502371e-03" rms="3.0730852484703064e-01" purity="4.9392214417457581e-01" nType="0">
          <Node pos="l" depth="2" NCoef="0" IVar="6" Cut="6.6103850258514285e-04" cType="1" res="9.9530722945928574e-03" rms="3.7372639775276184e-01" purity="7.5466597080230713e-01" nType="0">
            <Node pos="l" depth="3" NCoef="0" IVar="-1" Cut="0.0000000000000000e+00" cType="1" res="1.4396828599274158e-02" rms="3.9082404971122742e-01" purity="7.3042500019073486e-01" nType="-99"/>
            <Node pos="r" depth="3" NCoef="0" IVar="-1" Cut="0.0000000000000000e+00" cType="1" res="3.1250929832458496e-01" rms="2.0998647809028625e-01" purity="9.2824524641036987e-01" nType="-99"/>
          </Node>
          <Node pos="r" depth="2" NCoef="0" IVar="5" Cut="1.8629411235451698e-02" cType="1" res="-1.8303943797945976e-03" rms="2.8139358758926392e-01" purity="4.0617981553077698e-01" nType="0">
            <Node pos="l" depth="3" NCoef="0" IVar="-1" Cut="0.0000000000000000e+00" cType="1" res="-2.4764218926429749e-01" rms="3.5407274961471558e-01" purity="5.9910476207733154e-01" nType="-99"/>
            <Node pos="r" depth="3" NCoef="0" IVar="-1" Cut="0.0000000000000000e+00" cType="1" res="-6.2363327015191317e-04" rms="2.7806973457336426e-01" purity="3.9875257015228271e-01" nType="-99"/>
          </Node>
        </Node>
        <Node pos="r" depth="1" NCoef="0" IVar="-1" Cut="0.0000000000000000e+00" cType="1" res="-7.5306862592697144e-02" rms="4.5401000976562500e-01" purity="7.1000641584396362e-01" nType="-99"/>
      </Node>
    </BinaryTree>
    <BinaryTree type="DecisionTree" boostWeight="1.0000000000000000e+00" itree="15">
      <Node pos="s" depth="0" NCoef="0" IVar="6" Cut="1.9329158589243889e-02" cType="1" res="-5.9588284784695134e-05" rms="3.1241029500961304e-01" purity="5.0062900781631470e-01" nType="0">
        <Node pos="l" depth="1" NCoef="0" IVar="7" Cut="9.7250519320368767e-03" cType="1" res="-5.9706238098442554e-03" rms="3.7190899252891541e-01" purity="7.5493752956390381e-01" nType="0">
          <Node pos="l" depth="2" NCoef="0" IVar="5" Cut="1.9249595701694489e-02" cType="1" res="-7.9123344039544463e-04" rms="3.7350302934646606e-01" purity="7.6806664466857910e-01" nType="0">
            <Node pos="l" depth="3" NCoef="0" IVar="-1" Cut="0.0000000000000000e+00" cType="1" res="2.5647839531302452e-02" rms="3.8796266913414001e-01" purity="7.5671875476837158e-01" nType="-99"/>
            <Node pos="r" depth="3" NCoef="0" IVar="-1" Cut="0.0000000000000000e+00" cType="1" res="-9.0742789208889008e-02" rms="3.3737960457801819e-01" purity="7.9401618242263794e-01" nType="-99"/>
          </Node>
          <Node pos="r" depth="2" NCoef="0" IVar="-1" Cut="0.0000000000000000e+00" cType="1" res="-3.5946115851402283e-01" rms="3.4920802712440491e-01" purity="6.1227488517761230e-01" nType="-99"/>
        </Node>
        <Node pos="r" depth="1" NCoef="0" IVar="7" Cut="9.4693135470151901e-03" cType="1" res="2.6362168136984110e-03" rms="2.8108340501785278e-01" purity="3.8464823365211487e-01" nType="0">
          <Node pos="l" depth="2" NCoef="0" IVar="7" Cut="9.3747235951013863e-05" cType="1" res="-1.2068605981767178e-02" rms="3.2762113213539124e-01" purity="7.5364691019058228e-01" nType="0">
            <Node pos="l" depth="3" NCoef="0" IVar="-1" Cut="0.0000000000000000e+00" cType="1" res="-1.6962422430515289e-01" rms="3.7287795543670654e-01" purity="6.6734045743942261e-01" nType="-99"/>
            <Node pos="r" depth="3" NCoef="0" IVar="-1" Cut="0.0000000000000000e+00" cType="1" res="3.0867782235145569e-01" rms="1.9316157698631287e-01" purity="9.3152713775634766e-01" nType="-99"/>
          </Node>
          <Node pos="r" depth="2" NCoef="0" IVar="0" Cut="2.7028040885925293e+00" cType="1" res="5.4998975247144699e-03" rms="2.7099981904029846e-01" purity="3.1278786063194275e-01" nType="0">
            <Node pos="l" depth="3" NCoef="0" IVar="-1" Cut="0.0000000000000000e+00" cType="1" res="7.3474988341331482e-02" rms="2.8703892230987549e-01" purity="4.2175665497779846e-01" nType="-99"/>
            <Node pos="r" depth="3" NCoef="0" IVar="-1" Cut="0.0000000000000000e+00" cType="1" res="-4.9095567315816879e-02" rms="2.3477722704410553e-01" purity="9.2101834714412689e-02" nType="-99"/>
          </Node>
        </Node>
      </Node>
    </BinaryTree>
    <BinaryTree type="DecisionTree" boostWeight="1.0000000000000000e+00" itree="16">
      <Node pos="s" depth="0" NCoef="0" IVar="0" Cut="-2.4047088623046875e+00" cType="1" res="6.2728417105972767e-04" rms="3.1438061594963074e-01" purity="4.9925577640533447e-01" nType="0">
        <Node pos="l" depth="1" NCoef="0" IVar="0" Cut="-2.5576043128967285e+00" cType="1" res="-9.6178809180855751e-03" rms="2.9483237862586975e-01" purity="1.9753798842430115e-01" nType="0">
          <Node pos="l" depth="2" NCoef="0" IVar="2" Cut="8.9108914136886597e-02" cType="1" res="-4.4571873731911182e-03" rms="2.7574303746223450e-01" purity="1.2856918573379517e-01" nType="0">
            <Node pos="l" depth="3" NCoef="0" IVar="-1" Cut="0.0000000000000000e+00" cType="1" res="6.7397832870483398e-02" rms="3.0322170257568359e-01" purity="1.7424128949642181e-01" nType="-99"/>
            <Node pos="r" depth="3" NCoef="0" IVar="-1" Cut="0.0000000000000000e+00" cType="1" res="-9.4814531505107880e-02" rms="2.5860103964805603e-01" purity="1.0284123569726944e-01" nType="-99"/>
          </Node>
          <Node pos="r" depth="2" NCoef="0" IVar="-1" Cut="0.0000000000000000e+00" cType="1" res="-1.8771253526210785e-01" rms="4.1267526149749756e-01" purity="7.3711746931076050e-01" nType="-99"/>
        </Node>
        <Node pos="r" depth="1" NCoef="0" IVar="2" Cut="1.0891088843345642e-01" cType="1" res="4.4994316995143890e-03" rms="3.2137441635131836e-01" purity="6.1328959465026855e-01" nType="0">
          <Node pos="l" depth="2" NCoef="0" IVar="0" Cut="2.7319912910461426e+00" cType="1" res="-2.6380622293800116e-03" rms="3.1472039222717285e-01" purity="6.2580621242523193e-01" nType="0">
            <Node pos="l" depth="3" NCoef="0" IVar="-1" Cut="0.0000000000000000e+00" cType="1" res="-5.0708863884210587e-02" rms="3.3207213878631592e-01" purity="8.1176960468292236e-01" nType="-99"/>
            <Node pos="r" depth="3" NCoef="0" IVar="-1" Cut="0.0000000000000000e+00" cType="1" res="1.4041775465011597e-01" rms="2.6134580373764038e-01" purity="1.2519767880439758e-01" nType="-99"/>
          </Node>
          <Node pos="r" depth="2" NCoef="0" IVar="4" Cut="3.2715309411287308e-02" cType="1" res="1.0853518731892109e-02" rms="3.2705324888229370e-01" purity="6.0214680433273315e-01" nType="0">
            <Node pos="l" depth="3" NCoef="0" IVar="-1" Cut="0.0000000000000000e+00" cType="1" res="-4.2988892644643784e-02" rms="4.1818529367446899e-01" purity="7.0369172096252441e-01" nType="-99"/>
            <Node pos="r" depth="3" NCoef="0" IVar="-1" Cut="0.0000000000000000e+00" cType="1" res="7.2610899806022644e-02" rms="3.1035527586936951e-01" purity="5.8638483285903931e-01" nType="-99"/>
          </Node>
        </Node>
      </Node>
    </BinaryTree>
    <BinaryTree type="DecisionTree" boostWeight="1.0000000000000000e+00" itree="17">
      <Node pos="s" depth="0" NCoef="0" IVar="5" Cut="1.9441321492195129e-02" cType="1" res="2.4779717205092311e-04" rms="3.1162127852439880e-01" purity="4.9823099374771118e-01" nType="0">
        <Node pos="l" depth="1" NCoef="0" IVar="5" Cut="1.9247880845796317e-04" cType="1" res="1.1166632175445557e-02" rms="3.8503092527389526e-01" purity="7.3782914876937866e-01" nType="0">
          <Node pos="l" depth="2" NCoef="0" IVar="3" Cut="2.2772277891635895e-01" cType="1" res="2.1094926632940769e-03" rms="4.0564537048339844e-01" purity="7.2035014629364014e-01" nType="0">
            <Node pos="l" depth="3" NCoef="0" IVar="-1" Cut="0.0000000000000000e+00" cType="1" res="6.5778523683547974e-02" rms="4.3854185938835144e-01" purity="6.7815124988555908e-01" nType="-99"/>
            <Node pos="r" depth="3" NCoef="0" IVar="-1" Cut="0.0000000000000000e+00" cType="1" res="-2.7102975174784660e-02" rms="3.9192709326744080e-01" purity="7.3650646209716797e-01" nType="-99"/>
          </Node>
          <Node pos="r" depth="2" NCoef="0" IVar="-1" Cut="0.0000000000000000e+00" cType="1" res="2.2758580744266510e-01" rms="2.8993254899978638e-01" purity="8.0502426624298096e-01" nType="-99"/>
        </Node>
        <Node pos="r" depth="1" NCoef="0" IVar="0" Cut="2.1681060791015625e+00" cType="1" res="-2.9922644607722759e-03" rms="2.8615787625312805e-01" purity="4.2713245749473572e-01" nType="0">
          <Node pos="l" depth="2" NCoef="0" IVar="0" Cut="-1.9243296384811401e+00" cType="1" res="2.6278069708496332e-03" rms="2.8260564804077148e-01" purity="4.9254584312438965e-01" nType="0">
            <Node pos="l" depth="3" NCoef="0" IVar="-1" Cut="0.0000000000000000e+00" cType="1" res="-2.7144290506839752e-02" rms="2.8755053877830505e-01" purity="3.3031639456748962e-01" nType="-99"/>
            <Node pos="r" depth="3" NCoef="0" IVar="-1" Cut="0.0000000000000000e+00" cType="1" res="1.1483284831047058e-01" rms="2.6866772770881653e-01" purity="9.1034722328186035e-01" nType="-99"/>
          </Node>
          <Node pos="r" depth="2" NCoef="0" IVar="8" Cut="3.8969829678535461e-02" cType="1" res="-1.0906925424933434e-02" rms="2.9090288281440735e-01" purity="3.3501186966896057e-01" nType="0">
            <Node pos="l" depth="3" NCoef="0" IVar="-1" Cut="0.0000000000000000e+00" cType="1" res="-1.0215234756469727e-01" rms="3.4795147180557251e-01" purity="5.9836995601654053e-01" nType="-99"/>
            <Node pos="r" depth="3" NCoef="0" IVar="-1" Cut="0.0000000000000000e+00" cType="1" res="4.3859056313522160e-04" rms="2.2784438729286194e-01" purity="1.0047789663076401e-01" nType="-99"/>
          </Node>
        </Node>
      </Node>
    </BinaryTree>
    <BinaryTree type="DecisionTree" boostWeight="1.0000000000000000e+00" itree="18">
      <Node pos="s" depth="0" NCoef="0" IVar="7" Cut="2.6144236326217651e-01" cType="1" res="1.1770548298954964e-03" rms="3.1167665123939514e-01" purity="5.0108617544174194e-01" nType="0">
        <Node pos="l" depth="1" NCoef="0" IVar="3" Cut="1.8811881542205811e-01" cType="1" res="6.0104177100583911e-04" rms="3.1253620982170105e-01" purity="5.0606471300125122e-01" nType="0">
          <Node pos="l" depth="2" NCoef="0" IVar="5" Cut="1.9560882449150085e-01" cType="1" res="-6.5004345960915089e-03" rms="2.9630708694458008e-01" purity="3.9233902096748352e-01" nType="0">
            <Node pos="l" depth="3" NCoef="0" IVar="-1" Cut="0.0000000000000000e+00" cType="1" res="-6.4738132059574127e-02" rms="3.0972307920455933e-01" purity="3.3921071887016296e-01" nType="-99"/>
            <Node pos="r" depth="3" NCoef="0" IVar="-1" Cut="0.0000000000000000e+00" cType="1" res="3.4451618790626526e-02" rms="2.6852509379386902e-01" purity="4.9363669753074646e-01" nType="-99"/>
          </Node>
          <Node pos="r" depth="2" NCoef="0" IVar="2" Cut="8.8395051658153534e-02" cType="1" res="2.7945896144956350e-03" rms="3.1734934449195862e-01" purity="5.4119300842285156e-01" nType="0">
            <Node pos="l" depth="3" NCoef="0" IVar="-1" Cut="0.0000000000000000e+00" cType="1" res="-3.1287346035242081e-02" rms="3.1741991639137268e-01" purity="5.9165072441101074e-01" nType="-99"/>
            <Node pos="r" depth="3" NCoef="0" IVar="-1" Cut="0.0000000000000000e+00" cType="1" res="3.2603401690721512e-02" rms="3.1725576519966125e-01" purity="5.2048987150192261e-01" nType="-99"/>
          </Node>
        </Node>
        <Node pos="r" depth="1" NCoef="0" IVar="-1" Cut="0.0000000000000000e+00" cType="1" res="1.8471837043762207e-01" rms="2.7544811367988586e-01" purity="3.0844843387603760e-01" nType="-99"/>
      </Node>
    </BinaryTree>
    <BinaryTree type="DecisionTree" boostWeight="1.0000000000000000e+00" itree="19">
      <Node pos="s" depth="0" NCoef="0" IVar="3" Cut="1.9801979884505272e-02" cType="1" res="-1.3301896397024393e-03" rms="3.1303349137306213e-01" purity="5.0030779838562012e-01" nType="0">
        <Node pos="l" depth="1" NCoef="0" IVar="0" Cut="1.8097605705261230e+00" cType="1" res="1.5241072513163090e-02" rms="3.7278398871421814e-01" purity="7.3773038387298584e-01" nType="0">
          <Node pos="l" depth="2" NCoef="0" IVar="-1" Cut="0.0000000000000000e+00" cType="1" res="4.4651798903942108e-02" rms="3.8690641522407532e-01" purity="7.1642118692398071e-01" nType="-99"/>
          <Node pos="r" depth="2" NCoef="0" IVar="-1" Cut="0.0000000000000000e+00" cType="1" res="5.5475134402513504e-02" rms="3.5760629177093506e-01" purity="7.5974482297897339e-01" nType="-99"/>
        </Node>
        <Node pos="r" depth="1" NCoef="0" IVar="0" Cut="-2.3458650112152100e+00" cType="1" res="-2.2758750710636377e-03" rms="3.0924889445304871e-01" purity="4.8675864934921265e-01" nType="0">
          <Node pos="l" depth="2" NCoef="0" IVar="5" Cut="2.2956280037760735e-02" cType="1" res="4.0106899105012417e-03" rms="2.9421025514602661e-01" purity="2.2166629135608673e-01" nType="0">
            <Node pos="l" depth="3" NCoef="0" IVar="-1" Cut="0.0000000000000000e+00" cType="1" res="1.8001629412174225e-01" rms="3.9940023422241211e-01" purity="4.9713236093521118e-01" nType="-99"/>
            <Node pos="r" depth="3" NCoef="0" IVar="-1" Cut="0.0000000000000000e+00" cType="1" res="-6.3573946245014668e-03" rms="2.7999466657638550e-01" purity="1.9177922606468201e-01" nType="-99"/>
          </Node>
          <Node pos="r" depth="2" NCoef="0" IVar="0" Cut="2.2058124542236328e+00" cType="1" res="-4.9227098934352398e-03" rms="3.1532868742942810e-01" purity="5.9837055206298828e-01" nType="0">
            <Node pos="l" depth="3" NCoef="0" IVar="-1" Cut="0.0000000000000000e+00" cType="1" res="-6.0998730361461639e-02" rms="3.2607010006904602e-01" purity="8.6404901742935181e-01" nType="-99"/>
            <Node pos="r" depth="3" NCoef="0" IVar="-1" Cut="0.0000000000000000e+00" cType="1" res="8.4679275751113892e-03" rms="3.0517867207527161e-01" purity="3.5883340239524841e-01" nType="-99"/>
          </Node>
        </Node>
      </Node>
    </BinaryTree>
    <BinaryTree type="DecisionTree" boostWeight="1.0000000000000000e+00" itree="20">
      <Node pos="s" depth="0" NCoef="0" IVar="7" Cut="5.8350313454866409e-02" cType="1" res="1.3481958012562245e-04" rms="3.1027454137802124e-01" purity="4.9970021843910217e-01" nType="0">
        <Node pos="l" depth="1" NCoef="0" IVar="6" Cut="1.8125836551189423e-01" cType="1" res="3.7180229555815458e-03" rms="3.4571918845176697e-01" purity="7.0676797628402710e-01" nType="0">
          <Node pos="l" depth="2" NCoef="0" IVar="5" Cut="3.8882642984390259e-02" cType="1" res="5.8121732436120510e-03" rms="3.4644258022308350e-01" purity="7.1808236837387085e-01" nType="0">
            <Node pos="l" depth="3" NCoef="0" IVar="-1" Cut="0.0000000000000000e+00" cType="1" res="-6.0052610933780670e-03" rms="3.7920552492141724e-01" purity="7.5399792194366455e-01" nType="-99"/>
            <Node pos="r" depth="3" NCoef="0" IVar="-1" Cut="0.0000000000000000e+00" cType="1" res="6.0182288289070129e-02" rms="3.1557592749595642e-01" purity="6.8734520673751831e-01" nType="-99"/>
          </Node>
          <Node pos="r" depth="2" NCoef="0" IVar="-1" Cut="0.0000000000000000e+00" cType="1" res="-1.6537055373191833e-01" rms="3.3089184761047363e-01" purity="5.1134055852890015e-01" nType="-99"/>
        </Node>
        <Node pos="r" depth="1" NCoef="0" IVar="3" Cut="3.4850302338600159e-01" cType="1" res="-5.1862765103578568e-03" rms="2.4838320910930634e-01" purity="1.9220240414142609e-01" nType="0">
          <Node pos="l" depth="2" NCoef="0" IVar="4" Cut="4.9231331795454025e-02" cType="1" res="-1.3403168413788080e-03" rms="2.3708146810531616e-01" purity="1.7625288665294647e-01" nType="0">
            <Node pos="l" depth="3" NCoef="0" IVar="-1" Cut="0.0000000000000000e+00" cType="1" res="1.8684418499469757e-01" rms="2.3580425977706909e-01" purity="4.3174907565116882e-01" nType="-99"/>
            <Node pos="r" depth="3" NCoef="0" IVar="-1" Cut="0.0000000000000000e+00" cType="1" res="-3.0953180044889450e-02" rms="2.3709416389465332e-01" purity="1.5256716310977936e-01" nType="-99"/>
          </Node>
          <Node pos="r" depth="2" NCoef="0" IVar="0" Cut="2.0999817848205566e+00" cType="1" res="-2.6082972064614296e-02" rms="3.0164238810539246e-01" purity="2.7886265516281128e-01" nType="0">
            <Node pos="l" depth="3" NCoef="0" IVar="-1" Cut="0.0000000000000000e+00" cType="1" res="-4.4402115046977997e-02" rms="2.9657408595085144e-01" purity="2.9865157604217529e-01" nType="-99"/>
            <Node pos="r" depth="3" NCoef="0" IVar="-1" Cut="0.0000000000000000e+00" cType="1" res="-2.2525176405906677e-01" rms="3.0564370751380920e-01" purity="2.5839841365814209e-01" nType="-99"/>
          </Node>
        </Node>
      </Node>
    </BinaryTree>
    <BinaryTree type="DecisionTree" boostWeight="1.0000000000000000e+00" itree="21">
      <Node pos="s" depth="0" NCoef="0" IVar="8" Cut="1.0534525662660599e-01" cType="1" res="-5.6311022490262985e-04" rms="3.1131824851036072e-01" purity="4.9990445375442505e-01" nType="0">
        <Node pos="l" depth="1" NCoef="0" IVar="6" Cut="1.3314451277256012e-01" cType="1" res="9.3228247715160251e-04" rms="3.2672151923179626e-01" purity="5.6609696149826050e-01" nType="0">
          <Node pos="l" depth="2" NCoef="0" IVar="5" Cut="2.1385453641414642e-01" cType="1" res="-1.5911952359601855e-03" rms="3.3574354648590088e-01" purity="6.2294459342956543e-01" nType="0">
            <Node pos="l" depth="3" NCoef="0" IVar="-1" Cut="0.0000000000000000e+00" cType="1" res="8.6156826000660658e-05" rms="3.3612906932830811e-01" purity="6.3237380981445312e-01" nType="-99"/>
            <Node pos="r" depth="3" NCoef="0" IVar="-1" Cut="0.0000000000000000e+00" cType="1" res="-1.0247275978326797e-01" rms="3.3073335886001587e-01" purity="5.1486223936080933e-01" nType="-99"/>
          </Node>
          <Node pos="r" depth="2" NCoef="0" IVar="3" Cut="3.3589351177215576e-01" cType="1" res="9.7761359065771103e-03" rms="2.9274567961692810e-01" purity="3.6686724424362183e-01" nType="0">
            <Node pos="l" depth="3" NCoef="0" IVar="-1" Cut="0.0000000000000000e+00" cType="1" res="3.6296229809522629e-02" rms="2.8505432605743408e-01" purity="3.4768867492675781e-01" nType="-99"/>
            <Node pos="r" depth="3" NCoef="0" IVar="-1" Cut="0.0000000000000000e+00" cType="1" res="1.7133136093616486e-01" rms="3.3401769399642944e-01" purity="4.8213192820549011e-01" nType="-99"/>
          </Node>
        </Node>
        <Node pos="r" depth="1" NCoef="0" IVar="5" Cut="6.5412968397140503e-02" cType="1" res="-1.0611806064844131e-02" rms="1.7539048194885254e-01" purity="5.5105473846197128e-02" nType="0">
          <Node pos="l" depth="2" NCoef="0" IVar="-1" Cut="0.0000000000000000e+00" cType="1" res="1.3947762548923492e-01" rms="2.1819281578063965e-01" purity="1.0765537619590759e-01" nType="-99"/>
          <Node pos="r" depth="2" NCoef="0" IVar="2" Cut="6.0454498976469040e-02" cType="1" res="-1.6536561772227287e-02" rms="1.6154590249061584e-01" purity="4.1073963046073914e-02" nType="0">
            <Node pos="l" depth="3" NCoef="0" IVar="-1" Cut="0.0000000000000000e+00" cType="1" res="-3.1010782718658447e-01" rms="2.1830698847770691e-01" purity="9.3514986336231232e-02" nType="-99"/>
            <Node pos="r" depth="3" NCoef="0" IVar="-1" Cut="0.0000000000000000e+00" cType="1" res="-1.7375537753105164e-01" rms="1.3661631941795349e-01" purity="2.3529049009084702e-02" nType="-99"/>
          </Node>
        </Node>
      </Node>
    </BinaryTree>
    <BinaryTree type="DecisionTree" boostWeight="1.0000000000000000e+00" itree="22">
      <Node pos="s" depth="0" NCoef="0" IVar="0" Cut="-2.6413755416870117e+00" cType="1" res="2.6251649251207709e-04" rms="3.1103232502937317e-01" purity="5.0057500600814819e-01" nType="0">
        <Node pos="l" depth="1" NCoef="0" IVar="0" Cut="-2.7578132152557373e+00" cType="1" res="-6.3417577184736729e-03" rms="2.5566694140434265e-01" purity="9.8339080810546875e-02" nType="0">
          <Node pos="l" depth="2" NCoef="0" IVar="8" Cut="2.7051148936152458e-02" cType="1" res="1.4586255419999361e-03" rms="2.0861354470252991e-01" purity="5.9252567589282990e-02" nType="0">
            <Node pos="l" depth="3" NCoef="0" IVar="-1" Cut="0.0000000000000000e+00" cType="1" res="2.0549693703651428e-01" rms="3.3356314897537231e-01" purity="1.6442568600177765e-01" nType="-99"/>
            <Node pos="r" depth="3" NCoef="0" IVar="-1" Cut="0.0000000000000000e+00" cType="1" res="-1.4480623602867126e-01" rms="1.5470311045646667e-01" purity="2.9583325609564781e-02" nType="-99"/>
          </Node>
          <Node pos="r" depth="2" NCoef="0" IVar="1" Cut="-1.5545435249805450e-01" cType="1" res="-3.2517515122890472e-02" rms="3.7119370698928833e-01" purity="2.2950173914432526e-01" nType="0">
            <Node pos="l" depth="3" NCoef="0" IVar="-1" Cut="0.0000000000000000e+00" cType="1" res="-5.3093273192644119e-02" rms="3.7538987398147583e-01" purity="2.3811770975589752e-01" nType="-99"/>
            <Node pos="r" depth="3" NCoef="0" IVar="-1" Cut="0.0000000000000000e+00" cType="1" res="-2.0006938278675079e-01" rms="3.6620810627937317e-01" purity="2.2130617499351501e-01" nType="-99"/>
          </Node>
        </Node>
        <Node pos="r" depth="1" NCoef="0" IVar="8" Cut="4.3014876544475555e-02" cType="1" res="2.1744200494140387e-03" rms="3.2528123259544373e-01" purity="6.1702024936676025e-01" nType="0">
          <Node pos="l" depth="2" NCoef="0" IVar="1" Cut="-5.2878582477569580e-01" cType="1" res="-5.6976749328896403e-04" rms="3.4459337592124939e-01" purity="7.6415276527404785e-01" nType="0">
            <Node pos="l" depth="3" NCoef="0" IVar="-1" Cut="0.0000000000000000e+00" cType="1" res="2.1489130333065987e-02" rms="3.4202700853347778e-01" purity="7.6215058565139771e-01" nType="-99"/>
            <Node pos="r" depth="3" NCoef="0" IVar="-1" Cut="0.0000000000000000e+00" cType="1" res="-2.0239101722836494e-02" rms="3.4637296199798584e-01" purity="7.6559346914291382e-01" nType="-99"/>
          </Node>
          <Node pos="r" depth="2" NCoef="0" IVar="0" Cut="2.6644244194030762e+00" cType="1" res="1.1153211817145348e-02" rms="2.5174307823181152e-01" purity="1.3561278581619263e-01" nType="0">
            <Node pos="l" depth="3" NCoef="0" IVar="-1" Cut="0.0000000000000000e+00" cType="1" res="1.8995513021945953e-01" rms="4.1323912143707275e-01" purity="4.7688192129135132e-01" nType="-99"/>
            <Node pos="r" depth="3" NCoef="0" IVar="-1" Cut="0.0000000000000000e+00" cType="1" res="7.3275086469948292e-03" rms="1.8300630152225494e-01" purity="4.2333807796239853e-02" nType="-99"/>
          </Node>
        </Node>
      </Node>
    </BinaryTree>
    <BinaryTree type="DecisionTree" boostWeight="1.0000000000000000e+00" itree="23">
      <Node pos="s" depth="0" NCoef="0" IVar="5" Cut="2.5024473667144775e-01" cType="1" res="-5.1194755360484123e-04" rms="3.1235796213150024e-01" purity="4.9939614534378052e-01" nType="0">
        <Node pos="l" depth="1" NCoef="0" IVar="3" Cut="7.2277230024337769e-01" cType="1" res="-1.5707468846812844e-03" rms="3.1281408667564392e-01" purity="4.9447014927864075e-01" nType="0">
          <Node pos="l" depth="2" NCoef="0" IVar="4" Cut="8.8320128619670868e-02" cType="1" res="-2.3927032016217709e-03" rms="3.0741381645202637e-01" purity="4.7748905420303345e-01" nType="0">
            <Node pos="l" depth="3" NCoef="0" IVar="-1" Cut="0.0000000000000000e+00" cType="1" res="-4.4349197298288345e-02" rms="3.4906286001205444e-01" purity="4.7267377376556396e-01" nType="-99"/>
            <Node pos="r" depth="3" NCoef="0" IVar="-1" Cut="0.0000000000000000e+00" cType="1" res="-2.0970706827938557e-03" rms="2.9576921463012695e-01" purity="4.7872239351272583e-01" nType="-99"/>
          </Node>
          <Node pos="r" depth="2" NCoef="0" IVar="2" Cut="9.0566247701644897e-02" cType="1" res="1.1914706788957119e-02" rms="3.9065548777580261e-01" purity="7.7307152748107910e-01" nType="0">
            <Node pos="l" depth="3" NCoef="0" IVar="-1" Cut="0.0000000000000000e+00" cType="1" res="-3.9326539263129234e-03" rms="3.7138706445693970e-01" purity="7.6766985654830933e-01" nType="-99"/>
            <Node pos="r" depth="3" NCoef="0" IVar="-1" Cut="0.0000000000000000e+00" cType="1" res="8.2401975989341736e-02" rms="4.0864887833595276e-01" purity="7.7848857641220093e-01" nType="-99"/>
          </Node>
        </Node>
        <Node pos="r" depth="1" NCoef="0" IVar="1" Cut="9.6413969993591309e-01" cType="1" res="1.2398770079016685e-02" rms="3.0644777417182922e-01" purity="5.5946248769760132e-01" nType="0">
          <Node pos="l" depth="2" NCoef="0" IVar="-1" Cut="0.0000000000000000e+00" cType="1" res="1.9576612859964371e-02" rms="3.0232423543930054e-01" purity="5.5318105220794678e-01" nType="-99"/>
          <Node pos="r" depth="2" NCoef="0" IVar="-1" Cut="0.0000000000000000e+00" cType="1" res="1.6710051894187927e-01" rms="3.1366077065467834e-01" purity="5.7184231281280518e-01" nType="-99"/>
        </Node>
      </Node>
    </BinaryTree>
    <BinaryTree type="DecisionTree" boostWeight="1.0000000000000000e+00" itree="24">
      <Node pos="s" depth="0" NCoef="0" IVar="3" Cut="2.7722772955894470e-01" cType="1" res="9.7555988759268075e-05" rms="3.0946934223175049e-01" purity="4.9798801541328430e-01" nType="0">
        <Node pos="l" depth="1" NCoef="0" IVar="5" Cut="9.7206607460975647e-03" cType="1" res="5.0900550559163094e-03" rms="2.8711503744125366e-01" purity="3.2771205902099609e-01" nType="0">
          <Node pos="l" depth="2" NCoef="0" IVar="0" Cut="1.7980587482452393e+00" cType="1" res="3.0121818184852600e-02" rms="4.3361780047416687e-01" purity="6.7759358882904053e-01" nType="0">
            <Node pos="l" depth="3" NCoef="0" IVar="-1" Cut="0.0000000000000000e+00" cType="1" res="1.0987318307161331e-01" rms="4.4562056660652161e-01" purity="6.5373712778091431e-01" nType="-99"/>
            <Node pos="r" depth="3" NCoef="0" IVar="-1" Cut="0.0000000000000000e+00" cType="1" res="3.9411704987287521e-02" rms="4.2051309347152710e-01" purity="7.0175415277481079e-01" nType="-99"/>
          </Node>
          <Node pos="r" depth="2" NCoef="0" IVar="5" Cut="9.6355274319648743e-02" cType="1" res="1.3413130072876811e-03" rms="2.5790336728096008e-01" purity="2.7531400322914124e-01" nType="0">
            <Node pos="l" depth="3" NCoef="0" IVar="-1" Cut="0.0000000000000000e+00" cType="1" res="-6.7100994288921356e-02" rms="2.5225573778152466e-01" purity="1.9238631427288055e-01" nType="-99"/>
            <Node pos="r" depth="3" NCoef="0" IVar="-1" Cut="0.0000000000000000e+00" cType="1" res="3.4936793148517609e-02" rms="2.5966560840606689e-01" purity="3.0258125066757202e-01" nType="-99"/>
          </Node>
        </Node>
        <Node pos="r" depth="1" NCoef="0" IVar="5" Cut="1.7697064578533173e-01" cType="1" res="-3.4712492488324642e-03" rms="3.2445940375328064e-01" purity="6.1970692873001099e-01" nType="0">
          <Node pos="l" depth="2" NCoef="0" IVar="5" Cut="3.3291310071945190e-02" cType="1" res="-1.7385674873366952e-03" rms="3.2357108592987061e-01" purity="6.2561166286468506e-01" nType="0">
            <Node pos="l" depth="3" NCoef="0" IVar="-1" Cut="0.0000000000000000e+00" cType="1" res="-3.4009352326393127e-02" rms="3.6058595776557922e-01" purity="7.4100929498672485e-01" nType="-99"/>
            <Node pos="r" depth="3" NCoef="0" IVar="-1" Cut="0.0000000000000000e+00" cType="1" res="1.2913185171782970e-02" rms="2.9790753126144409e-01" purity="5.5312585830688477e-01" nType="-99"/>
          </Node>
          <Node pos="r" depth="2" NCoef="0" IVar="-1" Cut="0.0000000000000000e+00" cType="1" res="-1.1299972236156464e-01" rms="3.3412718772888184e-01" purity="5.4970586299896240e-01" nType="-99"/>
        </Node>
      </Node>
    </BinaryTree>
    <BinaryTree type="DecisionTree" boostWeight="1.0000000000000000e+00" itree="25">
      <Node pos="s" depth="0" NCoef="0" IVar="3" Cut="9.9009899422526360e-03" cType="1" res="1.0115439072251320e-03" rms="3.1064701080322266e-01" purity="4.9957442283630371e-01" nType="0">
        <Node pos="l" depth="1" NCoef="0" IVar="-1" Cut="0.0000000000000000e+00" cType="1" res="-6.0702260583639145e-02" rms="4.0937596559524536e-01" purity="6.8742191791534424e-01" nType="-99"/>
        <Node pos="r" depth="1" NCoef="0" IVar="2" Cut="2.6463633775711060e-01" cType="1" res="1.9998636562377214e-03" rms="3.0534815788269043e-01" purity="4.9100831151008606e-01" nType="0">
          <Node pos="l" depth="2" NCoef="0" IVar="2" Cut="1.0479837656021118e-01" cType="1" res="5.6293990928679705e-04" rms="2.9613766074180603e-01" purity="4.6593585610389709e-01" nType="0">
            <Node pos="l" depth="3" NCoef="0" IVar="-1" Cut="0.0000000000000000e+00" cType="1" res="3.0583051964640617e-02" rms="2.9656690359115601e-01" purity="5.0216537714004517e-01" nType="-99"/>
            <Node pos="r" depth="3" NCoef="0" IVar="-1" Cut="0.0000000000000000e+00" cType="1" res="-2.1913554519414902e-02" rms="2.9565894603729248e-01" purity="4.3081533908843994e-01" nType="-99"/>
          </Node>
          <Node pos="r" depth="2" NCoef="0" IVar="0" Cut="2.2369873523712158e+00" cType="1" res="1.3155755586922169e-02" rms="3.6892813444137573e-01" purity="6.8566447496414185e-01" nType="0">
            <Node pos="l" depth="3" NCoef="0" IVar="-1" Cut="0.0000000000000000e+00" cType="1" res="1.8919147551059723e-02" rms="3.7360945343971252e-01" purity="7.2335183620452881e-01" nType="-99"/>
            <Node pos="r" depth="3" NCoef="0" IVar="-1" Cut="0.0000000000000000e+00" cType="1" res="1.3910430669784546e-01" rms="3.5567274689674377e-01" purity="5.8782231807708740e-01" nType="-99"/>
          </Node>
        </Node>
      </Node>
    </BinaryTree>
    <BinaryTree type="DecisionTree" boostWeight="1.0000000000000000e+00" itree="26">
      <Node pos="s" depth="0" NCoef="0" IVar="0" Cut="2.2849569320678711e+00" cType="1" res="-1.5316110802814364e-03" rms="3.0999782681465149e-01" purity="4.9782991409301758e-01" nType="0">
        <Node pos="l" depth="1" NCoef="0" IVar="0" Cut="-2.7899405956268311e+00" cType="1" res="1.1899239616468549e-03" rms="3.1199052929878235e-01" purity="5.8731436729431152e-01" nType="0">
          <Node pos="l" depth="2" NCoef="0" IVar="3" Cut="3.4653463959693909e-01" cType="1" res="-8.5205044597387314e-03" rms="1.7303878068923950e-01" purity="3.7195023149251938e-02" nType="0">
            <Node pos="l" depth="3" NCoef="0" IVar="-1" Cut="0.0000000000000000e+00" cType="1" res="-1.2206620536744595e-02" rms="1.4717198908329010e-01" purity="2.7973709627985954e-02" nType="-99"/>
            <Node pos="r" depth="3" NCoef="0" IVar="-1" Cut="0.0000000000000000e+00" cType="1" res="-2.2245204448699951e-01" rms="2.3864884674549103e-01" purity="6.8311117589473724e-02" nType="-99"/>
          </Node>
          <Node pos="r" depth="2" NCoef="0" IVar="4" Cut="4.6319901943206787e-01" cType="1" res="3.7599594797939062e-03" rms="3.3932870626449585e-01" purity="7.3291307687759399e-01" nType="0">
            <Node pos="l" depth="3" NCoef="0" IVar="-1" Cut="0.0000000000000000e+00" cType="1" res="2.3961486294865608e-02" rms="3.3962026238441467e-01" purity="7.2568482160568237e-01" nType="-99"/>
            <Node pos="r" depth="3" NCoef="0" IVar="-1" Cut="0.0000000000000000e+00" cType="1" res="-1.0782717168331146e-01" rms="3.3402600884437561e-01" purity="8.4141558408737183e-01" nType="-99"/>
          </Node>
        </Node>
        <Node pos="r" depth="1" NCoef="0" IVar="0" Cut="2.6588423252105713e+00" cType="1" res="-6.8958164192736149e-03" rms="3.0596134066581726e-01" purity="3.2145410776138306e-01" nType="0">
          <Node pos="l" depth="2" NCoef="0" IVar="0" Cut="2.4404115676879883e+00" cType="1" res="-2.3071821779012680e-02" rms="3.7219685316085815e-01" purity="7.5030273199081421e-01" nType="0">
            <Node pos="l" depth="3" NCoef="0" IVar="-1" Cut="0.0000000000000000e+00" cType="1" res="-2.8726477175951004e-02" rms="3.2515558600425720e-01" purity="8.7067234516143799e-01" nType="-99"/>
            <Node pos="r" depth="3" NCoef="0" IVar="-1" Cut="0.0000000000000000e+00" cType="1" res="-1.5182134509086609e-01" rms="4.1199621558189392e-01" purity="6.3363355398178101e-01" nType="-99"/>
          </Node>
          <Node pos="r" depth="2" NCoef="0" IVar="6" Cut="3.8338068872690201e-02" cType="1" res="5.1062647253274918e-04" rms="2.6994663476943970e-01" purity="1.2509886920452118e-01" nType="0">
            <Node pos="l" depth="3" NCoef="0" IVar="-1" Cut="0.0000000000000000e+00" cType="1" res="1.6649162769317627e-01" rms="3.9344424009323120e-01" purity="2.6283797621726990e-01" nType="-99"/>
            <Node pos="r" depth="3" NCoef="0" IVar="-1" Cut="0.0000000000000000e+00" cType="1" res="-4.5436091721057892e-02" rms="2.4583229422569275e-01" purity="1.0472776740789413e-01" nType="-99"/>
          </Node>
        </Node>
      </Node>
    </BinaryTree>
    <BinaryTree type="DecisionTree" boostWeight="1.0000000000000000e+00" itree="27">
      <Node pos="s" depth="0" NCoef="0" IVar="4" Cut="5.0321477651596069e-01" cType="1" res="1.6139823710545897e-03" rms="3.1044551730155945e-01" purity="5.0037056207656860e-01" nType="0">
        <Node pos="l" depth="1" NCoef="0" IVar="0" Cut="2.7016727924346924e+00" cType="1" res="4.3284081039018929e-04" rms="3.0950921773910522e-01" purity="4.8983669281005859e-01" nType="0">
          <Node pos="l" depth="2" NCoef="0" IVar="0" Cut="2.5887768268585205e+00" cType="1" res="2.0956550724804401e-03" rms="3.2293879985809326e-01" purity="5.9718072414398193e-01" nType="0">
            <Node pos="l" depth="3" NCoef="0" IVar="-1" Cut="0.0000000000000000e+00" cType="1" res="5.3487364202737808e-03" rms="3.1787976622581482e-01" purity="6.0588079690933228e-01" nType="-99"/>
            <Node pos="r" depth="3" NCoef="0" IVar="-1" Cut="0.0000000000000000e+00" cType="1" res="9.4962246716022491e-02" rms="4.1707119345664978e-01" purity="4.0872752666473389e-01" nType="-99"/>
          </Node>
          <Node pos="r" depth="2" NCoef="0" IVar="2" Cut="5.9233900159597397e-02" cType="1" res="-5.5056046694517136e-03" rms="2.5576886534690857e-01" purity="1.0647659748792648e-01" nType="0">
            <Node pos="l" depth="3" NCoef="0" IVar="-1" Cut="0.0000000000000000e+00" cType="1" res="6.9310255348682404e-02" rms="3.0642220377922058e-01" purity="2.2096006572246552e-01" nType="-99"/>
            <Node pos="r" depth="3" NCoef="0" IVar="-1" Cut="0.0000000000000000e+00" cType="1" res="-6.8171098828315735e-02" rms="2.4556703865528107e-01" purity="8.6196929216384888e-02" nType="-99"/>
          </Node>
        </Node>
        <Node pos="r" depth="1" NCoef="0" IVar="-1" Cut="0.0000000000000000e+00" cType="1" res="1.8698474764823914e-01" rms="3.3732852339744568e-01" purity="8.4417802095413208e-01" nType="-99"/>
      </Node>
    </BinaryTree>
    <BinaryTree type="DecisionTree" boostWeight="1.0000000000000000e+00" itree="28">
      <Node pos="s" depth="0" NCoef="0" IVar="6" Cut="1.9329158589243889e-02" cType="1" res="-4.5685126679018140e-05" rms="3.0927509069442749e-01" purity="5.0188392400741577e-01" nType="0">
        <Node pos="l" depth="1" NCoef="0" IVar="5" Cut="1.0692726820707321e-01" cType="1" res="-4.9583576619625092e-03" rms="3.7158215045928955e-01" purity="7.5570952892303467e-01" nType="0">
          <Node pos="l" depth="2" NCoef="0" IVar="0" Cut="2.3417794704437256e+00" cType="1" res="-2.0509921014308929e-03" rms="3.7070375680923462e-01" purity="7.6851141452789307e-01" nType="0">
            <Node pos="l" depth="3" NCoef="0" IVar="-1" Cut="0.0000000000000000e+00" cType="1" res="-2.1856432780623436e-02" rms="3.6411467194557190e-01" purity="7.9620099067687988e-01" nType="-99"/>
            <Node pos="r" depth="3" NCoef="0" IVar="-1" Cut="0.0000000000000000e+00" cType="1" res="5.6681763380765915e-02" rms="4.0530928969383240e-01" purity="6.1232477426528931e-01" nType="-99"/>
          </Node>
          <Node pos="r" depth="2" NCoef="0" IVar="-1" Cut="0.0000000000000000e+00" cType="1" res="-1.3796266913414001e-01" rms="3.7915948033332825e-01" purity="6.2502872943878174e-01" nType="-99"/>
        </Node>
        <Node pos="r" depth="1" NCoef="0" IVar="6" Cut="2.7510845661163330e-01" cType="1" res="2.1974500268697739e-03" rms="2.7616113424301147e-01" purity="3.8598671555519104e-01" nType="0">
          <Node pos="l" depth="2" NCoef="0" IVar="0" Cut="2.8213653564453125e+00" cType="1" res="3.2869365531951189e-03" rms="2.7529302239418030e-01" purity="3.7894484400749207e-01" nType="0">
            <Node pos="l" depth="3" NCoef="0" IVar="-1" Cut="0.0000000000000000e+00" cType="1" res="3.2437503337860107e-02" rms="2.8983557224273682e-01" purity="4.2920568585395813e-01" nType="-99"/>
            <Node pos="r" depth="3" NCoef="0" IVar="-1" Cut="0.0000000000000000e+00" cType="1" res="-1.9785952568054199e-01" rms="1.2938608229160309e-01" purity="1.8966531381011009e-02" nType="-99"/>
          </Node>
          <Node pos="r" depth="2" NCoef="0" IVar="-1" Cut="0.0000000000000000e+00" cType="1" res="-1.0240572690963745e-01" rms="2.8895059227943420e-01" purity="4.9690985679626465e-01" nType="-99"/>
        </Node>
      </Node>
    </BinaryTree>
    <BinaryTree type="DecisionTree" boostWeight="1.0000000000000000e+00" itree="29">
      <Node pos="s" depth="0" NCoef="0" IVar="1" Cut="1.1508694887161255e+00" cType="1" res="-4.8643964692018926e-04" rms="3.0897957086563110e-01" purity="5.0011974573135376e-01" nType="0">
        <Node pos="l" depth="1" NCoef="0" IVar="0" Cut="2.2277669906616211e+00" cType="1" res="-2.7094953693449497e-03" rms="3.0679711699485779e-01" purity="4.9137115478515625e-01" nType="0">
          <Node pos="l" depth="2" NCoef="0" IVar="0" Cut="-2.4802784919738770e+00" cType="1" res="3.7941493792459369e-04" rms="3.0986860394477844e-01" purity="5.7340073585510254e-01" nType="0">
            <Node pos="l" depth="3" NCoef="0" IVar="-1" Cut="0.0000000000000000e+00" cType="1" res="-4.1068609803915024e-02" rms="2.7729949355125427e-01" purity="1.4814843237400055e-01" nType="-99"/>
            <Node pos="r" depth="3" NCoef="0" IVar="-1" Cut="0.0000000000000000e+00" cType="1" res="2.0379282534122467e-02" rms="3.2997876405715942e-01" purity="8.6044073104858398e-01" nType="-99"/>
          </Node>
          <Node pos="r" depth="2" NCoef="0" IVar="7" Cut="2.6436239480972290e-02" cType="1" res="-8.3274440839886665e-03" rms="3.0104932188987732e-01" purity="3.4218010306358337e-01" nType="0">
            <Node pos="l" depth="3" NCoef="0" IVar="-1" Cut="0.0000000000000000e+00" cType="1" res="-8.5166901350021362e-02" rms="3.6905485391616821e-01" purity="6.4178055524826050e-01" nType="-99"/>
            <Node pos="r" depth="3" NCoef="0" IVar="-1" Cut="0.0000000000000000e+00" cType="1" res="-1.8938558176159859e-02" rms="2.6573482155799866e-01" purity="2.1132595837116241e-01" nType="-99"/>
          </Node>
        </Node>
        <Node pos="r" depth="1" NCoef="0" IVar="0" Cut="2.2829229831695557e+00" cType="1" res="4.4392743147909641e-03" rms="3.1370514631271362e-01" purity="5.1950442790985107e-01" nType="0">
          <Node pos="l" depth="2" NCoef="0" IVar="1" Cut="1.4074220657348633e+00" cType="1" res="8.7707187049090862e-04" rms="3.1712621450424194e-01" purity="6.0942053794860840e-01" nType="0">
            <Node pos="l" depth="3" NCoef="0" IVar="-1" Cut="0.0000000000000000e+00" cType="1" res="7.5012318789958954e-02" rms="3.1341990828514099e-01" purity="6.0660338401794434e-01" nType="-99"/>
            <Node pos="r" depth="3" NCoef="0" IVar="-1" Cut="0.0000000000000000e+00" cType="1" res="-5.8857575058937073e-03" rms="3.1762504577636719e-01" purity="6.0983872413635254e-01" nType="-99"/>
          </Node>
          <Node pos="r" depth="2" NCoef="0" IVar="0" Cut="2.7552635669708252e+00" cType="1" res="1.1287942528724670e-02" rms="3.0690458416938782e-01" purity="3.4663218259811401e-01" nType="0">
            <Node pos="l" depth="3" NCoef="0" IVar="-1" Cut="0.0000000000000000e+00" cType="1" res="7.6226882636547089e-02" rms="3.7352448701858521e-01" purity="6.3859409093856812e-01" nType="-99"/>
            <Node pos="r" depth="3" NCoef="0" IVar="-1" Cut="0.0000000000000000e+00" cType="1" res="4.2536687105894089e-02" rms="2.3117229342460632e-01" purity="8.4816589951515198e-02" nType="-99"/>
          </Node>
        </Node>
      </Node>
    </BinaryTree>
    <BinaryTree type="DecisionTree" boostWeight="1.0000000000000000e+00" itree="30">
      <Node pos="s" depth="0" NCoef="0" IVar="4" Cut="1.2811887264251709e-01" cType="1" res="-1.0759592987596989e-03" rms="3.1041458249092102e-01" purity="4.9744945764541626e-01" nType="0">
        <Node pos="l" depth="1" NCoef="0" IVar="2" Cut="1.3861386477947235e-01" cType="1" res="-6.0952780768275261e-03" rms="3.2769396901130676e-01" purity="4.6406334638595581e-01" nType="0">
          <Node pos="l" depth="2" NCoef="0" IVar="3" Cut="3.1683167815208435e-01" cType="1" res="-1.3221973553299904e-02" rms="3.1615483760833740e-01" purity="4.0217888355255127e-01" nType="0">
            <Node pos="l" depth="3" NCoef="0" IVar="-1" Cut="0.0000000000000000e+00" cType="1" res="-2.8603410348296165e-02" rms="2.9317215085029602e-01" purity="3.4842967987060547e-01" nType="-99"/>
            <Node pos="r" depth="3" NCoef="0" IVar="-1" Cut="0.0000000000000000e+00" cType="1" res="-1.2678302824497223e-01" rms="3.5455679893493652e-01" purity="5.0243461132049561e-01" nType="-99"/>
          </Node>
          <Node pos="r" depth="2" NCoef="0" IVar="4" Cut="1.0147857479751110e-02" cType="1" res="1.5438632108271122e-03" rms="3.3946168422698975e-01" purity="5.3039759397506714e-01" nType="0">
            <Node pos="l" depth="3" NCoef="0" IVar="-1" Cut="0.0000000000000000e+00" cType="1" res="3.7375144660472870e-02" rms="4.3037721514701843e-01" purity="7.1098452806472778e-01" nType="-99"/>
            <Node pos="r" depth="3" NCoef="0" IVar="-1" Cut="0.0000000000000000e+00" cType="1" res="-1.2863282114267349e-02" rms="3.0211326479911804e-01" purity="4.6872034668922424e-01" nType="-99"/>
          </Node>
        </Node>
        <Node pos="r" depth="1" NCoef="0" IVar="5" Cut="6.3065692782402039e-02" cType="1" res="1.8411200726404786e-03" rms="2.9987663030624390e-01" purity="5.1685249805450439e-01" nType="0">
          <Node pos="l" depth="2" NCoef="0" IVar="1" Cut="8.3986437320709229e-01" cType="1" res="-6.9161085411906242e-03" rms="3.2178324460983276e-01" purity="6.5202349424362183e-01" nType="0">
            <Node pos="l" depth="3" NCoef="0" IVar="-1" Cut="0.0000000000000000e+00" cType="1" res="1.0944718815153465e-04" rms="3.1804180145263672e-01" purity="6.4741766452789307e-01" nType="-99"/>
            <Node pos="r" depth="3" NCoef="0" IVar="-1" Cut="0.0000000000000000e+00" cType="1" res="-1.0190454125404358e-01" rms="3.2795459032058716e-01" purity="6.6019386053085327e-01" nType="-99"/>
          </Node>
          <Node pos="r" depth="2" NCoef="0" IVar="3" Cut="1.4368541538715363e-01" cType="1" res="6.0190116055309772e-03" rms="2.8874707221984863e-01" purity="4.5236518979072571e-01" nType="0">
            <Node pos="l" depth="3" NCoef="0" IVar="-1" Cut="0.0000000000000000e+00" cType="1" res="-8.8522471487522125e-02" rms="2.5099238753318787e-01" purity="3.9974570274353027e-01" nType="-99"/>
            <Node pos="r" depth="3" NCoef="0" IVar="-1" Cut="0.0000000000000000e+00" cType="1" res="5.9977844357490540e-02" rms="2.9648441076278687e-01" purity="4.6423810720443726e-01" nType="-99"/>
          </Node>
        </Node>
      </Node>
    </BinaryTree>
    <BinaryTree type="DecisionTree" boostWeight="1.0000000000000000e+00" itree="31">
      <Node pos="s" depth="0" NCoef="0" IVar="3" Cut="7.5247526168823242e-01" cType="1" res="7.8228802885860205e-04" rms="3.1125500798225403e-01" purity="4.9884811043739319e-01" nType="0">
        <Node pos="l" depth="1" NCoef="0" IVar="2" Cut="3.8613861799240112e-01" cType="1" res="-1.5143593191169202e-04" rms="3.0663558840751648e-01" purity="4.8727244138717651e-01" nType="0">
          <Node pos="l" depth="2" NCoef="0" IVar="5" Cut="4.8034369945526123e-02" cType="1" res="4.9991416744887829e-04" rms="2.9877224564552307e-01" purity="4.7564607858657837e-01" nType="0">
            <Node pos="l" depth="3" NCoef="0" IVar="-1" Cut="0.0000000000000000e+00" cType="1" res="2.1266145631670952e-02" rms="3.4671565890312195e-01" purity="6.6518366336822510e-01" nType="-99"/>
            <Node pos="r" depth="3" NCoef="0" IVar="-1" Cut="0.0000000000000000e+00" cType="1" res="-7.8613637015223503e-03" rms="2.7873516082763672e-01" purity="4.0483468770980835e-01" nType="-99"/>
          </Node>
          <Node pos="r" depth="2" NCoef="0" IVar="-1" Cut="0.0000000000000000e+00" cType="1" res="-3.8697004318237305e-02" rms="4.3209147453308105e-01" purity="7.1402901411056519e-01" nType="-99"/>
        </Node>
        <Node pos="r" depth="1" NCoef="0" IVar="-1" Cut="0.0000000000000000e+00" cType="1" res="6.8092249333858490e-02" rms="4.0026798844337463e-01" purity="7.5754779577255249e-01" nType="-99"/>
      </Node>
    </BinaryTree>
    <BinaryTree type="DecisionTree" boostWeight="1.0000000000000000e+00" itree="32">
      <Node pos="s" depth="0" NCoef="0" IVar="3" Cut="1.9801979884505272e-02" cType="1" res="2.1699820645153522e-03" rms="3.0873167514801025e-01" purity="5.0460135936737061e-01" nType="0">
        <Node pos="l" depth="1" NCoef="0" IVar="1" Cut="-3.1517192721366882e-02" cType="1" res="1.6942907124757767e-02" rms="3.6967009305953979e-01" purity="7.4907189607620239e-01" nType="0">
          <Node pos="l" depth="2" NCoef="0" IVar="-1" Cut="0.0000000000000000e+00" cType="1" res="4.0082477033138275e-02" rms="3.7068295478820801e-01" purity="7.4891120195388794e-01" nType="-99"/>
          <Node pos="r" depth="2" NCoef="0" IVar="-1" Cut="0.0000000000000000e+00" cType="1" res="7.0934459567070007e-02" rms="3.6860376596450806e-01" purity="7.4923086166381836e-01" nType="-99"/>
        </Node>
        <Node pos="r" depth="1" NCoef="0" IVar="3" Cut="3.3036032319068909e-01" cType="1" res="1.3455767184495926e-03" rms="3.0495139956474304e-01" purity="4.9095866084098816e-01" nType="0">
          <Node pos="l" depth="2" NCoef="0" IVar="6" Cut="9.1131413355469704e-03" cType="1" res="-2.5488329119980335e-03" rms="2.8105777502059937e-01" purity="2.8240323066711426e-01" nType="0">
            <Node pos="l" depth="3" NCoef="0" IVar="-1" Cut="0.0000000000000000e+00" cType="1" res="-8.0817453563213348e-02" rms="4.3700858950614929e-01" purity="6.5589839220046997e-01" nType="-99"/>
            <Node pos="r" depth="3" NCoef="0" IVar="-1" Cut="0.0000000000000000e+00" cType="1" res="-5.9865633957087994e-03" rms="2.6512962579727173e-01" purity="2.5353711843490601e-01" nType="-99"/>
          </Node>
          <Node pos="r" depth="2" NCoef="0" IVar="0" Cut="-2.5833463668823242e+00" cType="1" res="4.9922363832592964e-03" rms="3.2569772005081177e-01" purity="6.8624645471572876e-01" nType="0">
            <Node pos="l" depth="3" NCoef="0" IVar="-1" Cut="0.0000000000000000e+00" cType="1" res="1.0162383317947388e-01" rms="3.4175771474838257e-01" purity="2.1979790925979614e-01" nType="-99"/>
            <Node pos="r" depth="3" NCoef="0" IVar="-1" Cut="0.0000000000000000e+00" cType="1" res="1.1625871062278748e-02" rms="3.2282572984695435e-01" purity="7.6523315906524658e-01" nType="-99"/>
          </Node>
        </Node>
      </Node>
    </BinaryTree>
    <BinaryTree type="DecisionTree" boostWeight="1.0000000000000000e+00" itree="33">
      <Node pos="s" depth="0" NCoef="0" IVar="2" Cut="4.8514851927757263e-01" cType="1" res="4.4842241914011538e-04" rms="3.0863115191459656e-01" purity="5.0136321783065796e-01" nType="0">
        <Node pos="l" depth="1" NCoef="0" IVar="2" Cut="4.8031425103545189e-03" cType="1" res="-2.8588689747266471e-04" rms="3.0399420857429504e-01" purity="4.9526408314704895e-01" nType="0">
          <Node pos="l" depth="2" NCoef="0" IVar="-1" Cut="0.0000000000000000e+00" cType="1" res="-6.6516093909740448e-02" rms="3.5584065318107605e-01" purity="7.1930485963821411e-01" nType="-99"/>
          <Node pos="r" depth="2" NCoef="0" IVar="3" Cut="7.8824806213378906e-01" cType="1" res="7.0597277954220772e-04" rms="3.0088773369789124e-01" purity="4.8308318853378296e-01" nType="0">
            <Node pos="l" depth="3" NCoef="0" IVar="-1" Cut="0.0000000000000000e+00" cType="1" res="5.8116595027968287e-04" rms="2.9691693186759949e-01" purity="4.7314101457595825e-01" nType="-99"/>
            <Node pos="r" depth="3" NCoef="0" IVar="-1" Cut="0.0000000000000000e+00" cType="1" res="6.3536465167999268e-02" rms="4.0456974506378174e-01" purity="7.9098570346832275e-01" nType="-99"/>
          </Node>
        </Node>
        <Node pos="r" depth="1" NCoef="0" IVar="-1" Cut="0.0000000000000000e+00" cType="1" res="7.0222869515419006e-02" rms="4.4446867704391479e-01" purity="7.2256994247436523e-01" nType="-99"/>
      </Node>
    </BinaryTree>
    <BinaryTree type="DecisionTree" boostWeight="1.0000000000000000e+00" itree="34">
      <Node pos="s" depth="0" NCoef="0" IVar="7" Cut="8.6786732077598572e-02" cType="1" res="-1.8559133168309927e-03" rms="3.0976158380508423e-01" purity="5.0094872713088989e-01" nType="0">
        <Node pos="l" depth="1" NCoef="0" IVar="5" Cut="1.9441321492195129e-01" cType="1" res="-4.3099173344671726e-03" rms="3.3773541450500488e-01" purity="6.4542394876480103e-01" nType="0">
          <Node pos="l" depth="2" NCoef="0" IVar="6" Cut="1.3355879485607147e-01" cType="1" res="-5.9360298328101635e-03" rms="3.4018072485923767e-01" purity="6.5344536304473877e-01" nType="0">
            <Node pos="l" depth="3" NCoef="0" IVar="-1" Cut="0.0000000000000000e+00" cType="1" res="-2.0118927583098412e-02" rms="3.4337258338928223e-01" purity="6.9238358736038208e-01" nType="-99"/>
            <Node pos="r" depth="3" NCoef="0" IVar="-1" Cut="0.0000000000000000e+00" cType="1" res="-1.0064048320055008e-01" rms="3.1349959969520569e-01" purity="3.4481519460678101e-01" nType="-99"/>
          </Node>
          <Node pos="r" depth="2" NCoef="0" IVar="2" Cut="5.0471890717744827e-02" cType="1" res="6.5048965625464916e-03" rms="3.2078909873962402e-01" purity="5.9207540750503540e-01" nType="0">
            <Node pos="l" depth="3" NCoef="0" IVar="-1" Cut="0.0000000000000000e+00" cType="1" res="-6.6244125366210938e-02" rms="2.6697728037834167e-01" purity="8.5142612457275391e-01" nType="-99"/>
            <Node pos="r" depth="3" NCoef="0" IVar="-1" Cut="0.0000000000000000e+00" cType="1" res="6.7283444106578827e-02" rms="3.4935608506202698e-01" purity="4.3335092067718506e-01" nType="-99"/>
          </Node>
        </Node>
        <Node pos="r" depth="1" NCoef="0" IVar="7" Cut="1.1313910782337189e-01" cType="1" res="3.8606119342148304e-03" rms="2.3175838589668274e-01" purity="1.6439826786518097e-01" nType="0">
          <Node pos="l" depth="2" NCoef="0" IVar="8" Cut="6.6044926643371582e-02" cType="1" res="1.8458256497979164e-02" rms="2.5829586386680603e-01" purity="1.9669619202613831e-01" nType="0">
            <Node pos="l" depth="3" NCoef="0" IVar="-1" Cut="0.0000000000000000e+00" cType="1" res="1.7797671258449554e-01" rms="3.1554815173149109e-01" purity="3.3433115482330322e-01" nType="-99"/>
            <Node pos="r" depth="3" NCoef="0" IVar="-1" Cut="0.0000000000000000e+00" cType="1" res="1.2403381615877151e-01" rms="1.7883516848087311e-01" purity="5.2289303392171860e-02" nType="-99"/>
          </Node>
          <Node pos="r" depth="2" NCoef="0" IVar="6" Cut="2.5409701466560364e-01" cType="1" res="-1.5795892104506493e-03" rms="2.2080840170383453e-01" purity="1.5236157178878784e-01" nType="0">
            <Node pos="l" depth="3" NCoef="0" IVar="-1" Cut="0.0000000000000000e+00" cType="1" res="-5.0105374306440353e-02" rms="2.1463112533092499e-01" purity="1.1634578555822372e-01" nType="-99"/>
            <Node pos="r" depth="3" NCoef="0" IVar="-1" Cut="0.0000000000000000e+00" cType="1" res="1.5716387331485748e-01" rms="2.6253849267959595e-01" purity="4.2951536178588867e-01" nType="-99"/>
          </Node>
        </Node>
      </Node>
    </BinaryTree>
    <BinaryTree type="DecisionTree" boostWeight="1.0000000000000000e+00" itree="35">
      <Node pos="s" depth="0" NCoef="0" IVar="0" Cut="-2.1671600341796875e+00" cType="1" res="-7.1944919181987643e-04" rms="3.0850288271903992e-01" purity="4.9973395466804504e-01" nType="0">
        <Node pos="l" depth="1" NCoef="0" IVar="0" Cut="-2.7022490501403809e+00" cType="1" res="-5.6538661010563374e-03" rms="3.0294659733772278e-01" purity="3.1191760301589966e-01" nType="0">
          <Node pos="l" depth="2" NCoef="0" IVar="8" Cut="2.3874325677752495e-02" cType="1" res="5.3622835548594594e-04" rms="2.3448765277862549e-01" purity="8.3088509738445282e-02" nType="0">
            <Node pos="l" depth="3" NCoef="0" IVar="-1" Cut="0.0000000000000000e+00" cType="1" res="1.0193777829408646e-01" rms="3.5704672336578369e-01" purity="2.2310261428356171e-01" nType="-99"/>
            <Node pos="r" depth="3" NCoef="0" IVar="-1" Cut="0.0000000000000000e+00" cType="1" res="-9.3544997274875641e-02" rms="1.8386660516262054e-01" purity="4.2626090347766876e-02" nType="-99"/>
          </Node>
          <Node pos="r" depth="2" NCoef="0" IVar="8" Cut="2.4897245690226555e-02" cType="1" res="-1.5501777641475201e-02" rms="3.8749441504478455e-01" purity="6.7596518993377686e-01" nType="0">
            <Node pos="l" depth="3" NCoef="0" IVar="-1" Cut="0.0000000000000000e+00" cType="1" res="-1.2787733972072601e-01" rms="3.8468247652053833e-01" purity="7.8067851066589355e-01" nType="-99"/>
            <Node pos="r" depth="3" NCoef="0" IVar="-1" Cut="0.0000000000000000e+00" cType="1" res="1.3137158751487732e-01" rms="3.9124408364295959e-01" purity="3.9785850048065186e-01" nType="-99"/>
          </Node>
        </Node>
        <Node pos="r" depth="1" NCoef="0" IVar="2" Cut="9.9009899422526360e-03" cType="1" res="1.7404317623004317e-03" rms="3.1120651960372925e-01" purity="5.9336322546005249e-01" nType="0">
          <Node pos="l" depth="2" NCoef="0" IVar="5" Cut="9.5474217087030411e-03" cType="1" res="2.4607136845588684e-02" rms="3.0382931232452393e-01" purity="8.3545893430709839e-01" nType="0">
            <Node pos="l" depth="3" NCoef="0" IVar="-1" Cut="0.0000000000000000e+00" cType="1" res="1.0230913013219833e-01" rms="4.0766674280166626e-01" purity="7.1706151962280273e-01" nType="-99"/>
            <Node pos="r" depth="3" NCoef="0" IVar="-1" Cut="0.0000000000000000e+00" cType="1" res="1.7575888335704803e-01" rms="1.3874156773090363e-01" purity="9.5185691118240356e-01" nType="-99"/>
          </Node>
          <Node pos="r" depth="2" NCoef="0" IVar="4" Cut="4.8772856593132019e-02" cType="1" res="-3.7075960426591337e-04" rms="3.1179425120353699e-01" purity="5.7101148366928101e-01" nType="0">
            <Node pos="l" depth="3" NCoef="0" IVar="-1" Cut="0.0000000000000000e+00" cType="1" res="-6.5506316721439362e-02" rms="3.9141547679901123e-01" purity="6.6227042675018311e-01" nType="-99"/>
